7.291115123694773E-4,0.0018231353225450738,0.17360890065827414,-0.008580400097552942,-0.011220248563911496,-0.002528834445432346,0.0013316531730960465,-0.0010252448164005691,-0.002751342052937667,0.0026457767706696503,-0.0017094831977792196,0.003309585325105124,0.0024628662827545413,-7.47271594389699E-4,0.004387415834359975,6.442420153269723E-4,-0.011793871719449251,0.015007389482165463,-0.0018170648145959315,-0.0015885863866002296,0.007766430177520289,-0.006156899087309289,0.01259165695196666,-1.9247291705312366E-4,0.0015107460194423007,-0.008840918360906056,0.005438520461422481,-0.07481730704561398,-0.03978294610031299,0.006904483668271965,-0.004125439549043421,-0.0014792230106610272,0.0025522628167446277,-0.0014540421639787095,-0.0014505799636397015,-6.775820298204881E-4,0.007165260944260719,0.0014098260467893065,1.452347338452132E-4,0.003119465290252721,0.008790192031620637,8.140957767862507E-4,-0.00244874200754341,-6.295000845383849E-5,0.004838200718369021,-0.0030712920511024675,-0.0010695796914129056,0.0021558565304110986,0.0025806179939470947,0.0013503277851103564,-0.0015588324431301487,-0.0017170189800266003,0.0015243858802410307,-0.004748585155011489,9.160264829010671E-4,0.001302095922242163,-0.003005020144043014,0.0016400338010930935,-0.0019584879813053483,-0.00107139248225589,0.002018515910913717,0.0014811939544579027,9.160264829010671E-4,0.0027090664790157676,0.00992820267333636,-0.002301159879126992,-0.0020418980953184345,0.01426610679531882,-0.03503436094530165,0.001639066200547905,0.004972837156848093,0.0032439418408083086,0.0011372335992600987,-6.328082563926672E-4,0.003190321382254845,-2.3249585518161857E-4,-6.301512844763191E-4,0.0038616850625982748,-0.0021574416679073925,7.016063944323379E-4,7.381128319964859E-4,0.0021846315164193203,-3.200441030216094E-4,-0.0015694857214412284,-0.0018073046381179554,0.0035600598663102453,-0.0031954714273750833,-4.90598094910759E-4,0.0012607154684541825,0.09879159361265763,0.005380329468587116,-0.008097230256295216,-0.06909390158625589,-0.001566651896592413,-0.012754331560042126,0.002938529736018859,0.01937847337638195,-0.05283563392673874,0.001461593247708399,-0.00278031225367048,-0.004673940514665923,-9.112838358439842E-4,-5.448682365351861E-4,0.003425083311827738,0.00130205547103501,-0.004372336669582109,-0.009340448569356749,-0.009523422488575715,0.0012526403248832843,0.010768358840581202,-0.001866599975213435,0.0018274208084830732,-0.0022715614398152225,-0.005577273030448786,3.3836539880022036E-4,9.37105350440602E-5,-0.0011301834553393572,0.005750969505631464,-8.682538591349567E-4,0.0021447602615116625,-0.00630107975399586,-0.005142521902009711,0.005111095460033428,-0.005800311471940424,-0.006560143015849235,0.008607651594436898,-0.011057209505694113,-0.07242247811841242,-7.291115123694773E-4,-0.0018231353225450738,-0.17360890065827414,0.008580400097553008,0.011220248563911463,0.0025288344454326922,-0.0013316531730960465,0.0010252448163895547,0.0027513420529375566,-0.0026457767706696503,0.001709483197785255,-0.0033095853251048743,-0.002462866282757043,7.472715943920284E-4,-0.00438741583436406,-6.442420153269723E-4,0.011793871719450587,-0.015007389482165517,0.0018170648145959315,0.0015885863866002296,-0.007766430177520289,0.006156899087309289,-0.01259165695196666,1.9247291705312366E-4,-0.0015107460194411458,0.00884091836090529,-0.005438520461422212,0.07481730704561398,0.03978294610031299,-0.006904483668272312,0.0041254395490457375,0.0014792230106610272,-0.0025522628167475823,0.0014540421639800748,0.0014505799636410402,6.775820298184953E-4,-0.007165260944259922,-0.0014098260467895354,-1.452347338452132E-4,-0.003119465290252721,-0.008790192031620637,-8.140957767862507E-4,0.00244874200754341,6.295000845383849E-5,-0.0048382007183708385,0.0030712920511024072,0.0010695796914125001,-0.0021558565304110986,-0.0025806179939470947,-0.0013503277851103564,0.0015588324431301487,0.0017170189800266003,-0.0015243858802410307,0.004748585155011489,-9.160264829010671E-4,-0.001302095922242163,0.003005020144043014,-0.0016400338010930935,0.0019584879813053483,0.00107139248225589,-0.002018515910913717,-0.0014811939544579027,-9.160264829010671E-4,-0.0027090664790157676,-0.00992820267333636,0.002301159879126992,0.0020418980953184345,-0.01426610679531882,0.03503436094530165,-0.001639066200547905,-0.004972837156848965,-0.003243941840804166,-0.0011372335992600987,6.328082563918743E-4,-0.0031903213822546232,2.324958551818545E-4,6.301512844766093E-4,-0.003861685062600946,0.0021574416679061644,-7.016063944323379E-4,-7.381128319964859E-4,-0.0021846315164193203,3.200441030216094E-4,0.0015694857214412284,0.0018073046381179554,-0.003560059866309341,0.0031954714273750135,4.905980949087839E-4,-0.0012607154684541825,-0.09879159361265763,-0.0053803294685836,0.008097230256296247,0.06909390158625589,0.0015666518965950509,0.012754331560039323,-0.0029385297360202665,-0.01937847337637336,0.052835633926737874,-0.0014615932477126093,0.00278031225367048,0.004673940514665923,9.112838358439842E-4,5.448682365351861E-4,-0.003425083311827738,-0.00130205547103501,0.004372336669581541,0.009340448569355985,0.00952342248857407,-0.0012526403248832843,-0.010768358840581202,0.001866599975213435,-0.0018274208084830732,0.0022715614398152225,0.005577273030448786,-3.3836539880022036E-4,-9.37105350440602E-5,0.0011301834553393572,-0.005750969505631464,8.682538591349567E-4,-0.0021447602615116625,0.00630107975399586,0.005142521902009711,-0.005111095460033428,0.005800311471940424,0.006560143015849235,-0.008607651594436898,0.011057209505694113,0.07242247811841242,0.015320878261802597,0.015408283494754565,0.01721226113270744,0.01643991588683573,0.0029788429975488055,0.008427695593621429,-0.006791730375295223,0.005041275074495651,0.0020955162639882895,-0.004734149283998737,-0.004129390122163568,-0.0022991536614438784,-8.988318643036211E-4,-0.003962869019901329,-0.0011649910398585698,-2.3711192956452502E-4,-0.001500521347532467,-0.005204036554863258,0.0021347517996847636,0.0010062185076928094,0.002374393990572283,0.0036296922096249067,-5.18980334742432E-4,7.686811946617381E-4,0.002956455067712412,0.00827434956809361,0.008618589680362474,0.008916127785572,0.011553156521870597,0.00181935691177987,0.004379614775473694,0.003956069191722456,0.0024522452005341974,9.728163770964184E-4,0.0021836439149877907,0.0018162489000639291,0.004253277093689717,0.0017497436922987535,-0.0034374508394519445,-0.006051399869987198,7.759196085520952E-4,-0.004185892734017186,0.0017121344339128786,-6.39905458792069E-4,0.005186801427106513,-0.002581612501501365,-7.031637909844759E-4,-0.0025480612306787863,3.871175960368576E-5,6.664202778176111E-4,0.004835964998740182,0.004550736714414942,0.0049133305319763705,0.002518796984054048,0.008123675474362187,-0.003474318114778939,0.0012950160214998832,-9.385075549326577E-4,-0.0013707738395248325,-0.0010037867707704342,0.0030823574700335203,-0.0025503223588226546,4.109425306430133E-4,-8.418801446409212E-4,0.0015855216973628679,-0.0018805470739894192,0.001284542503994672,-0.002923705228974317,-2.4835829424434318E-5,-0.006730466966427916,0.00186305914109652,-0.0021397405151494077,0.001520473048488631,5.685024255368846E-4,-0.0012424802666937745,-0.028431192828635807,-0.02857760988953207,-0.03104171945025664,-0.030511869392761383,-0.012921875383691182,-0.009332992254315938,0.0015406451620731687,-0.006555012720098869,-0.0016975588015597834,0.0035542921397832823,-7.692162479311177E-4,5.961989265773794E-4,-0.0012618543586368188,0.008242200003994655,0.00563086921248442,0.001341739395001963,0.0044018715775552995,0.006415607349923994,-0.0014700105114681201,5.374470316284051E-4,-0.001655840630167591,-7.867879034927773E-4,0.001546568516932068,-0.0013758953798051143,-0.0023803950788365735
