version: 100
cost-factor: 1
maxid: 9705
xsize: 47

continuation
header
list
other
paragraph

U1_-3:%x[-3,1]
U1_-2:%x[-2,1]
U1_-1:%x[-1,1]
U1_0:%x[0,1]
U1_1:%x[1,1]
U1_2:%x[2,1]
U1_3:%x[3,1]
U2_-3:%x[-3,2]
U2_-2:%x[-2,2]
U2_-1:%x[-1,2]
U2_0:%x[0,2]
U2_1:%x[1,2]
U2_2:%x[2,2]
U2_3:%x[3,2]
U3_-3:%x[-3,3]
U3_-2:%x[-2,3]
U3_-1:%x[-1,3]
U3_0:%x[0,3]
U3_1:%x[1,3]
U3_2:%x[2,3]
U3_3:%x[3,3]
U4_-3:%x[-3,4]
U4_-2:%x[-2,4]
U4_-1:%x[-1,4]
U4_0:%x[0,4]
U4_1:%x[1,4]
U4_2:%x[2,4]
U4_3:%x[3,4]
U5_-3:%x[-3,5]
U5_-2:%x[-2,5]
U5_-1:%x[-1,5]
U5_0:%x[0,5]
U5_1:%x[1,5]
U5_2:%x[2,5]
U5_3:%x[3,5]
U6_-3:%x[-3,6]
U6_-2:%x[-2,6]
U6_-1:%x[-1,6]
U6_0:%x[0,6]
U6_1:%x[1,6]
U6_2:%x[2,6]
U6_3:%x[3,6]
U7_-3:%x[-3,7]
U7_-2:%x[-2,7]
U7_-1:%x[-1,7]
U7_0:%x[0,7]
U7_1:%x[1,7]
U7_2:%x[2,7]
U7_3:%x[3,7]
U8_-3:%x[-3,8]
U8_-2:%x[-2,8]
U8_-1:%x[-1,8]
U8_0:%x[0,8]
U8_1:%x[1,8]
U8_2:%x[2,8]
U8_3:%x[3,8]
U9_-3:%x[-3,9]
U9_-2:%x[-2,9]
U9_-1:%x[-1,9]
U9_0:%x[0,9]
U9_1:%x[1,9]
U9_2:%x[2,9]
U9_3:%x[3,9]
U10_-3:%x[-3,14]
U10_-2:%x[-2,14]
U10_-1:%x[-1,14]
U10_0:%x[0,14]
U10_1:%x[1,14]
U10_2:%x[2,14]
U10_3:%x[3,14]
U11_-3:%x[-3,15]
U11_-2:%x[-2,15]
U11_-1:%x[-1,15]
U11_0:%x[0,15]
U11_1:%x[1,15]
U11_2:%x[2,15]
U11_3:%x[3,15]
U12_-3:%x[-3,16]
U12_-2:%x[-2,16]
U12_-1:%x[-1,16]
U12_0:%x[0,16]
U12_1:%x[1,16]
U12_2:%x[2,16]
U12_3:%x[3,16]
U13_-3:%x[-3,17]
U13_-2:%x[-2,17]
U13_-1:%x[-1,17]
U13_0:%x[0,17]
U13_1:%x[1,17]
U13_2:%x[2,17]
U13_3:%x[3,17]
U14_-3:%x[-3,18]
U14_-2:%x[-2,18]
U14_-1:%x[-1,18]
U14_0:%x[0,18]
U14_1:%x[1,18]
U14_2:%x[2,18]
U14_3:%x[3,18]
U15_-3:%x[-3,12]
U15_-2:%x[-2,12]
U15_-1:%x[-1,12]
U15_0:%x[0,12]
U15_1:%x[1,12]
U15_2:%x[2,12]
U15_3:%x[3,12]
U16_-3:%x[-3,13]
U16_-2:%x[-2,13]
U16_-1:%x[-1,13]
U16_0:%x[0,13]
U16_1:%x[1,13]
U16_2:%x[2,13]
U16_3:%x[3,13]
U17_-3:%x[-3,23]
U17_-2:%x[-2,23]
U17_-1:%x[-1,23]
U17_0:%x[0,23]
U17_1:%x[1,23]
U17_2:%x[2,23]
U17_3:%x[3,23]
U18_-3:%x[-3,24]
U18_-2:%x[-2,24]
U18_-1:%x[-1,24]
U18_0:%x[0,24]
U18_1:%x[1,24]
U18_2:%x[2,24]
U18_3:%x[3,24]
U19_-3:%x[-3,25]
U19_-2:%x[-2,25]
U19_-1:%x[-1,25]
U19_0:%x[0,25]
U19_1:%x[1,25]
U19_2:%x[2,25]
U19_3:%x[3,25]
U20_-3:%x[-3,26]
U20_-2:%x[-2,26]
U20_-1:%x[-1,26]
U20_0:%x[0,26]
U20_1:%x[1,26]
U20_2:%x[2,26]
U20_3:%x[3,26]
U21_-3:%x[-3,27]
U21_-2:%x[-2,27]
U21_-1:%x[-1,27]
U21_0:%x[0,27]
U21_1:%x[1,27]
U21_2:%x[2,27]
U21_3:%x[3,27]
U22_-3:%x[-3,29]
U22_-2:%x[-2,29]
U22_-1:%x[-1,29]
U22_0:%x[0,29]
U22_1:%x[1,29]
U22_2:%x[2,29]
U22_3:%x[3,29]
U23_-3:%x[-3,30]
U23_-2:%x[-2,30]
U23_-1:%x[-1,30]
U23_0:%x[0,30]
U23_1:%x[1,30]
U23_2:%x[2,30]
U23_3:%x[3,30]
U24_-3:%x[-3,31]
U24_-2:%x[-2,31]
U24_-1:%x[-1,31]
U24_0:%x[0,31]
U25_-3:%x[-3,37]
U25_-2:%x[-2,37]
U25_-1:%x[-1,37]
U25_0:%x[0,37]
U25_1:%x[1,37]
U25_2:%x[2,37]
U25_3:%x[3,37]
U26_-3:%x[-3,38]
U26_-2:%x[-2,38]
U26_-1:%x[-1,38]
U26_0:%x[0,38]
U26_1:%x[1,38]
U26_2:%x[2,38]
U26_3:%x[3,38]
U27_-3:%x[-3,39]
U27_-2:%x[-2,39]
U27_-1:%x[-1,39]
U27_0:%x[0,39]
U27_1:%x[1,39]
U27_2:%x[2,39]
U27_3:%x[3,39]
U28_-3:%x[-3,20]
U28_-2:%x[-2,20]
U28_-1:%x[-1,20]
U28_0:%x[0,20]
U28_1:%x[1,20]
U28_2:%x[2,20]
U28_3:%x[3,20]
U29_-3:%x[-3,21]
U29_-2:%x[-2,21]
U29_-1:%x[-1,21]
U29_0:%x[0,21]
U29_1:%x[1,21]
U29_2:%x[2,21]
U29_3:%x[3,21]
U30:%x[0,22]
U31_-3:%x[-3,40]
U31_-2:%x[-2,40]
U31_-1:%x[-1,40]
U31_0:%x[0,40]
U31_1:%x[1,40]
U31_2:%x[2,40]
U31_3:%x[3,40]
U32_-3:%x[-3,41]
U32_-2:%x[-2,41]
U32_-1:%x[-1,41]
U32_0:%x[0,41]
U32_1:%x[1,41]
U32_2:%x[2,41]
U32_3:%x[3,41]
Uglobal_33:%x[0,42]
Uglobal_34:%x[0,43]
Uglobal_35:%x[0,44]
Uglobal_36:%x[0,45]
Uglobal_37:%x[0,46]
U38:%x[0,19]
Udist_39_-2:%x[-2,10]
Udist_39_-1:%x[-1,10]
Udist_39_0:%x[0,10]
Udist_39_1:%x[1,10]
Udist_39_2:%x[2,10]
Udist_39_3:%x[3,10]
Udist_40_-2:%x[-2,11]
Udist_40_-1:%x[-1,11]
Udist_40_0:%x[0,11]
Udist_40_1:%x[1,11]
Udist_40_2:%x[2,11]
Udist_40_3:%x[3,11]
Udist_41_-2:%x[-2,32]
Udist_41_-1:%x[-1,32]
Udist_41_0:%x[0,32]
Udist_41_1:%x[1,32]
Udist_41_2:%x[2,32]
Udist_41_3:%x[3,32]
Udist_42_-2:%x[-2,33]
Udist_42_-1:%x[-1,33]
Udist_42_0:%x[0,33]
Udist_42_1:%x[1,33]
Udist_42_2:%x[2,33]
Udist_42_3:%x[3,33]
Udist_43_-2:%x[-2,32]/%x[-2,33]
Udist_43_-1:%x[-1,32]/%x[-1,33]
Udist_43_0:%x[0,32]/%x[0,33]
Udist_43_1:%x[1,32]/%x[1,33]
Udist_43_2:%x[2,32]/%x[2,33]
Udist_43_3:%x[3,32]/%x[3,33]
Udist_44_-2:%x[-2,34]
Udist_44_-1:%x[-1,34]
Udist_44_0:%x[0,34]
Udist_44_1:%x[1,34]
Udist_44_2:%x[2,34]
Udist_44_3:%x[3,34]
Udist_45_-2:%x[-2,35]
Udist_45_-1:%x[-1,35]
Udist_45_0:%x[0,35]
Udist_45_1:%x[1,35]
Udist_45_2:%x[2,35]
Udist_45_3:%x[3,35]
Udist_46_-2:%x[-2,36]
Udist_46_-1:%x[-1,36]
Udist_46_0:%x[0,36]
Udist_46_1:%x[1,36]
Udist_46_2:%x[2,36]
Udist_46_3:%x[3,36]

3185 U10_-1:0
7915 U10_-1:1
2590 U10_-1:10
8320 U10_-1:2
8130 U10_-1:3
4830 U10_-1:4
4180 U10_-1:5
4725 U10_-1:6
5715 U10_-1:7
3400 U10_-1:8
1545 U10_-1:9
325 U10_-1:_B-1
3245 U10_-2:0
7925 U10_-2:1
2845 U10_-2:10
8325 U10_-2:2
8145 U10_-2:3
4850 U10_-2:4
4305 U10_-2:5
4745 U10_-2:6
5745 U10_-2:7
3410 U10_-2:8
2175 U10_-2:9
1540 U10_-2:_B-1
320 U10_-2:_B-2
3305 U10_-3:0
7930 U10_-3:1
3005 U10_-3:10
8330 U10_-3:2
8160 U10_-3:3
4880 U10_-3:4
4405 U10_-3:5
4770 U10_-3:6
5770 U10_-3:7
3420 U10_-3:8
2585 U10_-3:9
2170 U10_-3:_B-1
1535 U10_-3:_B-2
315 U10_-3:_B-3
3115 U10_0:0
7905 U10_0:1
2180 U10_0:10
8315 U10_0:2
8120 U10_0:3
4815 U10_0:4
4075 U10_0:5
4690 U10_0:6
5685 U10_0:7
3390 U10_0:8
330 U10_0:9
3010 U10_1:0
7895 U10_1:1
1550 U10_1:10
8310 U10_1:2
8110 U10_1:3
4795 U10_1:4
3995 U10_1:5
4635 U10_1:6
5655 U10_1:7
3380 U10_1:8
335 U10_1:9
6855 U10_1:_B+1
2850 U10_2:0
7885 U10_2:1
340 U10_2:10
8305 U10_2:2
8100 U10_2:3
4775 U10_2:4
3925 U10_2:5
4560 U10_2:6
5625 U10_2:7
3370 U10_2:8
1555 U10_2:9
6405 U10_2:_B+1
6860 U10_2:_B+2
2595 U10_3:0
7875 U10_3:1
1560 U10_3:10
8300 U10_3:2
8090 U10_3:3
4750 U10_3:4
3855 U10_3:5
4485 U10_3:6
5600 U10_3:7
3360 U10_3:8
345 U10_3:9
6145 U10_3:_B+1
6410 U10_3:_B+2
6865 U10_3:_B+3
1575 U11_-1:0
4755 U11_-1:1
8530 U11_-1:10
4640 U11_-1:2
8495 U11_-1:3
4000 U11_-1:4
3645 U11_-1:5
5025 U11_-1:6
5100 U11_-1:7
5980 U11_-1:8
9245 U11_-1:9
360 U11_-1:_B-1
2190 U11_-2:0
4780 U11_-2:1
8535 U11_-2:10
4695 U11_-2:2
8500 U11_-2:3
4080 U11_-2:4
3685 U11_-2:5
5060 U11_-2:6
5140 U11_-2:7
5990 U11_-2:8
9250 U11_-2:9
1570 U11_-2:_B-1
355 U11_-2:_B-2
2600 U11_-3:0
4800 U11_-3:1
8540 U11_-3:10
4730 U11_-3:2
8505 U11_-3:3
4185 U11_-3:4
3725 U11_-3:5
5095 U11_-3:6
5185 U11_-3:7
6000 U11_-3:8
9255 U11_-3:9
2185 U11_-3:_B-1
1565 U11_-3:_B-2
350 U11_-3:_B-3
365 U11_0:0
4735 U11_0:1
8525 U11_0:10
4565 U11_0:2
8490 U11_0:3
3930 U11_0:4
3605 U11_0:5
4990 U11_0:6
5065 U11_0:7
5965 U11_0:8
9240 U11_0:9
370 U11_1:0
4700 U11_1:1
8520 U11_1:10
4490 U11_1:2
8475 U11_1:3
3860 U11_1:4
3565 U11_1:5
4955 U11_1:6
5030 U11_1:7
5950 U11_1:8
9235 U11_1:9
6870 U11_1:_B+1
375 U11_2:0
4645 U11_2:1
8515 U11_2:10
4410 U11_2:2
8895 U11_2:3
3805 U11_2:4
3530 U11_2:5
4925 U11_2:6
4995 U11_2:7
5935 U11_2:8
9230 U11_2:9
6415 U11_2:_B+1
6875 U11_2:_B+2
380 U11_3:0
4570 U11_3:1
8510 U11_3:10
4310 U11_3:2
8890 U11_3:3
3775 U11_3:4
3495 U11_3:5
4885 U11_3:6
4960 U11_3:7
5920 U11_3:8
9225 U11_3:9
6150 U11_3:_B+1
6420 U11_3:_B+2
6880 U11_3:_B+3
1590 U12_-1:0
5290 U12_-1:1
8565 U12_-1:10
8390 U12_-1:2
8075 U12_-1:3
9320 U12_-1:4
8670 U12_-1:5
9600 U12_-1:6
9505 U12_-1:8
395 U12_-1:_B-1
2200 U12_-2:0
5360 U12_-2:1
8570 U12_-2:10
8395 U12_-2:2
8080 U12_-2:3
9325 U12_-2:4
8675 U12_-2:5
9605 U12_-2:6
9510 U12_-2:8
1585 U12_-2:_B-1
390 U12_-2:_B-2
2605 U12_-3:0
5425 U12_-3:1
8575 U12_-3:10
8400 U12_-3:2
8085 U12_-3:3
9330 U12_-3:4
8680 U12_-3:5
9610 U12_-3:6
9515 U12_-3:8
2195 U12_-3:_B-1
1580 U12_-3:_B-2
385 U12_-3:_B-3
400 U12_0:0
5240 U12_0:1
8560 U12_0:10
8385 U12_0:2
8070 U12_0:3
9315 U12_0:4
8665 U12_0:5
9595 U12_0:6
9500 U12_0:8
405 U12_1:0
5190 U12_1:1
8555 U12_1:10
8380 U12_1:2
8065 U12_1:3
9310 U12_1:4
8660 U12_1:5
9590 U12_1:6
9495 U12_1:8
6885 U12_1:_B+1
410 U12_2:0
5145 U12_2:1
8550 U12_2:10
8375 U12_2:2
8060 U12_2:3
9305 U12_2:4
8655 U12_2:5
9585 U12_2:6
9490 U12_2:8
6425 U12_2:_B+1
6890 U12_2:_B+2
415 U12_3:0
5105 U12_3:1
8545 U12_3:10
8370 U12_3:2
8055 U12_3:3
9300 U12_3:4
8650 U12_3:5
9580 U12_3:6
9485 U12_3:8
6155 U12_3:_B+1
6430 U12_3:_B+2
6895 U12_3:_B+3
2615 U13_-1:0
1605 U13_-1:1
3190 U13_-1:10
4575 U13_-1:2
4005 U13_-1:3
4835 U13_-1:4
4195 U13_-1:5
8600 U13_-1:6
7760 U13_-1:7
7390 U13_-1:8
8460 U13_-1:9
430 U13_-1:_B-1
2855 U13_-2:0
2210 U13_-2:1
3250 U13_-2:10
4650 U13_-2:2
4085 U13_-2:3
4855 U13_-2:4
4315 U13_-2:5
8605 U13_-2:6
7765 U13_-2:7
7405 U13_-2:8
8465 U13_-2:9
1600 U13_-2:_B-1
425 U13_-2:_B-2
3015 U13_-3:0
2610 U13_-3:1
3310 U13_-3:10
4705 U13_-3:2
4190 U13_-3:3
4890 U13_-3:4
4415 U13_-3:5
8610 U13_-3:6
7770 U13_-3:7
7420 U13_-3:8
8470 U13_-3:9
2205 U13_-3:_B-1
1595 U13_-3:_B-2
420 U13_-3:_B-3
2215 U13_0:0
435 U13_0:1
3120 U13_0:10
4495 U13_0:2
3935 U13_0:3
4820 U13_0:4
4090 U13_0:5
8595 U13_0:6
7755 U13_0:7
7370 U13_0:8
8455 U13_0:9
1610 U13_1:0
440 U13_1:1
3020 U13_1:10
4420 U13_1:2
3865 U13_1:3
4805 U13_1:4
4010 U13_1:5
8590 U13_1:6
7750 U13_1:7
7315 U13_1:8
8450 U13_1:9
6900 U13_1:_B+1
445 U13_2:0
1615 U13_2:1
2860 U13_2:10
4320 U13_2:2
3810 U13_2:3
4785 U13_2:4
3940 U13_2:5
8585 U13_2:6
7745 U13_2:7
7375 U13_2:8
8445 U13_2:9
6435 U13_2:_B+1
6905 U13_2:_B+2
1620 U13_3:0
450 U13_3:1
2620 U13_3:10
4200 U13_3:2
3780 U13_3:3
4760 U13_3:4
3870 U13_3:5
8580 U13_3:6
7740 U13_3:7
7320 U13_3:8
8440 U13_3:9
6160 U13_3:_B+1
6440 U13_3:_B+2
6910 U13_3:_B+3
1635 U14_-1:0
4810 U14_-1:1
7495 U14_-1:10
5750 U14_-1:2
3650 U14_-1:3
8635 U14_-1:4
7445 U14_-1:5
9690 U14_-1:7
465 U14_-1:_B-1
2225 U14_-2:0
4825 U14_-2:1
7505 U14_-2:10
5775 U14_-2:2
3690 U14_-2:3
8640 U14_-2:4
7450 U14_-2:5
9695 U14_-2:7
1630 U14_-2:_B-1
460 U14_-2:_B-2
2625 U14_-3:0
4840 U14_-3:1
7520 U14_-3:10
5785 U14_-3:2
3730 U14_-3:3
8645 U14_-3:4
7460 U14_-3:5
9700 U14_-3:7
2220 U14_-3:_B-1
1625 U14_-3:_B-2
455 U14_-3:_B-3
470 U14_0:0
4790 U14_0:1
7485 U14_0:10
5720 U14_0:2
3610 U14_0:3
8630 U14_0:4
7440 U14_0:5
9685 U14_0:7
475 U14_1:0
4765 U14_1:1
7475 U14_1:10
5690 U14_1:2
3570 U14_1:3
8625 U14_1:4
7435 U14_1:5
9680 U14_1:7
6915 U14_1:_B+1
480 U14_2:0
4740 U14_2:1
7465 U14_2:10
5660 U14_2:2
3535 U14_2:3
8620 U14_2:4
7430 U14_2:5
9675 U14_2:7
6445 U14_2:_B+1
6920 U14_2:_B+2
485 U14_3:0
4710 U14_3:1
7455 U14_3:10
5630 U14_3:2
3500 U14_3:3
8615 U14_3:4
7425 U14_3:5
9670 U14_3:7
6165 U14_3:_B+1
6450 U14_3:_B+2
6925 U14_3:_B+3
3200 U15_-1:0
5875 U15_-1:1
3345 U15_-1:10
3735 U15_-1:2
1650 U15_-1:4
2240 U15_-1:6
3025 U15_-1:8
500 U15_-1:_B-1
3255 U15_-2:0
5890 U15_-2:1
3350 U15_-2:10
3750 U15_-2:2
2235 U15_-2:4
2635 U15_-2:6
3125 U15_-2:8
1645 U15_-2:_B-1
495 U15_-2:_B-2
3315 U15_-3:0
5895 U15_-3:1
3365 U15_-3:10
3755 U15_-3:2
2630 U15_-3:4
2865 U15_-3:6
3195 U15_-3:8
2230 U15_-3:_B-1
1640 U15_-3:_B-2
490 U15_-3:_B-3
3130 U15_0:0
5860 U15_0:1
3320 U15_0:10
3695 U15_0:2
505 U15_0:4
1655 U15_0:6
2870 U15_0:8
3030 U15_1:0
5845 U15_1:1
3260 U15_1:10
3655 U15_1:2
1660 U15_1:4
510 U15_1:6
2640 U15_1:8
6930 U15_1:_B+1
2875 U15_2:0
5825 U15_2:1
3205 U15_2:10
3615 U15_2:2
515 U15_2:4
1665 U15_2:6
2245 U15_2:8
6455 U15_2:_B+1
6935 U15_2:_B+2
2645 U15_3:0
5810 U15_3:1
3135 U15_3:10
3575 U15_3:2
2880 U15_3:4
520 U15_3:6
1670 U15_3:8
6170 U15_3:_B+1
6460 U15_3:_B+2
6940 U15_3:_B+3
3210 U16_-1:0
2660 U16_-1:1
7720 U16_-1:12
7675 U16_-1:16
2895 U16_-1:2
2260 U16_-1:3
9390 U16_-1:32
1685 U16_-1:4
4095 U16_-1:6
5000 U16_-1:8
535 U16_-1:_B-1
3265 U16_-2:0
2890 U16_-2:1
7730 U16_-2:12
7690 U16_-2:16
3040 U16_-2:2
2655 U16_-2:3
9395 U16_-2:32
2255 U16_-2:4
4205 U16_-2:6
5035 U16_-2:8
1680 U16_-2:_B-1
530 U16_-2:_B-2
3325 U16_-3:0
3035 U16_-3:1
7735 U16_-3:12
7705 U16_-3:16
3140 U16_-3:2
2885 U16_-3:3
9400 U16_-3:32
2650 U16_-3:4
4325 U16_-3:6
5070 U16_-3:8
2250 U16_-3:_B-1
1675 U16_-3:_B-2
525 U16_-3:_B-3
3145 U16_0:0
2265 U16_0:1
7710 U16_0:12
7660 U16_0:16
2665 U16_0:2
1690 U16_0:3
9385 U16_0:32
540 U16_0:4
4015 U16_0:6
4965 U16_0:8
3045 U16_1:0
1695 U16_1:1
7695 U16_1:12
7650 U16_1:16
2270 U16_1:2
545 U16_1:3
9380 U16_1:32
3150 U16_1:4
3945 U16_1:6
4930 U16_1:8
6945 U16_1:_B+1
2900 U16_2:0
550 U16_2:1
7680 U16_2:12
7640 U16_2:16
1700 U16_2:2
3455 U16_2:3
9375 U16_2:32
3050 U16_2:4
3875 U16_2:6
4895 U16_2:8
6465 U16_2:_B+1
6950 U16_2:_B+2
2670 U16_3:0
1705 U16_3:1
7665 U16_3:12
7635 U16_3:16
555 U16_3:2
3435 U16_3:3
9370 U16_3:32
2905 U16_3:4
3815 U16_3:6
4860 U16_3:8
6175 U16_3:_B+1
6470 U16_3:_B+2
6955 U16_3:_B+3
1720 U17_-1:0
7510 U17_-1:1
570 U17_-1:_B-1
2280 U17_-2:0
7525 U17_-2:1
1715 U17_-2:_B-1
565 U17_-2:_B-2
2675 U17_-3:0
7535 U17_-3:1
2275 U17_-3:_B-1
1710 U17_-3:_B-2
560 U17_-3:_B-3
575 U17_0:0
7500 U17_0:1
580 U17_1:0
7490 U17_1:1
6960 U17_1:_B+1
585 U17_2:0
7480 U17_2:1
6475 U17_2:_B+1
6965 U17_2:_B+2
590 U17_3:0
7470 U17_3:1
6180 U17_3:_B+1
6480 U17_3:_B+2
6970 U17_3:_B+3
1735 U18_-1:0
7590 U18_-1:1
605 U18_-1:_B-1
2290 U18_-2:0
7600 U18_-2:1
1730 U18_-2:_B-1
600 U18_-2:_B-2
2680 U18_-3:0
7610 U18_-3:1
2285 U18_-3:_B-1
1725 U18_-3:_B-2
595 U18_-3:_B-3
610 U18_0:0
7580 U18_0:1
615 U18_1:0
7575 U18_1:1
6975 U18_1:_B+1
620 U18_2:0
7560 U18_2:1
6485 U18_2:_B+1
6980 U18_2:_B+2
625 U18_3:0
7550 U18_3:1
6185 U18_3:_B+1
6490 U18_3:_B+2
6985 U18_3:_B+3
1750 U19_-1:0
4100 U19_-1:1
640 U19_-1:_B-1
2300 U19_-2:0
4210 U19_-2:1
1745 U19_-2:_B-1
635 U19_-2:_B-2
2685 U19_-3:0
4330 U19_-3:1
2295 U19_-3:_B-1
1740 U19_-3:_B-2
630 U19_-3:_B-3
645 U19_0:0
4020 U19_0:1
650 U19_1:0
3950 U19_1:1
6990 U19_1:_B+1
655 U19_2:0
3880 U19_2:1
6495 U19_2:_B+1
6995 U19_2:_B+2
660 U19_3:0
3820 U19_3:1
6190 U19_3:_B+1
6500 U19_3:_B+2
7000 U19_3:_B+3
2060 U1_-1:0
1355 U1_-1:1
9030 U1_-1:16
5305 U1_-1:2
5525 U1_-1:4
4515 U1_-1:8
10 U1_-1:_B-1
2505 U1_-2:0
2055 U1_-2:1
9035 U1_-2:16
5370 U1_-2:2
5555 U1_-2:4
4590 U1_-2:8
1350 U1_-2:_B-1
5 U1_-2:_B-2
2800 U1_-3:0
2500 U1_-3:1
9040 U1_-3:16
5435 U1_-3:2
5575 U1_-3:4
4660 U1_-3:8
2050 U1_-3:_B-1
1345 U1_-3:_B-2
0 U1_-3:_B-3
1360 U1_0:0
15 U1_0:1
9025 U1_0:16
5245 U1_0:2
5490 U1_0:4
4440 U1_0:8
20 U1_1:0
3465 U1_1:1
9020 U1_1:16
5195 U1_1:2
5440 U1_1:4
4360 U1_1:8
6715 U1_1:_B+1
25 U1_2:0
3450 U1_2:1
9015 U1_2:16
5150 U1_2:2
5375 U1_2:4
4250 U1_2:8
6310 U1_2:_B+1
6720 U1_2:_B+2
30 U1_3:0
3430 U1_3:1
9010 U1_3:16
5115 U1_3:2
5310 U1_3:4
4135 U1_3:8
6095 U1_3:_B+1
6315 U1_3:_B+2
6725 U1_3:_B+3
1765 U20_-1:0
8180 U20_-1:1
675 U20_-1:_B-1
2310 U20_-2:0
8185 U20_-2:1
1760 U20_-2:_B-1
670 U20_-2:_B-2
2690 U20_-3:0
8190 U20_-3:1
2305 U20_-3:_B-1
1755 U20_-3:_B-2
665 U20_-3:_B-3
680 U20_0:0
8175 U20_0:1
685 U20_1:0
8165 U20_1:1
7005 U20_1:_B+1
690 U20_2:0
8150 U20_2:1
6505 U20_2:_B+1
7010 U20_2:_B+2
695 U20_3:0
8135 U20_3:1
6195 U20_3:_B+1
6510 U20_3:_B+2
7015 U20_3:_B+3
1780 U21_-1:0
8955 U21_-1:1
710 U21_-1:_B-1
2320 U21_-2:0
8960 U21_-2:1
1775 U21_-2:_B-1
705 U21_-2:_B-2
2695 U21_-3:0
8965 U21_-3:1
2315 U21_-3:_B-1
1770 U21_-3:_B-2
700 U21_-3:_B-3
715 U21_0:0
8950 U21_0:1
720 U21_1:0
8940 U21_1:1
7020 U21_1:_B+1
725 U21_2:0
9575 U21_2:1
6515 U21_2:_B+1
7025 U21_2:_B+2
730 U21_3:0
9570 U21_3:1
6200 U21_3:_B+1
6520 U21_3:_B+2
7030 U21_3:_B+3
1795 U22_-1:0
4215 U22_-1:1
745 U22_-1:_B-1
2330 U22_-2:0
4335 U22_-2:1
1790 U22_-2:_B-1
740 U22_-2:_B-2
2700 U22_-3:0
4425 U22_-3:1
2325 U22_-3:_B-1
1785 U22_-3:_B-2
735 U22_-3:_B-3
750 U22_0:0
4105 U22_0:1
755 U22_1:0
4025 U22_1:1
7035 U22_1:_B+1
760 U22_2:0
3955 U22_2:1
6525 U22_2:_B+1
7040 U22_2:_B+2
765 U22_3:0
3885 U22_3:1
6205 U22_3:_B+1
6530 U22_3:_B+2
7045 U22_3:_B+3
1810 U23_-1:0
2345 U23_-1:1
780 U23_-1:_B-1
2340 U23_-2:0
2710 U23_-2:1
1805 U23_-2:_B-1
775 U23_-2:_B-2
2705 U23_-3:0
2910 U23_-3:1
2335 U23_-3:_B-1
1800 U23_-3:_B-2
770 U23_-3:_B-3
785 U23_0:0
1815 U23_0:1
3055 U23_1:0
790 U23_1:1
7050 U23_1:_B+1
2915 U23_2:0
795 U23_2:1
6535 U23_2:_B+1
7055 U23_2:_B+2
2715 U23_3:0
800 U23_3:1
6210 U23_3:_B+1
6540 U23_3:_B+2
7060 U23_3:_B+3
2360 U24_-1:0
1830 U24_-1:1
815 U24_-1:_B-1
2725 U24_-2:0
2355 U24_-2:1
1825 U24_-2:_B-1
810 U24_-2:_B-2
2920 U24_-3:0
2720 U24_-3:1
2350 U24_-3:_B-1
1820 U24_-3:_B-2
805 U24_-3:_B-3
1835 U24_0:0
820 U24_0:1
1850 U25_-1:0
7955 U25_-1:1
8765 U25_-1:3
835 U25_-1:_B-1
2370 U25_-2:0
7960 U25_-2:1
8770 U25_-2:3
1845 U25_-2:_B-1
830 U25_-2:_B-2
2730 U25_-3:0
7965 U25_-3:1
8775 U25_-3:3
2365 U25_-3:_B-1
1840 U25_-3:_B-2
825 U25_-3:_B-3
840 U25_0:0
7950 U25_0:1
8760 U25_0:3
845 U25_1:0
7945 U25_1:1
8755 U25_1:3
7065 U25_1:_B+1
850 U25_2:0
7940 U25_2:1
8750 U25_2:3
6545 U25_2:_B+1
7070 U25_2:_B+2
855 U25_3:0
7935 U25_3:1
8745 U25_3:3
6215 U25_3:_B+1
6550 U25_3:_B+2
7075 U25_3:_B+3
1865 U26_-1:0
6220 U26_-1:2
5040 U26_-1:4
3660 U26_-1:6
870 U26_-1:_B-1
2380 U26_-2:0
6555 U26_-2:2
5075 U26_-2:4
3700 U26_-2:6
1860 U26_-2:_B-1
865 U26_-2:_B-2
2735 U26_-3:0
7080 U26_-3:2
5110 U26_-3:4
3740 U26_-3:6
2375 U26_-3:_B-1
1855 U26_-3:_B-2
860 U26_-3:_B-3
875 U26_0:0
6075 U26_0:2
5005 U26_0:4
3620 U26_0:6
880 U26_1:0
6050 U26_1:2
4970 U26_1:4
3580 U26_1:6
7085 U26_1:_B+1
885 U26_2:0
6035 U26_2:2
4935 U26_2:4
3540 U26_2:6
6560 U26_2:_B+1
7090 U26_2:_B+2
890 U26_3:0
6020 U26_3:2
4900 U26_3:4
3505 U26_3:6
6225 U26_3:_B+1
6565 U26_3:_B+2
7095 U26_3:_B+3
1880 U27_-1:0
8140 U27_-1:1
5520 U27_-1:2
905 U27_-1:_B-1
2390 U27_-2:0
8155 U27_-2:1
5550 U27_-2:2
1875 U27_-2:_B-1
900 U27_-2:_B-2
2740 U27_-3:0
8170 U27_-3:1
5570 U27_-3:2
2385 U27_-3:_B-1
1870 U27_-3:_B-2
895 U27_-3:_B-3
910 U27_0:0
8125 U27_0:1
5485 U27_0:2
915 U27_1:0
8115 U27_1:1
5430 U27_1:2
7100 U27_1:_B+1
920 U27_2:0
8105 U27_2:1
5365 U27_2:2
6570 U27_2:_B+1
7105 U27_2:_B+2
925 U27_3:0
8095 U27_3:1
5295 U27_3:2
6230 U27_3:_B+1
6575 U27_3:_B+2
7110 U27_3:_B+3
1895 U28_-1:0
8275 U28_-1:101
8215 U28_-1:102
9425 U28_-1:103
9140 U28_-1:104
8355 U28_-1:201
7700 U28_-1:202
8995 U28_-1:204
8425 U28_-1:301
7620 U28_-1:303
9635 U28_-1:304
940 U28_-1:_B-1
2400 U28_-2:0
8285 U28_-2:101
8220 U28_-2:102
9430 U28_-2:103
9145 U28_-2:104
8360 U28_-2:201
7715 U28_-2:202
9000 U28_-2:204
8430 U28_-2:301
7625 U28_-2:303
9640 U28_-2:304
1890 U28_-2:_B-1
935 U28_-2:_B-2
2745 U28_-3:0
8295 U28_-3:101
8225 U28_-3:102
9435 U28_-3:103
9150 U28_-3:104
8365 U28_-3:201
7725 U28_-3:202
9005 U28_-3:204
8435 U28_-3:301
7630 U28_-3:303
9645 U28_-3:304
2395 U28_-3:_B-1
1885 U28_-3:_B-2
930 U28_-3:_B-3
945 U28_0:0
8265 U28_0:101
8210 U28_0:102
9420 U28_0:103
9135 U28_0:104
8350 U28_0:201
7685 U28_0:202
8990 U28_0:204
8420 U28_0:301
7615 U28_0:303
9630 U28_0:304
950 U28_1:0
8255 U28_1:101
8205 U28_1:102
9415 U28_1:103
9130 U28_1:104
8345 U28_1:201
7670 U28_1:202
8985 U28_1:204
8415 U28_1:301
7605 U28_1:303
9625 U28_1:304
7115 U28_1:_B+1
955 U28_2:0
8245 U28_2:101
8200 U28_2:102
9410 U28_2:103
9125 U28_2:104
8340 U28_2:201
7655 U28_2:202
8980 U28_2:204
8410 U28_2:301
7595 U28_2:303
9620 U28_2:304
6580 U28_2:_B+1
7120 U28_2:_B+2
960 U28_3:0
8235 U28_3:101
8195 U28_3:102
9405 U28_3:103
9120 U28_3:104
8335 U28_3:201
7645 U28_3:202
8975 U28_3:204
8405 U28_3:301
7585 U28_3:303
9615 U28_3:304
6235 U28_3:_B+1
6585 U28_3:_B+2
7125 U28_3:_B+3
1910 U29_-1:1
3665 U29_-1:2
3415 U29_-1:3
3215 U29_-1:4
975 U29_-1:_B-1
2410 U29_-2:1
3705 U29_-2:2
3425 U29_-2:3
3270 U29_-2:4
1905 U29_-2:_B-1
970 U29_-2:_B-2
2750 U29_-3:1
3745 U29_-3:2
3440 U29_-3:3
3330 U29_-3:4
2405 U29_-3:_B-1
1900 U29_-3:_B-2
965 U29_-3:_B-3
980 U29_0:1
3625 U29_0:2
3405 U29_0:3
3155 U29_0:4
985 U29_1:1
3585 U29_1:2
3395 U29_1:3
3060 U29_1:4
7130 U29_1:_B+1
990 U29_2:1
3545 U29_2:2
3385 U29_2:3
2925 U29_2:4
6590 U29_2:_B+1
7135 U29_2:_B+2
995 U29_3:1
3510 U29_3:2
3375 U29_3:3
2755 U29_3:4
6240 U29_3:_B+1
6595 U29_3:_B+2
7140 U29_3:_B+3
3175 U2_-1:0
2520 U2_-1:1
4520 U2_-1:128
5315 U2_-1:16
2075 U2_-1:2
5450 U2_-1:32
1375 U2_-1:4
5535 U2_-1:64
4975 U2_-1:8
45 U2_-1:_B-1
3235 U2_-2:0
2810 U2_-2:1
4595 U2_-2:128
5380 U2_-2:16
2515 U2_-2:2
5495 U2_-2:32
2070 U2_-2:4
5560 U2_-2:64
5010 U2_-2:8
1370 U2_-2:_B-1
40 U2_-2:_B-2
3295 U2_-3:0
2970 U2_-3:1
4665 U2_-3:128
5445 U2_-3:16
2805 U2_-3:2
5530 U2_-3:32
2510 U2_-3:4
5580 U2_-3:64
5045 U2_-3:8
2065 U2_-3:_B-1
1365 U2_-3:_B-2
35 U2_-3:_B-3
3085 U2_0:0
2080 U2_0:1
4445 U2_0:128
5250 U2_0:16
1380 U2_0:2
5385 U2_0:32
50 U2_0:4
5500 U2_0:64
4940 U2_0:8
2975 U2_1:0
1385 U2_1:1
4365 U2_1:128
5200 U2_1:16
55 U2_1:2
5320 U2_1:32
3090 U2_1:4
5455 U2_1:64
4910 U2_1:8
6730 U2_1:_B+1
2815 U2_2:0
60 U2_2:1
4255 U2_2:128
5155 U2_2:16
1390 U2_2:2
5255 U2_2:32
2980 U2_2:4
5390 U2_2:64
4865 U2_2:8
6320 U2_2:_B+1
6735 U2_2:_B+2
2525 U2_3:0
1395 U2_3:1
4140 U2_3:128
5120 U2_3:16
65 U2_3:2
5205 U2_3:32
2820 U2_3:4
5325 U2_3:64
4845 U2_3:8
6100 U2_3:_B+1
6325 U2_3:_B+2
6740 U2_3:_B+3
3275 U30:0
1000 U30:1
1925 U31_-1:0
9190 U31_-1:1
9105 U31_-1:2
7850 U31_-1:3
4110 U31_-1:4
1015 U31_-1:_B-1
2420 U31_-2:0
9200 U31_-2:1
9110 U31_-2:2
7855 U31_-2:3
4220 U31_-2:4
1920 U31_-2:_B-1
1010 U31_-2:_B-2
2760 U31_-3:0
9210 U31_-3:1
9115 U31_-3:2
7860 U31_-3:3
4340 U31_-3:4
2415 U31_-3:_B-1
1915 U31_-3:_B-2
1005 U31_-3:_B-3
1020 U31_0:0
9180 U31_0:1
9080 U31_0:2
7845 U31_0:3
4030 U31_0:4
1025 U31_1:0
9170 U31_1:1
9085 U31_1:2
7840 U31_1:3
3960 U31_1:4
7145 U31_1:_B+1
1030 U31_2:0
9160 U31_2:1
9090 U31_2:2
7835 U31_2:3
3890 U31_2:4
6600 U31_2:_B+1
7150 U31_2:_B+2
1035 U31_3:0
9155 U31_3:1
9095 U31_3:2
7825 U31_3:3
3825 U31_3:4
6245 U31_3:_B+1
6605 U31_3:_B+2
7155 U31_3:_B+3
2435 U32_-1:0
9205 U32_-1:1
7380 U32_-1:2
7815 U32_-1:3
1940 U32_-1:4
1050 U32_-1:_B-1
2770 U32_-2:0
9215 U32_-2:1
7395 U32_-2:2
7820 U32_-2:3
2430 U32_-2:4
1935 U32_-2:_B-1
1045 U32_-2:_B-2
2930 U32_-3:0
9220 U32_-3:1
7410 U32_-3:2
7830 U32_-3:3
2765 U32_-3:4
2425 U32_-3:_B-1
1930 U32_-3:_B-2
1040 U32_-3:_B-3
1945 U32_0:0
9195 U32_0:1
7325 U32_0:2
7775 U32_0:3
1055 U32_0:4
1060 U32_1:0
9185 U32_1:1
7330 U32_1:2
7780 U32_1:3
3965 U32_1:4
7160 U32_1:_B+1
1065 U32_2:0
9175 U32_2:1
7335 U32_2:2
7785 U32_2:3
3895 U32_2:4
6610 U32_2:_B+1
7165 U32_2:_B+2
1070 U32_3:0
9165 U32_3:1
7340 U32_3:2
7790 U32_3:3
3830 U32_3:4
6250 U32_3:_B+1
6615 U32_3:_B+2
7170 U32_3:_B+3
1100 U38:0
3355 U38:1
6010 U38:10
3475 U38:2
3760 U38:3
4500 U38:4
4905 U38:5
5300 U38:6
5725 U38:7
5830 U38:8
5900 U38:9
3180 U3_-1:0
8875 U3_-1:1
1410 U3_-1:10
6105 U3_-1:2
4605 U3_-1:3
5400 U3_-1:4
5260 U3_-1:5
4450 U3_-1:6
2825 U3_-1:7
5850 U3_-1:8
4050 U3_-1:9
80 U3_-1:_B-1
3240 U3_-2:0
8880 U3_-2:1
2090 U3_-2:10
6330 U3_-2:2
4670 U3_-2:3
5460 U3_-2:4
5330 U3_-2:5
4525 U3_-2:6
2985 U3_-2:7
5865 U3_-2:8
4145 U3_-2:9
1405 U3_-2:_B-1
75 U3_-2:_B-2
3300 U3_-3:0
8885 U3_-3:1
2530 U3_-3:10
6745 U3_-3:2
4715 U3_-3:3
5505 U3_-3:4
5395 U3_-3:5
4600 U3_-3:6
3095 U3_-3:7
5880 U3_-3:8
4260 U3_-3:9
2085 U3_-3:_B-1
1400 U3_-3:_B-2
70 U3_-3:_B-3
3100 U3_0:0
8870 U3_0:1
85 U3_0:10
6070 U3_0:2
4530 U3_0:3
5335 U3_0:4
5210 U3_0:5
4370 U3_0:6
2535 U3_0:7
5835 U3_0:8
3985 U3_0:9
2990 U3_1:0
8865 U3_1:1
90 U3_1:10
6045 U3_1:2
4455 U3_1:3
5265 U3_1:4
5160 U3_1:5
4265 U3_1:6
2095 U3_1:7
5815 U3_1:8
3915 U3_1:9
6750 U3_1:_B+1
2830 U3_2:0
8860 U3_2:1
95 U3_2:10
6030 U3_2:2
4375 U3_2:3
5215 U3_2:4
5125 U3_2:5
4150 U3_2:6
1415 U3_2:7
5800 U3_2:8
3845 U3_2:9
6335 U3_2:_B+1
6755 U3_2:_B+2
2540 U3_3:0
8855 U3_3:1
1420 U3_3:10
6015 U3_3:2
4270 U3_3:3
5165 U3_3:4
5080 U3_3:5
4055 U3_3:6
100 U3_3:7
5790 U3_3:8
3795 U3_3:9
6110 U3_3:_B+1
6340 U3_3:_B+2
6760 U3_3:_B+3
1435 U4_-1:0
3630 U4_-1:1
5695 U4_-1:16
5465 U4_-1:2
5015 U4_-1:4
4535 U4_-1:8
115 U4_-1:_B-1
2105 U4_-2:0
3670 U4_-2:1
5730 U4_-2:16
5510 U4_-2:2
5050 U4_-2:4
4610 U4_-2:8
1430 U4_-2:_B-1
110 U4_-2:_B-2
2545 U4_-3:0
3710 U4_-3:1
5755 U4_-3:16
5540 U4_-3:2
5085 U4_-3:4
4675 U4_-3:8
2100 U4_-3:_B-1
1425 U4_-3:_B-2
105 U4_-3:_B-3
120 U4_0:0
3590 U4_0:1
5665 U4_0:16
5405 U4_0:2
4980 U4_0:4
4460 U4_0:8
125 U4_1:0
3550 U4_1:1
5635 U4_1:16
5340 U4_1:2
4945 U4_1:4
4380 U4_1:8
6765 U4_1:_B+1
130 U4_2:0
3515 U4_2:1
5605 U4_2:16
5270 U4_2:2
4915 U4_2:4
4275 U4_2:8
6345 U4_2:_B+1
6770 U4_2:_B+2
135 U4_3:0
3480 U4_3:1
5585 U4_3:16
5220 U4_3:2
4870 U4_3:4
4155 U4_3:8
6115 U4_3:_B+1
6350 U4_3:_B+2
6775 U4_3:_B+3
1450 U5_-1:0
4060 U5_-1:1
5020 U5_-1:10
5345 U5_-1:2
4615 U5_-1:3
8005 U5_-1:4
3635 U5_-1:5
5735 U5_-1:6
5985 U5_-1:7
8270 U5_-1:8
150 U5_-1:_B-1
2115 U5_-2:0
4160 U5_-2:1
5055 U5_-2:10
5410 U5_-2:2
4680 U5_-2:3
8015 U5_-2:4
3675 U5_-2:5
5760 U5_-2:6
5995 U5_-2:7
8280 U5_-2:8
1445 U5_-2:_B-1
145 U5_-2:_B-2
2550 U5_-3:0
4280 U5_-3:1
5090 U5_-3:10
5470 U5_-3:2
4720 U5_-3:3
8025 U5_-3:4
3715 U5_-3:5
5780 U5_-3:6
6005 U5_-3:7
8290 U5_-3:8
2110 U5_-3:_B-1
1440 U5_-3:_B-2
140 U5_-3:_B-3
155 U5_0:0
3990 U5_0:1
4985 U5_0:10
5275 U5_0:2
4540 U5_0:3
7995 U5_0:4
3595 U5_0:5
5700 U5_0:6
5970 U5_0:7
8260 U5_0:8
160 U5_1:0
3920 U5_1:1
4950 U5_1:10
5225 U5_1:2
4465 U5_1:3
7985 U5_1:4
3555 U5_1:5
5670 U5_1:6
5955 U5_1:7
8250 U5_1:8
6780 U5_1:_B+1
165 U5_2:0
3850 U5_2:1
4920 U5_2:10
5170 U5_2:2
4385 U5_2:3
7975 U5_2:4
3520 U5_2:5
5640 U5_2:6
5940 U5_2:7
8240 U5_2:8
6355 U5_2:_B+1
6785 U5_2:_B+2
170 U5_3:0
3800 U5_3:1
4875 U5_3:10
5130 U5_3:2
4285 U5_3:3
7970 U5_3:4
3485 U5_3:5
5610 U5_3:6
5925 U5_3:7
8230 U5_3:8
6120 U5_3:_B+1
6360 U5_3:_B+2
6790 U5_3:_B+3
1465 U6_-1:0
5710 U6_-1:1
5645 U6_-1:2
9550 U6_-1:4
185 U6_-1:_B-1
2125 U6_-2:0
5740 U6_-2:1
5675 U6_-2:2
9555 U6_-2:4
1460 U6_-2:_B-1
180 U6_-2:_B-2
2555 U6_-3:0
5765 U6_-3:1
5705 U6_-3:2
9565 U6_-3:4
2120 U6_-3:_B-1
1455 U6_-3:_B-2
175 U6_-3:_B-3
190 U6_0:0
5680 U6_0:1
5615 U6_0:2
9545 U6_0:4
195 U6_1:0
5650 U6_1:1
5590 U6_1:2
9540 U6_1:4
6795 U6_1:_B+1
200 U6_2:0
5620 U6_2:1
5565 U6_2:2
9535 U6_2:4
6365 U6_2:_B+1
6800 U6_2:_B+2
205 U6_3:0
5595 U6_3:1
5545 U6_3:2
9560 U6_3:4
6125 U6_3:_B+1
6370 U6_3:_B+2
6805 U6_3:_B+3
1480 U7_-1:0
8020 U7_-1:1
8835 U7_-1:10
8925 U7_-1:2
9465 U7_-1:3
9280 U7_-1:5
8820 U7_-1:7
220 U7_-1:_B-1
2135 U7_-2:0
8030 U7_-2:1
8845 U7_-2:10
8930 U7_-2:2
9470 U7_-2:3
9285 U7_-2:5
8830 U7_-2:7
1475 U7_-2:_B-1
215 U7_-2:_B-2
2560 U7_-3:0
8035 U7_-3:1
8850 U7_-3:10
8935 U7_-3:2
9475 U7_-3:3
9290 U7_-3:5
8840 U7_-3:7
2130 U7_-3:_B-1
1470 U7_-3:_B-2
210 U7_-3:_B-3
225 U7_0:0
8010 U7_0:1
8825 U7_0:10
8920 U7_0:2
9460 U7_0:3
9275 U7_0:5
8810 U7_0:7
230 U7_1:0
8000 U7_1:1
8815 U7_1:10
8915 U7_1:2
9455 U7_1:3
9270 U7_1:5
8800 U7_1:7
6810 U7_1:_B+1
235 U7_2:0
7990 U7_2:1
8805 U7_2:10
8910 U7_2:2
9450 U7_2:3
9265 U7_2:5
8790 U7_2:7
6375 U7_2:_B+1
6815 U7_2:_B+2
240 U7_3:0
7980 U7_3:1
8795 U7_3:10
8905 U7_3:2
9445 U7_3:3
9260 U7_3:5
8785 U7_3:7
6130 U7_3:_B+1
6380 U7_3:_B+2
6820 U7_3:_B+3
1495 U8_-1:0
2835 U8_-1:1
5945 U8_-1:16
4470 U8_-1:2
4550 U8_-1:4
5415 U8_-1:8
255 U8_-1:_B-1
2145 U8_-2:0
2995 U8_-2:1
5960 U8_-2:16
4545 U8_-2:2
4625 U8_-2:4
5475 U8_-2:8
1490 U8_-2:_B-1
250 U8_-2:_B-2
2565 U8_-3:0
3105 U8_-3:1
5975 U8_-3:16
4620 U8_-3:2
4685 U8_-3:4
5515 U8_-3:8
2140 U8_-3:_B-1
1485 U8_-3:_B-2
245 U8_-3:_B-3
260 U8_0:0
2570 U8_0:1
5930 U8_0:16
4390 U8_0:2
4475 U8_0:4
5350 U8_0:8
265 U8_1:0
2150 U8_1:1
5915 U8_1:16
4290 U8_1:2
4395 U8_1:4
5280 U8_1:8
6825 U8_1:_B+1
270 U8_2:0
1500 U8_2:1
5910 U8_2:16
4165 U8_2:2
4295 U8_2:4
5230 U8_2:8
6385 U8_2:_B+1
6830 U8_2:_B+2
1505 U8_3:0
275 U8_3:1
5905 U8_3:16
4065 U8_3:2
4170 U8_3:4
5175 U8_3:8
6135 U8_3:_B+1
6390 U8_3:_B+2
6835 U8_3:_B+3
1520 U9_-1:0
5355 U9_-1:1
7385 U9_-1:10
5855 U9_-1:2
2840 U9_-1:3
4480 U9_-1:4
3640 U9_-1:5
7900 U9_-1:6
9065 U9_-1:7
9355 U9_-1:8
290 U9_-1:_B-1
2160 U9_-2:0
5420 U9_-2:1
7400 U9_-2:10
5870 U9_-2:2
3000 U9_-2:3
4555 U9_-2:4
3680 U9_-2:5
7910 U9_-2:6
9070 U9_-2:7
9360 U9_-2:8
1515 U9_-2:_B-1
285 U9_-2:_B-2
2575 U9_-3:0
5480 U9_-3:1
7415 U9_-3:10
5885 U9_-3:2
3110 U9_-3:3
4630 U9_-3:4
3720 U9_-3:5
7920 U9_-3:6
9075 U9_-3:7
9365 U9_-3:8
2155 U9_-3:_B-1
1510 U9_-3:_B-2
280 U9_-3:_B-3
295 U9_0:0
5285 U9_0:1
7360 U9_0:10
5840 U9_0:2
2580 U9_0:3
4400 U9_0:4
3600 U9_0:5
7890 U9_0:6
9060 U9_0:7
9350 U9_0:8
300 U9_1:0
5235 U9_1:1
7305 U9_1:10
5820 U9_1:2
2165 U9_1:3
4300 U9_1:4
3560 U9_1:5
7880 U9_1:6
9055 U9_1:7
9345 U9_1:8
6840 U9_1:_B+1
305 U9_2:0
5180 U9_2:1
7365 U9_2:10
5805 U9_2:2
1525 U9_2:3
4175 U9_2:4
3525 U9_2:5
7870 U9_2:6
9050 U9_2:7
9340 U9_2:8
6395 U9_2:_B+1
6845 U9_2:_B+2
1530 U9_3:0
5135 U9_3:1
7310 U9_3:10
5795 U9_3:2
310 U9_3:3
4070 U9_3:4
3490 U9_3:5
7865 U9_3:6
9045 U9_3:7
9335 U9_3:8
6140 U9_3:_B+1
6400 U9_3:_B+2
6850 U9_3:_B+3
1955 Udist_39_-1:0
3220 Udist_39_-1:1
1110 Udist_39_-1:_B-1
2440 Udist_39_-2:0
3280 Udist_39_-2:1
1950 Udist_39_-2:_B-1
1105 Udist_39_-2:_B-2
1115 Udist_39_0:0
3160 Udist_39_0:1
1120 Udist_39_1:0
3065 Udist_39_1:1
7175 Udist_39_1:_B+1
1125 Udist_39_2:0
2935 Udist_39_2:1
6620 Udist_39_2:_B+1
7180 Udist_39_2:_B+2
1130 Udist_39_3:0
2775 Udist_39_3:1
6255 Udist_39_3:_B+1
6625 Udist_39_3:_B+2
7185 Udist_39_3:_B+3
1965 Udist_40_-1:0
2450 Udist_40_-1:1
1140 Udist_40_-1:_B-1
2445 Udist_40_-2:0
2780 Udist_40_-2:1
1960 Udist_40_-2:_B-1
1135 Udist_40_-2:_B-2
1145 Udist_40_0:0
1970 Udist_40_0:1
3470 Udist_40_1:0
1150 Udist_40_1:1
7190 Udist_40_1:_B+1
3460 Udist_40_2:0
1155 Udist_40_2:1
6630 Udist_40_2:_B+1
7195 Udist_40_2:_B+2
3445 Udist_40_3:0
1160 Udist_40_3:1
6260 Udist_40_3:_B+1
6635 Udist_40_3:_B+2
7200 Udist_40_3:_B+3
4115 Udist_41_-1:0
3285 Udist_41_-1:1
1980 Udist_41_-1:2
1170 Udist_41_-1:_B-1
4225 Udist_41_-2:0
3335 Udist_41_-2:1
2455 Udist_41_-2:2
1975 Udist_41_-2:_B-1
1165 Udist_41_-2:_B-2
4035 Udist_41_0:0
3225 Udist_41_0:1
1175 Udist_41_0:2
3970 Udist_41_1:0
3165 Udist_41_1:1
1180 Udist_41_1:2
7205 Udist_41_1:_B+1
3900 Udist_41_2:0
3070 Udist_41_2:1
1185 Udist_41_2:2
6640 Udist_41_2:_B+1
7210 Udist_41_2:_B+2
3835 Udist_41_3:0
2940 Udist_41_3:1
1190 Udist_41_3:2
6265 Udist_41_3:_B+1
6645 Udist_41_3:_B+2
7215 Udist_41_3:_B+3
2785 Udist_42_-1:0
7220 Udist_42_-1:1
1990 Udist_42_-1:2
1200 Udist_42_-1:_B-1
2945 Udist_42_-2:0
7565 Udist_42_-2:1
2460 Udist_42_-2:2
1985 Udist_42_-2:_B-1
1195 Udist_42_-2:_B-2
2465 Udist_42_0:0
6650 Udist_42_0:1
1205 Udist_42_0:2
1995 Udist_42_1:0
6270 Udist_42_1:1
1210 Udist_42_1:2
7225 Udist_42_1:_B+1
1215 Udist_42_2:0
6080 Udist_42_2:1
3785 Udist_42_2:2
6655 Udist_42_2:_B+1
7230 Udist_42_2:_B+2
1220 Udist_42_3:0
6055 Udist_42_3:1
3765 Udist_42_3:2
6275 Udist_42_3:_B+1
6660 Udist_42_3:_B+2
7235 Udist_42_3:_B+3
8705 Udist_43_-1:0/0
8735 Udist_43_-1:0/1
4120 Udist_43_-1:0/2
3290 Udist_43_-1:1/0
7240 Udist_43_-1:1/1
4505 Udist_43_-1:1/2
2790 Udist_43_-1:2/0
7555 Udist_43_-1:2/1
2005 Udist_43_-1:2/2
1230 Udist_43_-1:_B-1/_B-1
8710 Udist_43_-2:0/0
8740 Udist_43_-2:0/1
4230 Udist_43_-2:0/2
3340 Udist_43_-2:1/0
9295 Udist_43_-2:1/1
4580 Udist_43_-2:1/2
2950 Udist_43_-2:2/0
7570 Udist_43_-2:2/1
2470 Udist_43_-2:2/2
2000 Udist_43_-2:_B-1/_B-1
1225 Udist_43_-2:_B-2/_B-2
8700 Udist_43_0:0/0
8730 Udist_43_0:0/1
4040 Udist_43_0:0/2
3230 Udist_43_0:1/0
6665 Udist_43_0:1/1
4430 Udist_43_0:1/2
2475 Udist_43_0:2/0
7545 Udist_43_0:2/1
1235 Udist_43_0:2/2
8695 Udist_43_1:0/0
8725 Udist_43_1:0/1
3975 Udist_43_1:0/2
3170 Udist_43_1:1/0
6280 Udist_43_1:1/1
4345 Udist_43_1:1/2
2010 Udist_43_1:2/0
7540 Udist_43_1:2/1
1240 Udist_43_1:2/2
7245 Udist_43_1:_B+1/_B+1
8690 Udist_43_2:0/0
8720 Udist_43_2:0/1
3905 Udist_43_2:0/2
3075 Udist_43_2:1/0
6085 Udist_43_2:1/1
4235 Udist_43_2:1/2
1245 Udist_43_2:2/0
7530 Udist_43_2:2/1
3790 Udist_43_2:2/2
6670 Udist_43_2:_B+1/_B+1
7250 Udist_43_2:_B+2/_B+2
8685 Udist_43_3:0/0
8715 Udist_43_3:0/1
3840 Udist_43_3:0/2
2955 Udist_43_3:1/0
6060 Udist_43_3:1/1
4125 Udist_43_3:1/2
1250 Udist_43_3:2/0
7515 Udist_43_3:2/1
3770 Udist_43_3:2/2
6285 Udist_43_3:_B+1/_B+1
6675 Udist_43_3:_B+2/_B+2
7255 Udist_43_3:_B+3/_B+3
2020 Udist_44_-1:0
4240 Udist_44_-1:1
4585 Udist_44_-1:2
1260 Udist_44_-1:_B-1
2480 Udist_44_-2:0
4350 Udist_44_-2:1
4655 Udist_44_-2:2
2015 Udist_44_-2:_B-1
1255 Udist_44_-2:_B-2
1265 Udist_44_0:0
4130 Udist_44_0:1
4510 Udist_44_0:2
1270 Udist_44_1:0
4045 Udist_44_1:1
4435 Udist_44_1:2
7260 Udist_44_1:_B+1
1275 Udist_44_2:0
3980 Udist_44_2:1
4355 Udist_44_2:2
6680 Udist_44_2:_B+1
7265 Udist_44_2:_B+2
1280 Udist_44_3:0
3910 Udist_44_3:1
4245 Udist_44_3:2
6290 Udist_44_3:_B+1
6685 Udist_44_3:_B+2
7270 Udist_44_3:_B+3
2030 Udist_45_-1:0
2795 Udist_45_-1:2
1290 Udist_45_-1:_B-1
2485 Udist_45_-2:0
2960 Udist_45_-2:2
2025 Udist_45_-2:_B-1
1285 Udist_45_-2:_B-2
1295 Udist_45_0:0
2490 Udist_45_0:2
1300 Udist_45_1:0
2035 Udist_45_1:2
7275 Udist_45_1:_B+1
3080 Udist_45_2:0
1305 Udist_45_2:2
6690 Udist_45_2:_B+1
7280 Udist_45_2:_B+2
2965 Udist_45_3:0
1310 Udist_45_3:2
6295 Udist_45_3:_B+1
6695 Udist_45_3:_B+2
7285 Udist_45_3:_B+3
2045 Udist_46_-1:0
6300 Udist_46_-1:2
1320 Udist_46_-1:_B-1
2495 Udist_46_-2:0
6700 Udist_46_-2:2
2040 Udist_46_-2:_B-1
1315 Udist_46_-2:_B-2
1325 Udist_46_0:0
6090 Udist_46_0:2
1330 Udist_46_1:0
6065 Udist_46_1:2
7290 Udist_46_1:_B+1
1335 Udist_46_2:0
6040 Udist_46_2:2
6705 Udist_46_2:_B+1
7295 Udist_46_2:_B+2
1340 Udist_46_3:0
6025 Udist_46_3:2
6305 Udist_46_3:_B+1
6710 Udist_46_3:_B+2
7300 Udist_46_3:_B+3
8040 Uglobal_33:1024
9525 Uglobal_33:128
1075 Uglobal_33:2048
7795 Uglobal_33:256
9650 Uglobal_33:32
7345 Uglobal_33:512
9655 Uglobal_34:1
1080 Uglobal_34:128
9520 Uglobal_34:16
8780 Uglobal_34:256
7800 Uglobal_34:32
8480 Uglobal_34:512
8945 Uglobal_34:64
7350 Uglobal_34:8
8045 Uglobal_35:128
9660 Uglobal_35:16
8485 Uglobal_35:256
9480 Uglobal_35:32
8970 Uglobal_35:512
1085 Uglobal_35:64
9440 Uglobal_35:8
8900 Uglobal_36:0
9665 Uglobal_36:1
9100 Uglobal_36:2
7805 Uglobal_36:3
1090 Uglobal_36:4
8050 Uglobal_37:0
9530 Uglobal_37:1
7355 Uglobal_37:2
7810 Uglobal_37:3
1095 Uglobal_37:4

-0.0066349641182909
0.0059030386618175
-0.0087204355450794
0.0447368255271090
-0.0352844645256465
-0.0066349641182909
0.0059030386618175
-0.0087204355450794
0.0447368255271090
-0.0352844645256465
-0.0066349641182909
0.0059030386618175
-0.0087204355450794
0.0447368255271090
-0.0352844645256465
0.4096183280134258
0.4409782265207719
-0.1030448101794314
-0.3759268471800179
-0.3716248978103383
-0.2036926374039970
-0.1953722689088767
0.3095343476169261
0.4105230082120103
-0.3209924534664015
-0.1528513366134612
0.1394964702228177
0.2361478972580067
0.1756479020317567
-0.3984409368472305
-0.3853881978759624
0.0736918819331476
0.1234905179855608
0.5347593339040497
-0.3465535398876061
-0.0066349641182909
0.0059030386618175
-0.0087204355450794
0.0447368255271090
-0.0352844645256465
-0.0066349641182909
0.0059030386618175
-0.0087204355450794
0.0447368255271090
-0.0352844645256465
-0.0066349641182909
0.0059030386618175
-0.0087204355450794
0.0447368255271090
-0.0352844645256465
-0.3587300112706047
1.0017034378707548
0.3688151196941074
0.2267023987012160
-1.2384909455012172
-0.2997721656977360
-0.1786410795749181
-0.3058249511561863
0.2464120237186088
0.5378261712697437
-0.5255534646244319
-0.1804286280908107
-0.2535855750075162
0.4553491452932681
0.5042185214185160
0.0309133255373381
-0.3754142440779090
0.1757794931526111
0.1060609232457188
0.0626605007114387
-0.0066349641182909
0.0059030386618175
-0.0087204355450794
0.0447368255271090
-0.0352844645256465
-0.0066349641182909
0.0059030386618175
-0.0087204355450794
0.0447368255271090
-0.0352844645256465
-0.0066349641182909
0.0059030386618175
-0.0087204355450794
0.0447368255271090
-0.0352844645256465
-0.2127256191947837
0.0322238104256078
-0.2354712158845560
-0.5822393015815689
0.9982123241723483
0.3152496455679760
0.1366060325001983
-0.1640253059578184
-0.2024413889362658
-0.0853889852377060
-0.0981728153958515
-0.2046652336389341
0.0143349434371998
0.1813388106069375
0.1071642929323272
0.1217559661863513
-0.2835519113927118
0.2769305719777633
0.0461864068250653
-0.1613210338861897
-0.0066349641182909
0.0059030386618175
-0.0087204355450794
0.0447368255271090
-0.0352844645256465
-0.0066349641182909
0.0059030386618175
-0.0087204355450794
0.0447368255271090
-0.0352844645256465
-0.0066349641182909
0.0059030386618175
-0.0087204355450794
0.0447368255271090
-0.0352844645256465
0.2316649290034259
0.2140593354970079
-0.5717600056551384
0.3460758672197474
-0.2200401299724709
-0.0057540850965627
-0.2116534404599744
-0.2204412494214422
0.3552360543409125
0.0826127167373014
0.2385776593916406
-0.1934531495356696
-0.1015015245134277
-0.0205742150879430
0.0769512258520074
-0.2696148208447532
0.2990183116571936
-0.1579032438819575
0.0067889216979568
0.1217108274904730
-0.0066349641182909
0.0059030386618175
-0.0087204355450794
0.0447368255271090
-0.0352844645256465
-0.0066349641182909
0.0059030386618175
-0.0087204355450794
0.0447368255271090
-0.0352844645256465
-0.0066349641182909
0.0059030386618175
-0.0087204355450794
0.0447368255271090
-0.0352844645256465
0.4322611445395512
-0.6584863558684749
-0.5696515543968286
0.3252799524680008
0.4705968092569538
0.5971976350590484
-0.1587148924348598
-0.1155534773849032
-0.1915086411012170
-0.1314206281298166
-0.0992674888567826
0.3452569369818201
0.0455647231076183
-0.3552550302966868
0.0637008550780863
0.0335357075845652
0.0612448904423495
0.0362853991582876
-0.3047749462600603
0.1737089451020273
-0.0066349641182909
0.0059030386618175
-0.0087204355450794
0.0447368255271090
-0.0352844645256465
-0.0066349641182909
0.0059030386618175
-0.0087204355450794
0.0447368255271090
-0.0352844645256465
-0.0066349641182909
0.0059030386618175
-0.0087204355450794
0.0447368255271090
-0.0352844645256465
0.0105664787938909
-0.2549881977601363
-0.1296932480158614
0.1719973137155070
0.2021176487833442
0.1984418844848864
-0.2067646649985420
-0.2340859421585591
0.0691257234381875
0.1732829947587347
-0.0351777287075759
-0.2223957028995237
-0.1138155973673950
0.3847981327022492
-0.0134091081985293
-0.4630623105192823
0.0093932864814286
0.2238593201178814
0.2606239486022234
-0.0308142491476983
-0.0066349641182909
0.0059030386618175
-0.0087204355450794
0.0447368255271090
-0.0352844645256465
-0.0066349641182909
0.0059030386618175
-0.0087204355450794
0.0447368255271090
-0.0352844645256465
-0.0066349641182909
0.0059030386618175
-0.0087204355450794
0.0447368255271090
-0.0352844645256465
-0.0738443976207789
-0.4241128326833978
-0.5831807805221345
1.0174298852738139
0.0637081210302984
0.2256056469810367
-0.9152169165193895
0.1581689082813804
0.5953842515910331
-0.0639418948490851
-0.0412699020342707
-0.2035770155024956
0.2240902141531526
-0.0521824356422322
0.0729391345163218
-0.1588952927974932
-0.0995285342624398
0.1862023084848519
-0.0918772837600142
0.1640987978304391
-0.0066349641182909
0.0059030386618175
-0.0087204355450794
0.0447368255271090
-0.0352844645256465
-0.0066349641182909
0.0059030386618175
-0.0087204355450794
0.0447368255271090
-0.0352844645256465
-0.0066349641182909
0.0059030386618175
-0.0087204355450794
0.0447368255271090
-0.0352844645256465
0.2007053486105297
0.7874936206970541
-0.1484328868497592
-0.2635512719112326
-0.5762148133964060
0.0728754448558976
-0.0627736835220598
0.0793043161579508
-0.1641484812368395
0.0747424008927825
0.1894311811349332
-0.3416580428073168
0.1244517076470947
0.0806355601173625
-0.0528604089372369
-0.2368914778162742
0.0596724043272478
0.2174652556767543
0.0765831998680056
-0.1168293835197623
-0.0066349641182909
0.0059030386618175
-0.0087204355450794
0.0447368255271090
-0.0352844645256465
-0.0066349641182909
0.0059030386618175
-0.0087204355450794
0.0447368255271090
-0.0352844645256465
-0.0066349641182909
0.0059030386618175
-0.0087204355450794
0.0447368255271090
-0.0352844645256465
-0.3901039282490937
-0.0180824518614978
0.1719438300751805
0.6320795016845039
-0.3958369546645009
-0.0311620615307023
0.2133464873038821
-0.0780239957103054
0.3293049027516593
-0.4334653358312440
0.4086992820434422
-0.0798230294572860
-0.1265883471153290
-0.3441713105156668
0.1418834020353702
0.2643518159353950
-0.6545178734042084
0.5408906552411373
-0.4980063555477455
0.3472817575200174
-0.0066349641182909
0.0059030386618175
-0.0087204355450794
0.0447368255271090
-0.0352844645256465
-0.0066349641182909
0.0059030386618175
-0.0087204355450794
0.0447368255271090
-0.0352844645256465
-0.0066349641182909
0.0059030386618175
-0.0087204355450794
0.0447368255271090
-0.0352844645256465
-0.2448142674871207
-0.3319665298539849
0.4152672927450651
-0.2462351539336336
0.4077486575889689
-0.4321008852051687
-0.5136473437440104
0.4539969200683808
0.2481291123454170
0.2436221955939695
-0.1133411373590022
-0.3189258691294822
0.3545088159354201
0.2441214992021377
-0.1663633093717581
0.1850459815690643
-0.2792208070660087
0.3120653757832861
0.0095016167513034
-0.2273921679726093
-0.0066349641182909
0.0059030386618175
-0.0087204355450794
0.0447368255271090
-0.0352844645256465
-0.0066349641182909
0.0059030386618175
-0.0087204355450794
0.0447368255271090
-0.0352844645256465
-0.0066349641182909
0.0059030386618175
-0.0087204355450794
0.0447368255271090
-0.0352844645256465
-0.0639816235412367
0.0821293759277082
0.0041731635348503
-0.1975701635721865
0.1752492436005017
0.3760616847659991
-0.4494394854257706
0.2021880948706761
-0.0397353400107339
-0.0890749582415114
-0.1121218605270749
0.4834312608778858
-0.2609171958731740
0.0683778551263619
-0.1787700636408881
-0.1752561105312686
-0.1653374041941864
0.2510080961404320
0.2938099215704990
-0.2042245070101793
-0.0066349641182909
0.0059030386618175
-0.0087204355450794
0.0447368255271090
-0.0352844645256465
-0.0066349641182909
0.0059030386618175
-0.0087204355450794
0.0447368255271090
-0.0352844645256465
-0.0066349641182909
0.0059030386618175
-0.0087204355450794
0.0447368255271090
-0.0352844645256465
-0.8851609639368384
0.9668182629424271
-0.1240178893091037
0.4796553682194564
-0.4372947823778798
0.1128927738552637
-0.2338954382793365
-0.1055892992922774
-0.2019119099861038
0.4285038692503125
-0.2189196815702226
0.1183799917363940
0.0198048599872220
0.0248468318768252
0.0558879935216534
-0.2245456909059867
0.3084899146820987
-0.0921854403179655
0.1242780706897228
-0.1160368585858417
-0.0066349641182909
0.0059030386618175
-0.0087204355450794
0.0447368255271090
-0.0352844645256465
-0.0066349641182909
0.0059030386618175
-0.0087204355450794
0.0447368255271090
-0.0352844645256465
-0.0066349641182909
0.0059030386618175
-0.0087204355450794
0.0447368255271090
-0.0352844645256465
-0.2977485046846228
0.1905441018018000
0.1177397786329356
-0.3763730946627204
0.3658377169960285
0.0215520406397972
0.5390762297875029
0.0182546882363100
-0.4021950513365394
-0.1766879092393066
0.5382999614353123
-0.3092815896453648
-0.1970821035316496
-0.0184793027787954
-0.0134569665524888
-0.0416553156626109
0.5025617828700556
0.0267963151922369
-0.4820134635118460
-0.0056893207917060
-0.0066349641182909
0.0059030386618175
-0.0087204355450794
0.0447368255271090
-0.0352844645256465
-0.0066349641182909
0.0059030386618175
-0.0087204355450794
0.0447368255271090
-0.0352844645256465
-0.0066349641182909
0.0059030386618175
-0.0087204355450794
0.0447368255271090
-0.0352844645256465
0.2400404607912941
-0.2001137953680920
-0.4437946405112421
0.1840798805896273
0.2197880906146472
0.0685513810478644
0.0384180825831145
-0.2700250514010113
0.0527193045545223
0.1103362793354515
-0.1029582829030163
-0.0628245996937972
-0.3019938837267763
0.3541272909868294
0.1136494714679194
-0.1966861580081478
0.2605052796013586
-0.3908628328062351
0.3625083312614376
-0.0354646239170992
-0.0066349641182909
0.0059030386618175
-0.0087204355450794
0.0447368255271090
-0.0352844645256465
-0.0066349641182909
0.0059030386618175
-0.0087204355450794
0.0447368255271090
-0.0352844645256465
-0.0066349641182909
0.0059030386618175
-0.0087204355450794
0.0447368255271090
-0.0352844645256465
0.0381638952043916
0.0155704277046374
-0.2929061496380705
0.0813660938959798
0.1578057311761217
0.3074787840492936
0.0803035890353312
-0.1204030048294111
-0.1777479503011076
-0.0896314189635265
0.0044006390796560
-0.3037462630508266
0.0321820813873666
0.1283279361706004
0.1388356047630051
-0.0530648107101509
0.3298232156131979
-0.2795385099414551
0.0180077855421497
-0.0152276815108230
-0.0066349641182909
0.0059030386618175
-0.0087204355450794
0.0447368255271090
-0.0352844645256465
-0.0066349641182909
0.0059030386618175
-0.0087204355450794
0.0447368255271090
-0.0352844645256465
-0.0066349641182909
0.0059030386618175
-0.0087204355450794
0.0447368255271090
-0.0352844645256465
0.2220619181834361
-0.1125777536338473
-0.4270369947342084
0.4224207051127685
-0.1048678754051704
0.3479887493342573
0.2036930598791157
-0.3364019472825039
0.2052841561936641
-0.4205640188351488
0.0211279727639936
0.0974639930251366
0.1136397139070036
-0.1789323590775336
-0.0532993213004710
0.1351612449240142
0.1777919019711304
-0.0543036026870379
0.1805045675268511
-0.4391541129562218
-0.0066349641182909
0.0059030386618175
-0.0087204355450794
0.0447368255271090
-0.0352844645256465
-0.0066349641182909
0.0059030386618175
-0.0087204355450794
0.0447368255271090
-0.0352844645256465
-0.0066349641182909
0.0059030386618175
-0.0087204355450794
0.0447368255271090
-0.0352844645256465
-0.3290516844511835
-1.3224986540394232
0.8623169372644948
0.1367424126926195
0.6524909839620702
-0.2839180382092527
-0.2653017171475870
0.4526100056620727
0.0072371290798930
0.0893726160506260
-0.3579287674342219
-0.0620081882513763
0.2489336017034506
0.1429421149103141
0.0280612345132359
-0.3048406957914194
0.2374611258590383
0.3463195531744216
-0.0274769933905345
-0.2514629944031100
-0.0066349641182909
0.0059030386618175
-0.0087204355450794
0.0447368255271090
-0.0352844645256465
-0.0066349641182909
0.0059030386618175
-0.0087204355450794
0.0447368255271090
-0.0352844645256465
-0.0066349641182909
0.0059030386618175
-0.0087204355450794
0.0447368255271090
-0.0352844645256465
-0.3406908693306362
-0.0678908082335791
-0.0876233531736939
0.0339566824492496
0.4622483435133180
-0.1534553502852161
-0.0945355329363298
0.2330503145770872
0.2273449133438165
-0.2124043494687018
0.1335208260221712
0.3001052533564366
0.1219988905468651
-0.4714245966123376
-0.0842003780760276
-0.2362576589269792
0.1194014405361610
0.0971101522050786
-0.1409664201114180
0.1607124815411362
-0.0066349641182909
0.0059030386618175
-0.0087204355450794
0.0447368255271090
-0.0352844645256465
-0.0066349641182909
0.0059030386618175
-0.0087204355450794
0.0447368255271090
-0.0352844645256465
-0.0066349641182909
0.0059030386618175
-0.0087204355450794
0.0447368255271090
-0.0352844645256465
-0.0300973155473005
-2.3059207936792379
0.7614533448861723
0.3531818394743367
1.2213829201070621
0.6388658214446755
0.1286712372942300
-0.4429178282450584
-0.0085730768767318
-0.3160461583710383
0.3669939152160570
0.0369916607771652
-0.1816099318302390
-0.1738626740186797
-0.0485129748930541
-0.1398559929130436
0.3322013958496166
-0.0850142524518158
-0.2514716076301472
0.1441404524061299
-0.0066349641182909
0.0059030386618175
-0.0087204355450794
0.0447368255271090
-0.0352844645256465
-0.0066349641182909
0.0059030386618175
-0.0087204355450794
0.0447368255271090
-0.0352844645256465
-0.0066349641182909
0.0059030386618175
-0.0087204355450794
0.0447368255271090
-0.0352844645256465
-0.1472908075622361
0.6980027156242831
-2.2824626870265923
0.5743222273961894
1.1574285466355207
-0.1018874520093116
0.5913451738062628
-0.3487318044583020
0.1574109607959235
-0.2981368830614690
0.2002334166278266
0.1023136830000672
-0.1477191420246534
0.0428680327793132
-0.1976959953024723
0.1963797654907750
-0.4132679007058316
0.0230100514609673
0.3093014272561544
-0.1154233484157552
-0.0066349641182909
0.0059030386618175
-0.0087204355450794
0.0447368255271090
-0.0352844645256465
-0.0066349641182909
0.0059030386618175
-0.0087204355450794
0.0447368255271090
-0.0352844645256465
-0.0066349641182909
0.0059030386618175
-0.0087204355450794
0.0447368255271090
-0.0352844645256465
-0.0783067738070426
0.1478824250159120
-0.0431748747435937
-0.0542193446655177
0.0278185633984530
-0.0800609074649649
0.1889739094949373
-0.0385035054203805
-0.1527042717612599
0.0822947703559489
0.0706063711941472
0.1963850461543692
-0.0283515896271114
-0.3143088592584966
0.0756690267479201
0.1196017855661816
0.1329245810466191
0.0338796035167793
-0.4070487949104393
0.1206428199980832
-0.0066349641182909
0.0059030386618175
-0.0087204355450794
0.0447368255271090
-0.0352844645256465
-0.0066349641182909
0.0059030386618175
-0.0087204355450794
0.0447368255271090
-0.0352844645256465
-0.0066349641182909
0.0059030386618175
-0.0087204355450794
0.0447368255271090
-0.0352844645256465
-0.1982257472980812
0.0350208658482904
0.5916477346925491
0.5757499833771225
-1.0041928406972165
-0.0058866341452281
-0.3613916712316062
0.3346158905176842
-0.1255617627352208
0.1582241735221716
-0.5285252991232136
0.0685869971802251
0.1265929662327437
0.0024299527827330
0.3309153788625884
0.3483409481552344
-0.1505940340070509
-0.0560657006324227
-0.4554773378003914
0.3137961202238209
-0.0066349641182909
0.0059030386618175
-0.0087204355450794
0.0447368255271090
-0.0352844645256465
-0.0066349641182909
0.0059030386618175
-0.0087204355450794
0.0447368255271090
-0.0352844645256465
-0.0066349641182909
0.0059030386618175
-0.0087204355450794
0.0447368255271090
-0.0352844645256465
-0.2913831172334929
0.0606452302010249
1.0625308887387446
-1.4878351970339403
0.6560421925106223
-0.3580941673032916
0.0281257487435170
-0.4778170850680619
0.7273783155918023
0.0804071860527997
-0.1116480048912960
0.2176079541622329
-0.6391676784011533
0.5548241495381747
-0.0216164223873871
0.0609336894060451
-0.0488952866614135
-0.0778020711483170
0.2046072102220843
-0.1388435437969455
-0.0066349641182909
0.0059030386618175
-0.0087204355450794
0.0447368255271090
-0.0352844645256465
-0.0066349641182909
0.0059030386618175
-0.0087204355450794
0.0447368255271090
-0.0352844645256465
-0.0066349641182909
0.0059030386618175
-0.0087204355450794
0.0447368255271090
-0.0352844645256465
-0.1440493058273640
-0.6189863215382477
-0.3903452006976557
1.9659933647487620
-0.8126125367235034
-0.0066349641182909
0.0059030386618175
-0.0087204355450794
0.0447368255271090
-0.0352844645256465
-0.0066349641182909
0.0059030386618175
-0.0087204355450794
0.0447368255271090
-0.0352844645256465
-0.0066349641182909
0.0059030386618175
-0.0087204355450794
0.0447368255271090
-0.0352844645256465
0.6769863192988982
-0.0570241396139732
0.3230209458314799
-1.6599958507419581
0.7170127204741394
0.0539634473638807
0.2499889154993107
-0.4284573298460017
0.2836966821444069
-0.1591917199063315
0.4489717669166538
0.3039659458067775
-0.0741223322579974
-0.6086029087651433
-0.0702124764398233
-0.3925711842020041
0.4769188069671533
-0.2040797101605235
-0.1378411990952130
0.2575732817575367
-0.0066349641182909
0.0059030386618175
-0.0087204355450794
0.0447368255271090
-0.0352844645256465
-0.0066349641182909
0.0059030386618175
-0.0087204355450794
0.0447368255271090
-0.0352844645256465
-0.0066349641182909
0.0059030386618175
-0.0087204355450794
0.0447368255271090
-0.0352844645256465
0.1653061624136704
-0.2058055597911844
0.3655859159302573
-0.1479450702120737
-0.1771414526405552
0.0535702832041152
-0.3649287831717685
-0.2543293323013193
0.4270519097019372
0.1386359182777310
0.3358841481140925
-0.4170642298369125
-0.2602521531841749
0.4050044249267575
-0.0635721943050420
0.2699581341994906
-0.2801782670682634
-0.2516371894858164
0.2100852826444117
0.0517720354359627
-0.0066349641182909
0.0059030386618175
-0.0087204355450794
0.0447368255271090
-0.0352844645256465
-0.0066349641182909
0.0059030386618175
-0.0087204355450794
0.0447368255271090
-0.0352844645256465
-0.0066349641182909
0.0059030386618175
-0.0087204355450794
0.0447368255271090
-0.0352844645256465
-0.2341183346160681
-0.2310906606006005
0.1080481019734477
-0.4106539206185268
0.7678148090994930
0.3940311307256349
-0.5524734874391839
0.0345070734281210
0.2160754379324698
-0.0921401594007444
0.1907070878676600
0.5690899383023136
0.0853157716567802
-0.3892501060920807
-0.4558626964805997
0.3202622384287192
-0.3536033040974036
0.1368570220697835
-0.2356370714919960
0.1321211103526188
-0.0066349641182909
0.0059030386618175
-0.0087204355450794
0.0447368255271090
-0.0352844645256465
-0.0066349641182909
0.0059030386618175
-0.0087204355450794
0.0447368255271090
-0.0352844645256465
-0.0066349641182909
0.0059030386618175
-0.0087204355450794
0.0447368255271090
-0.0352844645256465
0.2438337746427802
0.0421560148600272
-1.5894228445327387
0.7063476739956253
0.5970853764170305
-0.3262589805978414
-0.0686589160602114
-0.1461584686464381
0.0992610226659811
0.4418153380267480
-0.3623814995697719
0.2388694135859953
-0.3288577604050885
-0.1040768028475319
0.5564466446299153
-0.3146140341921465
0.2453181259252375
0.4152664796789381
0.0036672567045160
-0.3496378327175053
-0.0066349641182909
0.0059030386618175
-0.0087204355450794
0.0447368255271090
-0.0352844645256465
-0.0066349641182909
0.0059030386618175
-0.0087204355450794
0.0447368255271090
-0.0352844645256465
-0.0066349641182909
0.0059030386618175
-0.0087204355450794
0.0447368255271090
-0.0352844645256465
-0.1550543467674078
-0.0445549803254491
0.0275583838156891
-0.0163722625518414
0.1884232036739518
0.2071571280984469
-0.4546939100581030
0.2524253968512342
-0.0683152948519243
0.0634266778050269
-0.0471555644002584
-0.1906280421753873
0.0907372932060722
-0.0703399699353206
0.2173862811547199
-0.0128999303538643
0.0559931409805545
0.1789590241632108
-0.0280740953674076
-0.1939781415745255
0.0327377565412494
-0.3398032756541500
0.4475155444289166
-0.7992511173428266
0.6588010893898416
-0.0066349641182909
0.0059030386618175
-0.0087204355450794
0.0447368255271090
-0.0352844645256465
-0.0066349641182909
0.0059030386618175
-0.0087204355450794
0.0447368255271090
-0.0352844645256465
-0.0066349641182909
0.0059030386618175
-0.0087204355450794
0.0447368255271090
-0.0352844645256465
-0.1799366064394154
-1.3129749092182239
0.5997006007732113
1.5065305590471931
-0.6133196482704540
0.1970070072413896
-0.6826467024109474
0.1987159832335106
0.4274599826698904
-0.1405362748364658
0.2457253680120077
-0.1160464232994166
0.1824562383870722
-0.1447935121588526
-0.1673416750379391
-0.4525897892373288
0.3507329006971786
-0.2194820621107785
0.6093344021331347
-0.2879954555742548
-0.0066349641182909
0.0059030386618175
-0.0087204355450794
0.0447368255271090
-0.0352844645256465
-0.0066349641182909
0.0059030386618175
-0.0087204355450794
0.0447368255271090
-0.0352844645256465
-0.0066349641182909
0.0059030386618175
-0.0087204355450794
0.0447368255271090
-0.0352844645256465
-0.0583118866808932
-0.6385032004601240
-0.1415087580925147
0.4943690956994489
0.3439547490549131
0.1337604193501055
-0.2086352429612051
0.3536057633891206
-0.0344952786142122
-0.2442356636532476
0.0533364784907139
0.0495787483641760
0.1734665907779818
-0.0242230809850087
-0.2521587391317393
-0.0681364416893346
-0.3701309053616268
-0.0486580612736830
0.2623557012287563
0.2245697046171216
-0.4940661070522267
0.5554384126736458
0.4828611843377127
-0.2140700774189488
-0.3301634169821791
0.0232910962044711
0.2357926725202499
0.2412096814338019
-0.3830329089437845
-0.1172605447084260
0.6905844975845931
0.2858892074907878
-0.3482350963281661
-0.9663870373486780
0.3381484286098513
-0.1065016321417591
0.0134845571532064
1.0557421246696579
-0.0384058486736546
-0.9243192015694919
0.4946358188896920
0.5312965381189990
0.4242530055594293
-1.5818950342364695
0.1317096711361492
-0.7902299780978278
1.0629725974009760
-0.9357920631091582
1.3696422592202009
-0.7065928155696481
-0.0066349641182909
0.0059030386618175
-0.0087204355450794
0.0447368255271090
-0.0352844645256465
-0.0066349641182909
0.0059030386618175
-0.0087204355450794
0.0447368255271090
-0.0352844645256465
-0.7720613493285433
0.6799212910490303
-0.0998194449251122
-0.4626272057576424
0.6545867057762136
-0.5733068577530317
0.8886445362116623
-0.3781534087604324
0.2330999337938080
-0.1702842066719367
0.0208291083869286
-0.1277290135584510
-0.1136318320934321
0.2420264415640496
-0.0214947074712073
-0.2617987915624458
0.1418967043486773
-0.2400944197346521
0.3469662397299903
0.0130302640492017
-0.0066349641182909
0.0059030386618175
-0.0087204355450794
0.0447368255271090
-0.0352844645256465
-0.0066349641182909
0.0059030386618175
-0.0087204355450794
0.0447368255271090
-0.0352844645256465
-0.0508175725542240
-0.5194222757463006
0.2691407047480546
0.1287595440851824
0.1723395988708296
-0.1810994313206664
0.2920787243848558
-0.1050933015978432
-0.2159842356193998
0.2100982399517546
0.0302620204890143
0.1858527540469320
-0.2141323819623801
-0.0023757081007519
0.0003933113317458
0.0391643382600806
-0.1232247955970604
0.2639040647697043
-0.3371710400282963
0.1573274284065615
-0.0066349641182909
0.0059030386618175
-0.0087204355450794
0.0447368255271090
-0.0352844645256465
-0.0066349641182909
0.0059030386618175
-0.0087204355450794
0.0447368255271090
-0.0352844645256465
-0.6650710066854391
0.3407723441991632
0.2286354978188922
-0.0068870397024748
0.1025502020112594
-0.2312477342470889
0.1628942554805042
0.3280000094416934
0.1685027073069636
-0.4281492403362608
0.0316073181362863
0.1977606397965055
-0.2084560171259470
0.0441097917368480
-0.0650217348887994
-0.2116660215074998
0.2193868463473315
0.0665577236928644
-0.0479414326115467
-0.0263371182648358
-0.0066349641182909
0.0059030386618175
-0.0087204355450794
0.0447368255271090
-0.0352844645256465
-0.0066349641182909
0.0059030386618175
-0.0087204355450794
0.0447368255271090
-0.0352844645256465
-1.6907744136630287
0.6562409408430689
0.2803467858206540
0.1523546638905736
0.6018320220979209
-0.1287020680310459
0.4305390632701244
-0.1539301090480377
0.3335379552563785
-0.4814448424567451
-0.1264359554938883
0.0044195479800790
0.0184396874718319
0.1003288969336787
0.0032478194453777
-0.0279218391658038
0.0445252406752436
0.1313697588822841
-0.4415915246036922
0.2936183605526009
-0.0066349641182909
0.0059030386618175
-0.0087204355450794
0.0447368255271090
-0.0352844645256465
-0.0066349641182909
0.0059030386618175
-0.0087204355450794
0.0447368255271090
-0.0352844645256465
-0.6114700548821308
1.0832475226850762
-0.0879049820713639
0.2072331013809485
-0.5911055876256078
-0.0837026473986728
-0.0129601155100506
0.1263791767347520
0.3795560786676939
-0.4092724930040503
0.0267035886345646
0.0011668757357569
-0.1363011178606758
0.1217646570690399
-0.0133340053119615
0.0008556082611408
-0.0529327506981233
0.1474090070620593
0.0043935319955213
-0.0997253983526415
-0.0066349641182909
0.0059030386618175
-0.0087204355450794
0.0447368255271090
-0.0352844645256465
-0.0066349641182909
0.0059030386618175
-0.0087204355450794
0.0447368255271090
-0.0352844645256465
1.9153425248743616
-0.5936420966708175
-0.7720262199125595
0.3082807819164150
-0.8579549947013280
0.1044839783506584
0.5231150941906053
-0.3148538417769595
0.1829510271750912
-0.4956962624320498
0.3461721448346279
-0.2971367864795497
-0.4781511350494778
0.2830393561897979
0.1460764160175890
-0.0800308143197975
0.0578249498556091
-0.6208949623768700
0.8182991741642516
-0.1751983518046787
-0.0066349641182909
0.0059030386618175
-0.0087204355450794
0.0447368255271090
-0.0352844645256465
-0.0066349641182909
0.0059030386618175
-0.0087204355450794
0.0447368255271090
-0.0352844645256465
0.4388441540125466
-0.5444512448799064
0.5826931249774129
-0.2757412753174838
-0.2013447617142426
0.1792314754711806
0.2539642252441504
-0.0344262637756691
-0.3597973282684224
-0.0389721115888807
-0.0231847251009935
0.3293329451985928
-0.3080177455323272
0.1210862635715911
-0.1192167400062030
0.0689393815197346
-0.0519335353750737
-0.0240125180878287
-0.0666047912203957
0.0736114612966818
-0.0066349641182909
0.0059030386618175
-0.0087204355450794
0.0447368255271090
-0.0352844645256465
-0.0066349641182909
0.0059030386618175
-0.0087204355450794
0.0447368255271090
-0.0352844645256465
-0.0251432459803176
-0.1766517070008330
0.2439612285012164
-0.5453720933514448
0.5032058130939497
-0.0801500866549013
0.3400927936135799
0.1076646813226105
0.2929565663447018
-0.6605639593547397
0.1539358752043418
0.1324257883520717
0.1896946142107430
-0.3391233871582300
-0.1369328953317966
0.6193887672731112
0.0015612951322782
0.0823613670864037
-0.2684286744475342
-0.4348827597641866
-0.0187369291640285
0.0013055782616609
-0.0083783359987029
0.0689045533282222
-0.0430948664274534
-0.0187369291640285
0.0013055782616609
-0.0083783359987029
0.0689045533282222
-0.0430948664274534
0.4263563658390549
-0.2749163117373113
0.0607038900694840
-0.2753609804317355
0.0632170356266220
-0.9993017438810429
0.4221452445482520
0.6968472434401042
0.5562524834078699
-0.6759432314696431
-0.0187369291640285
0.0013055782616609
-0.0083783359987029
0.0689045533282222
-0.0430948664274534
-0.0187369291640285
0.0013055782616609
-0.0083783359987029
0.0689045533282222
-0.0430948664274534
-0.0470673023554601
-0.2366972617437305
-0.0616892038960073
0.1239343741432399
0.2215193933443215
0.0537939092805057
0.6664431955772998
0.1916579931398059
0.2054817356044031
-1.1173768350445543
-0.1009680182231221
-0.2199621532286975
-0.4570776878144078
0.6100543165209609
0.1679535417396765
-0.1072283335917141
0.0617655291987641
0.0107762203672813
0.0917682711546432
-0.0570816885562669
0.2272772562654991
-0.2215343751186845
-0.2791178785069116
0.2849547013741252
-0.0115797050221689
-0.0187369291640285
0.0013055782616609
-0.0083783359987029
0.0689045533282222
-0.0430948664274534
-0.0187369291640285
0.0013055782616609
-0.0083783359987029
0.0689045533282222
-0.0430948664274534
0.1251753996061050
-0.2163338142468949
-0.1176102048260627
0.0107655313378453
0.1980030860671241
0.0602610716828686
0.0002658248897609
0.0212640222854493
0.1779046889867247
-0.2596956081339033
0.2389130110547846
-0.2253285561970228
0.3497491793271709
-0.3147938479568139
-0.0485397882869363
-0.0187369291640285
0.0013055782616609
-0.0083783359987029
0.0689045533282222
-0.0430948664274534
-0.0187369291640285
0.0013055782616609
-0.0083783359987029
0.0689045533282222
-0.0430948664274534
-0.4982312333030006
0.3167575338402411
-0.1258631416832570
0.2851387364594722
0.0221981007817339
-0.0187369291640285
0.0013055782616609
-0.0083783359987029
0.0689045533282222
-0.0430948664274534
-0.0187369291640285
0.0013055782616609
-0.0083783359987029
0.0689045533282222
-0.0430948664274534
-0.3604674934894337
-0.1944252679626775
0.2199491085314406
-0.2401121713335459
0.5750558202565551
-0.0187369291640285
0.0013055782616609
-0.0083783359987029
0.0689045533282222
-0.0430948664274534
-0.0187369291640285
0.0013055782616609
-0.0083783359987029
0.0689045533282222
-0.0430948664274534
-0.1729199310291552
-0.4137824190582781
0.1430596574967626
0.4597571627286950
-0.0161144746197525
-0.0187369291640285
0.0013055782616609
-0.0083783359987029
0.0689045533282222
-0.0430948664274534
-0.0187369291640285
0.0013055782616609
-0.0083783359987029
0.0689045533282222
-0.0430948664274534
-0.2033906678902103
-0.3985501958707781
-0.0556077413365763
0.4265700488554496
0.2309785517215411
-0.0187369291640285
0.0013055782616609
-0.0083783359987029
0.0689045533282222
-0.0430948664274534
-0.0187369291640285
0.0013055782616609
-0.0083783359987029
0.0689045533282222
-0.0430948664274534
0.1094717681807234
0.3401146175128370
-0.0659466266353465
-0.0952362973338529
-0.2884034645713139
0.0472320295323633
-0.0799004922086124
0.2424244172435793
-0.2107790625318474
0.0010231064932340
0.0527460860664767
0.2714837030241303
-0.3511933795368529
-0.0301036500007110
0.0570672375981843
-0.0187369291640285
0.0013055782616609
-0.0083783359987029
0.0689045533282222
-0.0430948664274534
-0.0187369291640285
0.0013055782616609
-0.0083783359987029
0.0689045533282222
-0.0430948664274534
-0.2692871526863654
0.3052346857078059
0.0994716559990387
-0.0695332797045943
-0.0658859123295084
-0.0358693138680867
0.4573891351894070
-0.0735367657040280
0.0742746534128110
-0.4222577092863133
-0.1579159417493212
0.0954513800390226
-0.2078550747936695
0.0801167828367473
0.1902028506538235
-0.0187369291640285
0.0013055782616609
-0.0083783359987029
0.0689045533282222
-0.0430948664274534
-0.0187369291640285
0.0013055782616609
-0.0083783359987029
0.0689045533282222
-0.0430948664274534
0.4258491572386494
-0.3281507891714341
0.0294935739746169
0.1814417018410423
-0.3086336448250765
0.2293243862869916
0.3975790862856129
-0.2883087338962094
-0.1185461850585762
-0.2200485543391797
-0.1614772854848101
-0.3333238056318215
0.1972585733704192
0.0874450802838210
0.2100974365266913
-0.0748466774220563
0.2190552353764477
0.0497744496876373
-0.2016389899916644
0.0076559816303655
-0.0187369291640285
0.0013055782616609
-0.0083783359987029
0.0689045533282222
-0.0430948664274534
-0.0187369291640285
0.0013055782616609
-0.0083783359987029
0.0689045533282222
-0.0430948664274534
-0.4197315816991142
-0.3530346758994894
0.3386201140460796
0.1313671893856799
0.3027789501186887
-0.0187369291640285
0.0013055782616609
-0.0083783359987029
0.0689045533282222
-0.0430948664274534
-0.0187369291640285
0.0013055782616609
-0.0083783359987029
0.0689045533282222
-0.0430948664274534
-0.9956623459701323
0.6619756919304375
-0.0166845993657253
-0.1347482633191510
0.4851195122626418
-0.0187369291640285
0.0013055782616609
-0.0083783359987029
0.0689045533282222
-0.0430948664274534
-0.0187369291640285
0.0013055782616609
-0.0083783359987029
0.0689045533282222
-0.0430948664274534
0.0500039255538185
0.0725948746787981
0.1410128643940654
-0.4512464607651536
0.1876347942180773
-0.0464521523267846
-0.0731035001863498
0.0442439717658006
0.2215786804827367
-0.1462670008077474
0.1971131635651352
0.3240718987541594
-0.1402661168220685
-0.4375810236968328
0.0566620762950295
0.1461299281059670
-0.0337912769883423
-0.0539607173204648
0.1597596286908237
-0.2181375635563280
-0.0187369291640285
0.0013055782616609
-0.0083783359987029
0.0689045533282222
-0.0430948664274534
-0.0187369291640285
0.0013055782616609
-0.0083783359987029
0.0689045533282222
-0.0430948664274534
-0.0325595096780684
-0.2162277703740076
-0.3337524802420100
0.5084938884796510
0.0740458679329901
-0.0187369291640285
0.0013055782616609
-0.0083783359987029
0.0689045533282222
-0.0430948664274534
-0.0187369291640285
0.0013055782616609
-0.0083783359987029
0.0689045533282222
-0.0430948664274534
-0.1806569899742407
-0.0722827017683892
-0.2840876929334771
0.0844091414969516
0.4526182415204888
0.0501988885284997
0.0990619862541462
-0.0898733136894129
0.0009777955495147
-0.0603653576546925
0.1583473458497403
-0.1688752357297325
-0.1277253679925452
0.2034224174820357
-0.0651691612644482
0.2508440052040133
-0.1727426982234387
0.1340404394344641
-0.1122839038240417
-0.0998578435963730
-0.2488403071192992
0.4221853766675178
-0.1255166374539547
-0.2288920666511014
0.1810636340879777
-0.0187369291640285
0.0013055782616609
-0.0083783359987029
0.0689045533282222
-0.0430948664274534
-0.0187369291640285
0.0013055782616609
-0.0083783359987029
0.0689045533282222
-0.0430948664274534
0.1109997010804610
0.4933134455588709
-0.6832794439719053
0.1884882586467726
-0.1095219617925224
-0.2845684532455743
0.4631159933291478
-0.3306484878094618
0.1924889595329096
-0.0403880125211801
-0.2283056397246040
0.2196180050399154
0.2303760892327313
-0.1771839736676531
-0.0445044815584207
0.0572208307126310
-0.2185151478361254
-0.0453873797853007
-0.0369255387406162
0.2436072344260846
-0.1255663152456518
0.1820518071195784
0.3846467506163020
-0.3844349659210828
-0.0566972772479594
-0.0187369291640285
0.0013055782616609
-0.0083783359987029
0.0689045533282222
-0.0430948664274534
-0.0187369291640285
0.0013055782616609
-0.0083783359987029
0.0689045533282222
-0.0430948664274534
-0.0669968644224266
0.0435694299663469
0.4801428958666363
0.4463255391985754
-0.9030410051801658
-0.0187369291640285
0.0013055782616609
-0.0083783359987029
0.0689045533282222
-0.0430948664274534
-0.0187369291640285
0.0013055782616609
-0.0083783359987029
0.0689045533282222
-0.0430948664274534
-0.3560221505546564
0.3359348382666881
0.1216896281258832
0.0212625329044139
-0.1228648535169905
-0.0187369291640285
0.0013055782616609
-0.0083783359987029
0.0689045533282222
-0.0430948664274534
-0.0187369291640285
0.0013055782616609
-0.0083783359987029
0.0689045533282222
-0.0430948664274534
-0.1288027854737823
0.2714224300700987
-0.2981920339386604
0.7774131318932667
-0.6218407473083118
-0.0187369291640285
0.0013055782616609
-0.0083783359987029
0.0689045533282222
-0.0430948664274534
-0.0187369291640285
0.0013055782616609
-0.0083783359987029
0.0689045533282222
-0.0430948664274534
-0.0734039739378750
0.3839350780305513
-0.3183044895837108
0.3961012218239071
-0.3883278412658913
-0.0187369291640285
0.0013055782616609
-0.0083783359987029
0.0689045533282222
-0.0430948664274534
-0.0187369291640285
0.0013055782616609
-0.0083783359987029
0.0689045533282222
-0.0430948664274534
-0.0720773155202453
0.1168458700074380
-0.0386529258865389
-0.0201342722238619
0.0140186388215261
-0.0187369291640285
0.0013055782616609
-0.0083783359987029
0.0689045533282222
-0.0430948664274534
-0.0187369291640285
0.0013055782616609
-0.0083783359987029
0.0689045533282222
-0.0430948664274534
-0.3353962484059184
-0.1761694442990649
0.6206204778511183
-0.3322280846686320
0.2231732954482537
-0.0187369291640285
0.0013055782616609
-0.0083783359987029
0.0689045533282222
-0.0430948664274534
-0.0187369291640285
0.0013055782616609
-0.0083783359987029
0.0689045533282222
-0.0430948664274534
0.0324482572378378
-0.3134501281502752
1.1171503211402798
-0.8392169803369820
0.0030685272911446
0.2099680245755013
0.0468414200801360
-1.1300299636912621
1.5773032674117751
-0.7040827503607023
-0.0187369291640285
0.0013055782616609
-0.0083783359987029
0.0689045533282222
-0.0430948664274534
-0.0187369291640285
0.0013055782616609
-0.0083783359987029
0.0689045533282222
-0.0430948664274534
-0.0683975399756815
0.3666656300051523
-0.0138156750779174
-0.1337989972878706
-0.1506534177017584
0.0626342131693870
0.7264729718194125
0.3228461257451358
-1.8765252943706165
0.7645719788734163
-0.0187369291640285
0.0013055782616609
-0.0083783359987029
0.0689045533282222
-0.0430948664274534
-0.0187369291640285
0.0013055782616609
-0.0083783359987029
0.0689045533282222
-0.0430948664274534
0.3916955160796280
-0.2116014854551193
0.0294659134072870
-0.2498966447846365
0.0403366960028090
-0.0187369291640285
0.0013055782616609
-0.0083783359987029
0.0689045533282222
-0.0430948664274534
-0.0187369291640285
0.0013055782616609
-0.0083783359987029
0.0689045533282222
-0.0430948664274534
0.6568517332687344
-0.1947210132883823
-0.0062268915766190
0.1270525865627482
-0.5829564192637741
-0.0187369291640285
0.0013055782616609
-0.0083783359987029
0.0689045533282222
-0.0430948664274534
-0.0187369291640285
0.0013055782616609
-0.0083783359987029
0.0689045533282222
-0.0430948664274534
0.2303476500935963
0.1582510408157606
0.1306516861012890
-0.0242549918634443
-0.4949953899074776
-0.0187369291640285
0.0013055782616609
-0.0083783359987029
0.0689045533282222
-0.0430948664274534
-0.0187369291640285
0.0013055782616609
-0.0083783359987029
0.0689045533282222
-0.0430948664274534
0.1667302222115563
0.2614585490598842
-0.2518555697566979
-0.0936310698619211
-0.0827021362695697
-0.0187369291640285
0.0013055782616609
-0.0083783359987029
0.0689045533282222
-0.0430948664274534
-0.0187369291640285
0.0013055782616609
-0.0083783359987029
0.0689045533282222
-0.0430948664274534
0.4929635001002970
-0.0400901349328031
0.0599411284964751
-0.4454734122406703
-0.0673410835764067
-0.0187369291640285
0.0013055782616609
-0.0083783359987029
0.0689045533282222
-0.0430948664274534
-0.0187369291640285
0.0013055782616609
-0.0083783359987029
0.0689045533282222
-0.0430948664274534
-0.1973958932827001
-0.2238232263258085
0.4015584059870014
-0.2132858854026827
0.2329465949174304
-0.0187369291640285
0.0013055782616609
-0.0083783359987029
0.0689045533282222
-0.0430948664274534
-0.0187369291640285
0.0013055782616609
-0.0083783359987029
0.0689045533282222
-0.0430948664274534
-0.0542609661007406
-0.0422918657774062
0.3310206297687772
0.0319618119336542
-0.2664296103030820
-0.1147531363015162
-0.3797011956477220
0.4071209295922253
0.9837874266724307
-0.8964540268091652
-0.0187369291640285
0.0013055782616609
-0.0083783359987029
0.0689045533282222
-0.0430948664274534
-0.1938879416955625
0.2577789015223351
-0.3021245441426623
0.2796709203275292
-0.0414373392023106
-0.0187369291640285
0.0013055782616609
-0.0083783359987029
0.0689045533282222
-0.0430948664274534
-0.7751310147122455
0.4007909038009200
-0.0447489442145989
0.3302893909768726
0.0887996635565062
-0.0305975201037459
0.6269089260274231
-0.3366397797005753
-0.0392914737070895
-0.2203801567209488
-0.0187369291640285
0.0013055782616609
-0.0083783359987029
0.0689045533282222
-0.0430948664274534
-0.3102140917991755
0.1373156179387656
0.1919120316088738
0.0218542680580471
-0.0408678281666596
-0.0187369291640285
0.0013055782616609
-0.0083783359987029
0.0689045533282222
-0.0430948664274534
0.0458586190069288
0.4726974157506023
-0.6748433219281017
0.1160583831794538
0.0402289029801937
0.1086509226255451
-0.7650399059856219
0.1712454958277340
0.0342885465640940
0.4508549372977754
-0.0187369291640285
0.0013055782616609
-0.0083783359987029
0.0689045533282222
-0.0430948664274534
-0.2402737052482577
0.0377187423985304
-0.2389278255818237
0.0230138982502453
0.4184688896681992
-0.2233377930738876
-0.3055228533646839
0.2698723585443643
0.0562144261695846
0.2027738599839618
-0.0187369291640285
0.0013055782616609
-0.0083783359987029
0.0689045533282222
-0.0430948664274534
0.1460460823798489
0.7354581296956721
-0.9527543468237641
0.5873594193653331
-0.5161092891091953
-0.0187369291640285
0.0013055782616609
-0.0083783359987029
0.0689045533282222
-0.0430948664274534
0.4243159603818742
-0.2223837708073236
0.2885473335969406
-0.1043368657495403
-0.3861426603420873
-0.2714811823561158
-0.1392008405894277
-0.0246656039760451
0.3890862969169467
0.0462613281269036
-0.0187369291640285
0.0013055782616609
-0.0083783359987029
0.0689045533282222
-0.0430948664274534
0.2386776686323218
-0.5763523849571631
0.1396961766042366
-0.3389152109053852
0.5368937458872665
-0.0110663963491781
0.0276989314773128
-0.0194655834192027
0.0322343170667003
-0.0294012687761006
0.2166736803502436
0.2390252027785268
0.2547430655942693
-0.6453812070298887
-0.0650607423283144
0.1255050801585593
-0.2943301202015077
0.0396009003260185
0.2727835217792101
-0.1435593860193213
-0.0110663963491781
0.0276989314773128
-0.0194655834192027
0.0322343170667003
-0.0294012687761006
0.0351693312499622
-0.1337051644643623
0.3265707899413518
-0.0362138979583524
-0.1918210592806798
0.1296047122350369
-0.0218910696113979
0.2959088507080663
0.0197507595870404
-0.4233732543564644
-0.4859330439564082
0.6508370856531163
-0.3977983235480128
0.7731238153362135
-0.5402295344882755
-0.0110663963491781
0.0276989314773128
-0.0194655834192027
0.0322343170667003
-0.0294012687761006
0.1218674269692042
0.0197075998839709
-0.0865051053287658
0.1681431698961910
-0.2232130934800073
-0.1681974794980974
-0.0907984928868797
-0.1763894782146066
0.1837110880646533
0.2516743622453723
-0.0110663963491781
0.0276989314773128
-0.0194655834192027
0.0322343170667003
-0.0294012687761006
-0.5254456007899616
0.0900388875406302
0.0859392496714587
-0.0420989731415708
0.3915664328123610
-0.0110663963491781
0.0276989314773128
-0.0194655834192027
0.0322343170667003
-0.0294012687761006
0.1481241804759686
-0.1291416345754719
-0.2882343925704242
-0.0046878807058294
0.2739397233775066
-0.0110663963491781
0.0276989314773128
-0.0194655834192027
0.0322343170667003
-0.0294012687761006
-0.2112613174182995
-0.2771428096690629
0.1102974322580351
0.4741883060694058
-0.0960816157219964
-0.0110663963491781
0.0276989314773128
-0.0194655834192027
0.0322343170667003
-0.0294012687761006
0.1593915835758986
-0.2976045759714860
-0.3051428054814382
0.1904229082710623
0.2529328850847711
-0.0110663963491781
0.0276989314773128
-0.0194655834192027
0.0322343170667003
-0.0294012687761006
-0.1502215701263053
-0.1515683279789557
0.2654261477496662
0.3085089192170545
-0.2721451717054605
-0.2305333224184493
-0.1377830478001459
0.3598113464081416
0.2242192932219225
-0.2157142708833174
-0.0110663963491781
0.0276989314773128
-0.0194655834192027
0.0322343170667003
-0.0294012687761006
-0.4344938006624535
0.1880362029810949
-0.0706026811676904
-0.0077149217171634
0.3247751975576366
-0.1404362881582758
-0.2229879374367998
0.0006019018253322
-0.1318635194583360
0.4946858429709240
-0.0110663963491781
0.0276989314773128
-0.0194655834192027
0.0322343170667003
-0.0294012687761006
-0.2576564675019140
-0.4342064858941252
0.1727486836726127
0.3329661306631637
0.1861481381220469
0.6071463748238380
0.2205590505773415
-0.1168338385717940
-0.4777561166266520
-0.2331154709248841
-0.0110663963491781
0.0276989314773128
-0.0194655834192027
0.0322343170667003
-0.0294012687761006
0.4990742658851450
-0.4373913647625443
0.0424220191634526
-0.1379274700717458
0.0338225457356885
-0.0110663963491781
0.0276989314773128
-0.0194655834192027
0.0322343170667003
-0.0294012687761006
-0.1943656253836405
0.1339018879668898
-0.0769105275214391
0.2504450997286156
-0.1130708392516512
-0.0110663963491781
0.0276989314773128
-0.0194655834192027
0.0322343170667003
-0.0294012687761006
0.2484540348125736
0.0671219507465967
0.0455007588740412
-0.1162414576427311
-0.2448352887046766
0.2889153028760638
-0.6919707070961887
-0.3131232799967282
0.0338637540521798
0.6823149290946903
-0.0110663963491781
0.0276989314773128
-0.0194655834192027
0.0322343170667003
-0.0294012687761006
-0.1528534165267656
0.5916685252405819
-0.5100553782201572
0.0263072314306206
0.0449330341985663
-0.0110663963491781
0.0276989314773128
-0.0194655834192027
0.0322343170667003
-0.0294012687761006
-0.0280866715669433
0.0698551599748351
-0.1228760499864452
0.0511561381037294
0.0299514218197344
-0.0661378473948598
-0.2060658371748889
0.0600175074747891
0.1647099489933772
0.0474762270912749
-0.4935839046422950
0.6246826002942611
0.0095483221657426
0.0265407415896196
-0.1671877598772721
-0.0110663963491781
0.0276989314773128
-0.0194655834192027
0.0322343170667003
-0.0294012687761006
0.3345157774197029
0.2261670642196456
-0.8264488247450900
0.0658012517732539
0.1999647308518879
0.0676620897180641
-0.2317239682352135
-0.5114332563153341
0.3243061384915155
0.3511889956329405
-0.7129940700666567
0.7533049514912488
0.6280057665677299
0.0876118590706430
-0.7559285077392605
0.3981557914694330
-0.1513310475415662
0.0752528957636124
0.0391676382220074
-0.3612452791460529
-0.0110663963491781
0.0276989314773128
-0.0194655834192027
0.0322343170667003
-0.0294012687761006
-0.3023054069883616
0.2726240510507011
0.1040362969022795
0.1865291954661612
-0.2608841410003640
-0.0110663963491781
0.0276989314773128
-0.0194655834192027
0.0322343170667003
-0.0294012687761006
-0.1614292213674075
0.1539715633755729
0.2299161058608087
-0.1280305552071956
-0.0944278974374731
-0.0110663963491781
0.0276989314773128
-0.0194655834192027
0.0322343170667003
-0.0294012687761006
-0.2060065972287563
-0.4269541985647535
0.1292357247185039
0.8230199100454111
-0.3192948437279772
-0.0110663963491781
0.0276989314773128
-0.0194655834192027
0.0322343170667003
-0.0294012687761006
-0.3584170080490547
-0.1763714192493371
-0.2669609744534744
0.7279994115389633
0.0737499852799631
-0.0110663963491781
0.0276989314773128
-0.0194655834192027
0.0322343170667003
-0.0294012687761006
-0.0540233412370911
0.0873370312283871
-0.0305245995074392
-0.0589955456825815
0.0562064503975104
-0.0110663963491781
0.0276989314773128
-0.0194655834192027
0.0322343170667003
-0.0294012687761006
0.1452900307451404
-0.1733014272287721
0.0814644277781357
-0.0357383875958366
-0.0177146477696616
-0.0110663963491781
0.0276989314773128
-0.0194655834192027
0.0322343170667003
-0.0294012687761006
0.1447489356591344
-0.0931415782203494
0.9850654440269512
-0.7247130583987095
-0.3119597458852982
-0.1072283857775280
0.4150337397696113
-1.1759289605477212
0.8839482251877900
-0.0158246206155721
-0.0110663963491781
0.0276989314773128
-0.0194655834192027
0.0322343170667003
-0.0294012687761006
-0.4823469460109684
0.8131505305628492
-0.4975520875215160
-0.0636161016372123
0.2303646045697947
-0.0063825885640013
-0.2650820183858029
-0.0449629643295263
0.1785302421388688
0.1378973243773423
-0.0110663963491781
0.0276989314773128
-0.0194655834192027
0.0322343170667003
-0.0294012687761006
0.2790599025375388
-0.3661978253527210
-0.0686111496714737
0.0266668658659243
0.1290822018705116
-0.0110663963491781
0.0276989314773128
-0.0194655834192027
0.0322343170667003
-0.0294012687761006
0.1863112234706475
-0.0756163323974244
0.1020594207943923
0.1156510010720389
-0.3284053172385109
-0.0110663963491781
0.0276989314773128
-0.0194655834192027
0.0322343170667003
-0.0294012687761006
0.4848518596453287
-0.3708846514113784
-0.1554144146489575
0.0379519263679387
0.0034952752875368
-0.0110663963491781
0.0276989314773128
-0.0194655834192027
0.0322343170667003
-0.0294012687761006
0.0073983099594810
0.3947342466131516
0.3007449853529442
-0.0910260162465057
-0.6118515302950137
-0.0110663963491781
0.0276989314773128
-0.0194655834192027
0.0322343170667003
-0.0294012687761006
0.1060842271945342
-0.0047111352437440
0.0267142790157931
0.1668314352872509
-0.2949188084065471
-0.0110663963491781
0.0276989314773128
-0.0194655834192027
0.0322343170667003
-0.0294012687761006
0.2183850116872907
0.1067854104714171
0.0614828317961521
-0.6954977903970979
0.3088445323364552
-0.0110663963491781
0.0276989314773128
-0.0194655834192027
0.0322343170667003
-0.0294012687761006
-0.0746114393821421
0.3135436540813681
-0.0468840059408813
0.0064793482519007
-0.1985275574887943
-0.0928220533326442
0.2772391119739619
-0.1270475547020510
0.2020112915363343
-0.2593807979673066
-0.1744106508463956
0.2697827493489933
-0.0466397312894216
0.0386504646764032
-0.0873828350766688
0.0247572693548481
0.1869905907635014
0.0383592317762063
0.0038469733644968
-0.2539540658564265
0.7003508861725620
-0.2992072921816454
-0.0140296951928425
-0.2855581461259082
-0.1015557568809418
0.1020046986525171
0.0254518986421635
0.2031780678727092
-0.2933395848082466
-0.0372950827207110
0.2887094677130430
-0.2491470384157663
-0.0089497557689884
0.1437260748151884
-0.1743387493554510
2.1653618378358765
-0.6708627201248101
-0.1684397749876476
-0.3511643623507821
-0.9748949840464616
0.1111431151079604
-0.3170536905295576
0.2150153110757587
-0.1648958853637948
0.1557911491958047
0.1934136513940929
-0.5689791750910052
0.4407687595827446
-0.7201111212816615
0.6549078836544472
0.2857067643341658
-0.0974160750069783
-0.6393814493662447
0.4450580627307103
0.0060326928180531
0.1556464421030869
-0.0219641487438131
0.3623946095955493
-0.3274931726255196
-0.1685837332482157
-0.5202592466705380
0.6519378951610533
-0.6501921999299406
0.3652093456955344
0.1533042038641530
0.3416751060456618
-0.3228464978191986
0.2570089260413349
-0.0741199546570984
-0.2017175843474455
-0.0087150641725406
0.2174401006557520
0.2109040350085450
-0.2907215456277346
-0.1289075264984345
0.1043497742363926
0.1718145076070252
0.0050375506628431
0.1427886218127976
-0.4239904582741886
0.1675478905480060
-0.3189122450592460
0.2770749335956221
0.1040565827403043
-0.2297671623387396
-0.2074827477038406
-0.0085887974862272
-0.0236928654304978
0.4050954193364256
-0.1653310101472242
-0.4077238838355990
-0.4173301248511419
-0.0500885643630539
0.3873523687503925
0.4877902032901876
-0.1079470228980183
-0.0283125412282253
-0.0499217717626210
0.1673108247049024
0.0188705099323322
-0.3083493997667157
-0.1003956289783953
-0.0218660146983000
0.1209881629758360
0.3096228784110951
-0.1552998836257277
0.2324300451849350
-0.0594215227926471
0.1058238302082960
-0.1235324692648976
-0.0915363960531018
-0.0289000353513929
-0.0500803273698072
0.1520248154034511
0.0184919421194174
0.0429213252640930
0.1362082221537655
-0.0090481781866927
-0.0828815297600555
-0.0871998433790659
0.1343876276185055
0.0374339913752658
0.1134539745210146
-0.0888031505997898
-0.1964724469139089
-0.0337778972627065
-0.4590610470796159
0.0846947677979771
0.3667345975116633
0.0414095745512068
-0.0557720763155578
0.2149953218167929
-0.3687971264427701
-0.2669101464171608
0.4764840228379472
-0.0177081652139639
-0.0788362601406934
0.0034542306273842
0.1094747693408031
-0.0163845774581756
-0.0832681175317179
0.0110057431359177
0.2867043314911347
-0.0413318011114150
-0.1731101574624257
0.2826543703424496
0.1778154865498600
-0.2432519499771130
0.1396217917765904
-0.3568397016972054
-0.6809901806750265
0.1781284056664633
0.3693345710218900
0.2592800106336142
-0.1257528069053697
-0.1935696319686465
-0.3199300326713600
0.0417833420758667
0.3022983562605352
0.1694179653656845
-0.3847976235437888
0.3213905500978672
-0.5494837869513689
-0.0789313258470623
0.6918221855232377
0.0919817604721681
-0.0177470010199159
0.0206953320529350
0.1182932656401326
-0.2132233583353313
0.2272453333840804
-0.1228495206026352
-0.1177591381457049
0.2170990615092355
-0.2037357401965522
-0.4142964044431542
-0.1198056001317550
0.0845681055444611
0.2532239237535966
0.1963099708140175
0.0540255572100024
-0.1434630085969655
-0.0235844551825839
-0.0850619057491936
0.1980838103997859
1.0714238262809774
-0.0807168914057905
-0.4742961829386950
-0.1764886975132403
-0.3399220554906132
-0.3087697093104746
0.5654894160285302
-0.0945643624593461
0.1710621314283080
-0.3332174760538795
-0.0473446082131912
0.1919387819059316
-0.4280896171599670
-0.0190433091837589
0.3025387487758010
-0.2477987108821424
-0.1378882324242160
0.2617240074263957
-0.0789047388852720
0.2028676731051834
0.1908719962971745
0.4064942717488305
-0.4721810086791627
0.0125673226835611
-0.1377525830601616
-0.0095617248927755
-0.5312856801611187
0.0363554060751270
0.2109096589839831
0.2935823395274137
-0.1079470228980183
-0.0283125412282253
-0.0499217717626210
0.1673108247049024
0.0188705099323322
-0.0213749719903148
0.3667088767970985
-0.3931288047849656
0.0722792349017695
-0.0244843354046891
-0.5041988418987017
-0.2319042957357716
0.4018642023465722
0.0053225490873735
0.3289163854923253
0.2898979557033258
-0.3838859272992459
0.5726014449025705
-0.2926533216704534
-0.1859601523170628
-0.1688239175864676
0.2153191068719903
-0.3580191115220897
0.5243892509109989
-0.2128653299088026
-0.1079470228980183
-0.0283125412282253
-0.0499217717626210
0.1673108247049024
0.0188705099323322
0.0498800210095068
0.0035863909586536
0.2456292849633069
0.0454597849631216
-0.3445554864636695
-0.0196044977397018
0.5421037366917771
0.1945582969718125
-0.5513610163233410
-0.1656965243758247
-0.2496183000081574
0.1272788411881987
0.1933413053631220
0.1728824302026435
-0.2438842815035793
0.4873206765136944
-0.0617657785297255
0.3989557568356667
-0.5415304687727400
-0.2829801909796275
-0.0437416264521463
-0.2247926802276165
0.1371613023425300
0.0565081923520862
0.0748648071846419
-0.4481421810426454
0.5905264249084300
-0.0120049036779067
-0.3162467766403100
0.1858674323839466
0.3624559923368065
-0.2329256392838961
0.1544366821185086
-0.1704609812324131
-0.1135060567571513
-0.2007921350347961
0.1934196115780046
-1.0354657474356919
0.7005397499212422
0.3422985189883220
-0.1397361023005867
0.1154417935852264
0.0993778927659312
-0.2764098278294613
0.2013262409747358
-0.1338581842550136
0.7774050816366541
-0.1383685199110823
-0.1482499452076703
-0.3569284323002704
0.4263037466353128
-0.7128724972051651
0.4471517841127735
0.0394427931600219
-0.2000258314667585
-0.4159345704857232
0.1680068144665515
-0.3790767350904413
0.6834810097752180
-0.0564765234149243
0.0733451928737879
0.1689931111177026
0.2165782821990891
-0.1231450063194250
-0.3357715841692069
0.0755842282473734
0.0080251082136989
0.0249661127622726
-0.1561365833081363
0.0475611293248475
0.2010297385462817
0.2137928761673050
0.5565363281904535
-0.4098882252577835
-0.5614707222613780
-0.0724143170128187
0.1531385063839919
-0.2013322709913106
0.2981822595168855
-0.1775741800422644
0.2808038714840330
0.1023761763696855
-0.4560083251887759
-0.3729331677679655
0.4457614433565409
-0.0922811466841900
0.2510515289835987
0.1801346395257297
-0.4376277974402415
0.0987227715098001
-0.1000975459811803
-0.1280159290524881
0.1151663420049863
0.3926187156485820
-0.2796715830987340
-0.3271762715649901
0.0878904723367308
0.0140894209390663
0.2782097270932441
-0.0530133512941569
0.1829963786679217
-0.0753501974248990
0.2616702413522666
-0.4187688573373419
0.0494524331285472
-0.0808004687305090
-0.0867125574058503
-0.0887595351849426
-0.0280202818417552
0.2842928389595041
0.1671254046037358
-0.2726897009058750
0.2343264433701504
-0.4953958156163366
0.3666336648756632
0.0665641501577551
-0.0975695775931329
0.2213013621738986
-0.3873677225859126
0.1970717861055098
-0.4990960889215684
0.3239673824265668
-0.3473259730043845
0.1490681106004816
0.3733865670177182
0.5388190672250700
-0.6470456843437186
0.3176019995299602
0.1574974861123790
-0.3668728724786559
-0.1416033493306268
0.1130048709823808
-0.2243958356539340
0.1751881451461276
0.0778061674221511
-0.6699900938096200
0.0683293796950125
-0.1620046875694575
0.2518110064855391
0.5118543941877818
-0.0613427034211372
-0.1190209718039187
-0.0455949330911531
0.1022898511407382
0.1236687559204673
-0.0283028820456044
-0.3836814214942878
-0.0648961016879032
0.1536937005119980
0.3231867042127643
-0.0166345578374770
0.0988375593663491
0.0217735713740052
0.1475118318070809
-0.2514884049977441
-0.0527573148788953
-0.1196436961881407
-0.0458033750148183
0.1004238343871851
0.1177805504398102
-0.0010709858939667
0.1906489754344389
0.2901534388186212
-0.1289877344298365
-0.3507436954090519
0.0335115299096996
-0.0396527321486737
-0.0270493449003374
0.1055548056914644
-0.0723642588074938
-0.2566390173433758
0.0962765345595289
-0.0989393864204237
0.0346140353663772
0.2246878331155141
-0.1474745644397103
0.1167005113792202
0.0593398394813933
0.1775808823483633
-0.2061466699628241
0.5002330650977127
-0.4802467551021236
-0.0336259081383855
0.1314402106291778
-0.1178006135560568
-0.2468813422974624
0.0596151676247766
-0.0474057028717204
-0.0561745603610759
0.2908464375370765
-0.1647061064093617
0.2604736603333644
-0.0546501355099522
-0.1975575950617717
0.1564401756442924
0.2188274198749564
0.2035269332701508
-0.1729497263211331
-0.0930451730191403
-0.1563594542758431
-0.0613427034211372
-0.1190209718039187
-0.0455949330911531
0.1022898511407382
0.1236687559204673
0.0689637288922050
0.0450956358376962
-0.1189213119063641
0.2080499154654446
-0.2031879699378518
0.0627885537057447
0.3148812119692170
-0.2339686479916586
0.3050067557273836
-0.4487078741221436
-0.1540653603100539
0.2728501571674297
0.3943217337625906
-0.1234797562545285
-0.3896267750469742
-0.3461918085673978
0.0007374749197706
-0.1772900427434170
0.0958557014864857
0.4268886736703288
-0.0613427034211372
-0.1190209718039187
-0.0455949330911531
0.1022898511407382
0.1236687559204673
0.4549816550092959
-0.2023541048986086
-0.2008519341843613
0.0281332936048003
-0.0799089100057718
-0.4074327953632931
0.3055047411642436
-0.1853714021080335
0.1140533556883262
0.1732460986362770
0.0178047848374273
-0.0937493164743608
0.5939510163244107
-0.5456697413001864
0.0276632538031099
0.0888813812285417
-0.7048259797562921
0.1074337999215393
0.0918423196637607
0.4166684741794129
0.5276771040562239
-0.2647725036819734
-0.2125884668336913
-0.0206445743592754
-0.0296715609372939
-0.3032645792036741
0.0514357976003762
-0.0882029013478363
0.0868143206814206
0.2532173597811258
-0.1146723284407808
0.2515876512462670
0.0684151700166889
-0.2328720333258696
0.0275415388869246
-0.0604552495612422
0.2674964169693846
-0.3515499310923389
0.1344193674522784
0.0100893940023318
0.0937752763798988
0.4371505342699602
-0.1757821336215032
-0.2901813874272597
-0.0649622932716943
0.1924770024732324
0.3222619533603511
-0.0030585039643211
-0.1314985524772612
-0.3801819011340221
-0.0284806142281999
0.0976249920279690
-0.0157712273771417
-0.4460648437502091
0.3926916914000108
-0.2116896414787555
0.1222421821014051
-0.4127949130042943
0.3033198641481307
0.1989225063513151
-0.1477417944142662
0.1184800422988261
0.0455883397054400
-0.0051978263868662
-0.0111287641188741
-0.2065661350819252
0.0121939016655619
-0.1902421061385098
0.6769395461692058
-0.2923252076210306
-0.0668221055961511
0.1319063015630712
-0.0426655924596820
0.1296386501557822
-0.1520572549169803
0.2220213301079678
-0.5031340186701604
0.0651553889900193
0.2318809770244309
-0.0159236779592864
-0.7682899692423463
0.7719542944554414
-0.0758341791969034
0.1704697804454755
-0.0982999267494402
-0.0669661978056127
0.1346917599921322
-0.0427680480179185
0.1290829339229318
-0.1540404493453899
-0.3218962340499102
-0.1419677513243849
-0.0109147699399703
0.2330263335114494
0.2417524203186690
-0.0226810911200505
-0.0664196010818861
0.1556432441128460
0.2906672373270467
-0.3572097894947245
-0.5059646434136140
0.0997385096935472
0.1499909444356626
-0.1399076773216615
0.3961428658860153
-0.4561770364085683
0.6388441936076019
0.0289280371361349
0.1426238172587374
-0.3542190127862697
0.3507711416579757
-0.4895049876433770
-0.1533890729170504
0.1304670225532004
0.1616558952837830
0.0337347441397478
0.4151038454938019
-0.1263992992293184
-0.1414675183132829
-0.1809717724598249
0.0750790904760047
0.2943313906491335
-0.2509993274021686
-0.0434074412894770
-0.0750037129032970
-0.0668221055961511
0.1319063015630712
-0.0426655924596820
0.1296386501557822
-0.1520572549169803
-0.0937882217831510
-0.1350386048356975
0.3117139400864573
-0.3135440572883431
0.2306569431426802
-0.6229069048659043
0.6397968716990927
-0.0901553990650379
-0.0839559787480519
0.1572214097495691
-0.0668221055961511
0.1319063015630712
-0.0426655924596820
0.1296386501557822
-0.1520572549169803
-0.0490103273853062
0.1352786144706157
-0.4243397107034494
0.5288851356384651
-0.1908137124928488
0.2658444604183353
0.0866376359112430
0.4187252173163571
-0.6980893469433851
-0.0731179695147937
-0.0984796862314677
-0.0854517054949545
-0.0738705491712861
-0.1410958915214528
0.3988978306628055
0.4810571508681042
-0.7738811515569063
0.3190615410087240
-0.2038109651453194
0.1775734232098661
-0.1530994313339844
0.2051965633222797
0.1835891424801654
-0.0590791336466342
-0.1766071430537605
-0.1511501587653098
-0.0751930820425770
0.1795644921886990
-0.1408050158835389
0.1875837625729639
-0.0706584949528770
-0.2054743075107735
0.2628010834555704
-0.1119318553333859
0.1252635714219782
-0.4428156174586041
-0.2222894066793216
0.2368919235449473
0.5154963393397852
-0.0872832400015553
-0.0155002107264719
-0.4014382372588833
0.1976331814921301
0.0908232669485652
0.1284819990403474
-0.1121673114214151
-0.1343986379475898
0.1301911145894095
-0.1615543631096812
0.2779291976010038
-0.4737554474873154
-0.2242376560983290
0.2365642805171586
0.5131683197782999
-0.0517394979643865
-0.1564004901253077
0.1816920957640835
0.0819645534662540
0.0052581937847327
-0.1125143543693012
-0.2593651323512778
-0.3565298932084318
0.2084455700911357
0.0553612030829529
0.3520882521281525
-0.5090983488644386
-0.3327085854636184
0.1999770870021732
0.3934734312856868
0.2483564148459687
-0.9139459084193391
-0.5034032224343956
-0.5519581029351979
2.5082259919432248
-0.5389187585222407
-0.0286883337649092
0.1217923573719659
-0.4056937652637488
0.2463050188693231
0.0662847223179385
-0.4428156174586041
-0.2222894066793216
0.2368919235449473
0.5154963393397852
-0.0872832400015553
-0.0957080553630378
-0.3199221295144995
0.2505621021228845
-0.0863602089315506
0.2514282915855278
-0.0192989226536604
-0.1807120219023700
-0.0515378311181187
0.1651927283314221
0.0863560461132073
-0.4428156174586041
-0.2222894066793216
0.2368919235449473
0.5154963393397852
-0.0872832400015553
0.4047937164310752
-0.3863631295487854
-0.5129464055798194
0.3130401014794770
0.1814757167438859
0.1770236932003235
-0.3738541707325779
-0.4912621948601181
0.4418613976314899
0.2462312730044544
0.6906462566705609
-0.5724346407679007
0.0323203699725892
0.5520952761356444
-0.7026272636263113
-0.2855903549604192
-0.0837514520495539
-0.6986091399636911
0.4791403366096691
0.5888106081328937
0.3364776211404986
-0.5037878949332473
-0.0869273618985919
-0.0659405420901691
0.3201781758516630
-0.4745139943257201
0.1861526220692350
0.1656509527975623
0.1251022487821469
-0.0023918305747539
-0.4167165582386884
0.1850492052036755
0.1652040843867579
0.0714361469137364
-0.0049728795168497
-0.1406157381899641
-0.1050529502180569
0.1031741901661379
-0.1171556576743463
0.2596501547258155
-0.7312829854295614
0.4943832672737010
0.2130749286784969
-0.2356308391432435
0.2594556282539316
-0.2281693419742932
0.3439064444013185
-0.0805564089412772
-0.1632747450913546
0.1280940511347037
-0.4745139943257201
0.1861526220692350
0.1656509527975623
0.1251022487821469
-0.0023918305747539
-0.0951188566385448
-0.0735721638650990
-0.0757689209618294
-0.0273024092678816
0.2717623506309492
-0.4745139943257201
0.1861526220692350
0.1656509527975623
0.1251022487821469
-0.0023918305747539
-0.5837883099938658
0.1504979787657961
-0.0236770910419905
-0.1869963114029100
0.6439637319225264
0.1191078131558796
-0.1561952899030395
0.2433459047352222
-0.2349396754767572
0.0286812458778927
1.0613859126568002
-0.3207131011502131
-0.3730317394384757
0.0588675289921487
-0.4265086032950097
1.8060303305059415
-0.1008757582483424
-0.6040242646482790
0.5270016993997876
-1.6281320089416884
-0.3619462638786142
0.2782553846758278
0.0444590035045566
0.1208490918060947
-0.0816172173591640
-0.3496624481369297
0.2778601778376796
0.0442573931101289
0.1203332830073232
-0.0927884070693245
-0.1067261449460002
-0.1605414526730263
-0.1537802180503929
0.2852832026683234
0.1357646118096574
-0.4554471220508419
0.0589975741749238
-0.7643211357455547
0.2648937265586647
0.8958769566949868
-0.3619462638786142
0.2782553846758278
0.0444590035045566
0.1208490918060947
-0.0816172173591640
-0.4515092211984723
0.1397023359748777
0.0735456345893143
-0.0132217072267057
0.2514829577598645
-0.3619462638786142
0.2782553846758278
0.0444590035045566
0.1208490918060947
-0.0816172173591640
0.0989739873373870
0.3040330915582248
-0.2086014158925451
-0.2379929540613047
0.0435872893030656
-0.1141528491992397
0.4472899259352393
-0.5150146193814333
0.8887191877207450
-0.7068416472399554
0.1183674514707325
-0.1695047159913257
-0.0037605721193218
-0.0628237731538750
0.1177216081796459
0.0828766428817464
-0.0340791097564502
-0.2573527595924964
-0.0212740213953026
0.2298292456295793
0.1056226213105438
-0.1719524507005532
0.0308578784548809
-0.1344160036127043
0.1698879526169404
-0.3188676220208214
0.1018231788555267
0.0204441680171966
0.2086684125686269
-0.0120681386729535
-0.3190180246963909
0.1798176355000888
0.0202345050059494
0.1733763562775451
-0.0544104733394362
0.1578779784813499
-0.1611022851589070
-0.2577677577153983
0.2413488993782164
0.0196431638221005
0.4539295119706965
0.3806731387303935
-0.4581079103439967
-0.3637493930079536
-0.0127453477179284
-0.3188676220208214
0.1018231788555267
0.0204441680171966
0.2086684125686269
-0.0120681386729535
-0.0498654369188283
0.4035151757732738
-0.0266144865148913
-0.1424099983893118
-0.1846252540509406
-0.3188676220208214
0.1018231788555267
0.0204441680171966
0.2086684125686269
-0.0120681386729535
0.2087860802841840
0.0190759974630987
-0.0608612012373298
-0.4579011381678348
0.2909002599008002
-0.0503280441044563
0.1602370925340445
-0.1698672634179332
-0.0730011313929649
0.1329593441511899
-0.0968631856704592
0.1528375348836455
-0.1720705218487457
-0.1995804213289424
0.3156765920356923
0.3306844960905671
0.4975377778117904
-0.6052692607412414
-0.3839920424240508
0.1610390291611048
0.0036634971046712
0.1792202930462175
0.0685740300749890
-0.5130177504513735
0.2615599301232076
-0.0191061500354418
0.0372931127769118
0.6348171600314965
0.1408047846973659
-0.7938089077830334
-0.1276506640212585
0.1542455558767389
0.0762108765034873
-0.0860943606057404
-0.0167114088472133
0.4271697084182116
-0.0852216502112686
-0.1156747235277945
-0.5554248444451265
0.3291515096630299
0.0674608919489950
-0.2822052941134395
0.0837468062590318
-0.0088600105932201
0.1398576054042263
-0.1032931979359040
-0.2812707679467085
-0.0974891469517622
0.2734610732570174
0.2085920394158334
-0.5240376756850585
-0.0071234348664118
0.3396814285202473
-0.0521107992450996
0.2435904801776769
-0.0726709427648392
0.3896884515489947
-0.2171736654207394
0.0720573109536562
-0.1719011544790558
-0.1388473573356438
-0.2152835464583659
0.3155165282198976
-0.3689632524365382
0.4075776269073860
-0.4511991437129458
0.7740846333646652
-0.1048977363000682
-0.2308061647510055
0.0128184112369992
0.4334604510822970
-0.2302414867872755
-0.0825335891663122
-0.0419907250359162
-0.0786946511963403
0.1813358073638534
0.0637582063180287
0.0547145169938062
0.1256123813140387
-0.4254209121526307
0.1390452108259674
-0.0858202298329306
-0.0746174169416612
0.1253475646471284
-0.1039551298007559
0.1833933887398405
0.3517485056436965
-0.2775064765690300
0.3471648256775448
-0.6048002436562443
0.2283309289692255
-0.2710621075767117
-0.2234443148920837
0.3095208390585922
-0.0433453466615803
-0.3390004359511126
-0.1112928623685036
-0.1181768942727486
-0.1698117572411938
0.7382819496691457
0.2578088375275439
-0.3205844489406551
0.1365038565043657
-0.0894756303966472
0.0157473846701625
0.1898447602925616
-0.0871932329216926
-0.4319679124062968
