version: 100
cost-factor: 1
maxid: 9955
xsize: 48

continuation
header
list
other
paragraph

U1_-3:%x[-3,1]
U1_-2:%x[-2,1]
U1_-1:%x[-1,1]
U1_0:%x[0,1]
U1_1:%x[1,1]
U1_2:%x[2,1]
U1_3:%x[3,1]
U2_-3:%x[-3,3]
U2_-2:%x[-2,3]
U2_-1:%x[-1,3]
U2_0:%x[0,3]
U2_1:%x[1,3]
U2_2:%x[2,3]
U2_3:%x[3,3]
U3_-3:%x[-3,4]
U3_-2:%x[-2,4]
U3_-1:%x[-1,4]
U3_0:%x[0,4]
U3_1:%x[1,4]
U3_2:%x[2,4]
U3_3:%x[3,4]
U4_-3:%x[-3,5]
U4_-2:%x[-2,5]
U4_-1:%x[-1,5]
U4_0:%x[0,5]
U4_1:%x[1,5]
U4_2:%x[2,5]
U4_3:%x[3,5]
U5_-3:%x[-3,6]
U5_-2:%x[-2,6]
U5_-1:%x[-1,6]
U5_0:%x[0,6]
U5_1:%x[1,6]
U5_2:%x[2,6]
U5_3:%x[3,6]
U6_-3:%x[-3,7]
U6_-2:%x[-2,7]
U6_-1:%x[-1,7]
U6_0:%x[0,7]
U6_1:%x[1,7]
U6_2:%x[2,7]
U6_3:%x[3,7]
U7_-3:%x[-3,8]
U7_-2:%x[-2,8]
U7_-1:%x[-1,8]
U7_0:%x[0,8]
U7_1:%x[1,8]
U7_2:%x[2,8]
U7_3:%x[3,8]
U8_-3:%x[-3,9]
U8_-2:%x[-2,9]
U8_-1:%x[-1,9]
U8_0:%x[0,9]
U8_1:%x[1,9]
U8_2:%x[2,9]
U8_3:%x[3,9]
U9_-3:%x[-3,10]
U9_-2:%x[-2,10]
U9_-1:%x[-1,10]
U9_0:%x[0,10]
U9_1:%x[1,10]
U9_2:%x[2,10]
U9_3:%x[3,10]
U10_-3:%x[-3,15]
U10_-2:%x[-2,15]
U10_-1:%x[-1,15]
U10_0:%x[0,15]
U10_1:%x[1,15]
U10_2:%x[2,15]
U10_3:%x[3,15]
U11_-3:%x[-3,16]
U11_-2:%x[-2,16]
U11_-1:%x[-1,16]
U11_0:%x[0,16]
U11_1:%x[1,16]
U11_2:%x[2,16]
U11_3:%x[3,16]
U12_-3:%x[-3,17]
U12_-2:%x[-2,17]
U12_-1:%x[-1,17]
U12_0:%x[0,17]
U12_1:%x[1,17]
U12_2:%x[2,17]
U12_3:%x[3,17]
U13_-3:%x[-3,18]
U13_-2:%x[-2,18]
U13_-1:%x[-1,18]
U13_0:%x[0,18]
U13_1:%x[1,18]
U13_2:%x[2,18]
U13_3:%x[3,18]
U14_-3:%x[-3,19]
U14_-2:%x[-2,19]
U14_-1:%x[-1,19]
U14_0:%x[0,19]
U14_1:%x[1,19]
U14_2:%x[2,19]
U14_3:%x[3,19]
U15_-3:%x[-3,13]
U15_-2:%x[-2,13]
U15_-1:%x[-1,13]
U15_0:%x[0,13]
U15_1:%x[1,13]
U15_2:%x[2,13]
U15_3:%x[3,13]
U16_-3:%x[-3,14]
U16_-2:%x[-2,14]
U16_-1:%x[-1,14]
U16_0:%x[0,14]
U16_1:%x[1,14]
U16_2:%x[2,14]
U16_3:%x[3,14]
U17_-3:%x[-3,24]
U17_-2:%x[-2,24]
U17_-1:%x[-1,24]
U17_0:%x[0,24]
U17_1:%x[1,24]
U17_2:%x[2,24]
U17_3:%x[3,24]
U18_-3:%x[-3,25]
U18_-2:%x[-2,25]
U18_-1:%x[-1,25]
U18_0:%x[0,25]
U18_1:%x[1,25]
U18_2:%x[2,25]
U18_3:%x[3,25]
U19_-3:%x[-3,26]
U19_-2:%x[-2,26]
U19_-1:%x[-1,26]
U19_0:%x[0,26]
U19_1:%x[1,26]
U19_2:%x[2,26]
U19_3:%x[3,26]
U20_-3:%x[-3,27]
U20_-2:%x[-2,27]
U20_-1:%x[-1,27]
U20_0:%x[0,27]
U20_1:%x[1,27]
U20_2:%x[2,27]
U20_3:%x[3,27]
U21_-3:%x[-3,28]
U21_-2:%x[-2,28]
U21_-1:%x[-1,28]
U21_0:%x[0,28]
U21_1:%x[1,28]
U21_2:%x[2,28]
U21_3:%x[3,28]
U22_-3:%x[-3,30]
U22_-2:%x[-2,30]
U22_-1:%x[-1,30]
U22_0:%x[0,30]
U22_1:%x[1,30]
U22_2:%x[2,30]
U22_3:%x[3,30]
U23_-3:%x[-3,31]
U23_-2:%x[-2,31]
U23_-1:%x[-1,31]
U23_0:%x[0,31]
U23_1:%x[1,31]
U23_2:%x[2,31]
U23_3:%x[3,31]
U24_-3:%x[-3,32]
U24_-2:%x[-2,32]
U24_-1:%x[-1,32]
U24_0:%x[0,32]
U25_-3:%x[-3,38]
U25_-2:%x[-2,38]
U25_-1:%x[-1,38]
U25_0:%x[0,38]
U25_1:%x[1,38]
U25_2:%x[2,38]
U25_3:%x[3,38]
U26_-3:%x[-3,39]
U26_-2:%x[-2,39]
U26_-1:%x[-1,39]
U26_0:%x[0,39]
U26_1:%x[1,39]
U26_2:%x[2,39]
U26_3:%x[3,39]
U27_-3:%x[-3,40]
U27_-2:%x[-2,40]
U27_-1:%x[-1,40]
U27_0:%x[0,40]
U27_1:%x[1,40]
U27_2:%x[2,40]
U27_3:%x[3,40]
U28_-3:%x[-3,21]
U28_-2:%x[-2,21]
U28_-1:%x[-1,21]
U28_0:%x[0,21]
U28_1:%x[1,21]
U28_2:%x[2,21]
U28_3:%x[3,21]
U29_-3:%x[-3,22]
U29_-2:%x[-2,22]
U29_-1:%x[-1,22]
U29_0:%x[0,22]
U29_1:%x[1,22]
U29_2:%x[2,22]
U29_3:%x[3,22]
U30:%x[0,23]
U31_-3:%x[-3,41]
U31_-2:%x[-2,41]
U31_-1:%x[-1,41]
U31_0:%x[0,41]
U31_1:%x[1,41]
U31_2:%x[2,41]
U31_3:%x[3,41]
U32_-3:%x[-3,42]
U32_-2:%x[-2,42]
U32_-1:%x[-1,42]
U32_0:%x[0,42]
U32_1:%x[1,42]
U32_2:%x[2,42]
U32_3:%x[3,42]
Uglobal_33:%x[0,43]
Uglobal_34:%x[0,44]
Uglobal_35:%x[0,45]
Uglobal_36:%x[0,46]
Uglobal_37:%x[0,47]
U38:%x[0,20]
Udist_39_-2:%x[-2,11]
Udist_39_-1:%x[-1,11]
Udist_39_0:%x[0,11]
Udist_39_1:%x[1,11]
Udist_39_2:%x[2,11]
Udist_39_3:%x[3,11]
Udist_40_-2:%x[-2,12]
Udist_40_-1:%x[-1,12]
Udist_40_0:%x[0,12]
Udist_40_1:%x[1,12]
Udist_40_2:%x[2,12]
Udist_40_3:%x[3,12]
Udist_41_-2:%x[-2,33]
Udist_41_-1:%x[-1,33]
Udist_41_0:%x[0,33]
Udist_41_1:%x[1,33]
Udist_41_2:%x[2,33]
Udist_41_3:%x[3,33]
Udist_42_-2:%x[-2,34]
Udist_42_-1:%x[-1,34]
Udist_42_0:%x[0,34]
Udist_42_1:%x[1,34]
Udist_42_2:%x[2,34]
Udist_42_3:%x[3,34]
Udist_43_-2:%x[-2,33]/%x[-2,34]
Udist_43_-1:%x[-1,33]/%x[-1,34]
Udist_43_0:%x[0,33]/%x[0,34]
Udist_43_1:%x[1,33]/%x[1,34]
Udist_43_2:%x[2,33]/%x[2,34]
Udist_43_3:%x[3,33]/%x[3,34]
Udist_44_-2:%x[-2,35]
Udist_44_-1:%x[-1,35]
Udist_44_0:%x[0,35]
Udist_44_1:%x[1,35]
Udist_44_2:%x[2,35]
Udist_44_3:%x[3,35]
Udist_45_-2:%x[-2,36]
Udist_45_-1:%x[-1,36]
Udist_45_0:%x[0,36]
Udist_45_1:%x[1,36]
Udist_45_2:%x[2,36]
Udist_45_3:%x[3,36]
Udist_46_-2:%x[-2,37]
Udist_46_-1:%x[-1,37]
Udist_46_0:%x[0,37]
Udist_46_1:%x[1,37]
Udist_46_2:%x[2,37]
Udist_46_3:%x[3,37]

3210 U10_-1:0
8015 U10_-1:1
2595 U10_-1:10
8420 U10_-1:2
7540 U10_-1:3
4865 U10_-1:4
4215 U10_-1:5
4760 U10_-1:6
5750 U10_-1:7
3435 U10_-1:8
1545 U10_-1:9
325 U10_-1:_B-1
3275 U10_-2:0
8025 U10_-2:1
2855 U10_-2:10
8425 U10_-2:2
7555 U10_-2:3
4885 U10_-2:4
4340 U10_-2:5
4780 U10_-2:6
5780 U10_-2:7
3445 U10_-2:8
2175 U10_-2:9
1540 U10_-2:_B-1
320 U10_-2:_B-2
3340 U10_-3:0
8030 U10_-3:1
3020 U10_-3:10
8430 U10_-3:2
7575 U10_-3:3
4915 U10_-3:4
4440 U10_-3:5
4805 U10_-3:6
5805 U10_-3:7
3455 U10_-3:8
2590 U10_-3:9
2170 U10_-3:_B-1
1535 U10_-3:_B-2
315 U10_-3:_B-3
3135 U10_0:0
8005 U10_0:1
2180 U10_0:10
8415 U10_0:2
7525 U10_0:3
4850 U10_0:4
4110 U10_0:5
4725 U10_0:6
5720 U10_0:7
3425 U10_0:8
330 U10_0:9
3025 U10_1:0
7995 U10_1:1
1550 U10_1:10
8410 U10_1:2
7510 U10_1:3
4830 U10_1:4
4030 U10_1:5
4670 U10_1:6
5690 U10_1:7
3415 U10_1:8
335 U10_1:9
6890 U10_1:_B+1
2860 U10_2:0
7985 U10_2:1
340 U10_2:10
8405 U10_2:2
7490 U10_2:3
4810 U10_2:4
3960 U10_2:5
4595 U10_2:6
5660 U10_2:7
3405 U10_2:8
1555 U10_2:9
6440 U10_2:_B+1
6895 U10_2:_B+2
2600 U10_3:0
7975 U10_3:1
1560 U10_3:10
8400 U10_3:2
7475 U10_3:3
4785 U10_3:4
3890 U10_3:5
4520 U10_3:6
5635 U10_3:7
3395 U10_3:8
345 U10_3:9
6180 U10_3:_B+1
6445 U10_3:_B+2
6900 U10_3:_B+3
1575 U11_-1:0
4790 U11_-1:1
8670 U11_-1:10
4675 U11_-1:2
8635 U11_-1:3
4035 U11_-1:4
3680 U11_-1:5
5060 U11_-1:6
5135 U11_-1:7
6015 U11_-1:8
9345 U11_-1:9
360 U11_-1:_B-1
2190 U11_-2:0
4815 U11_-2:1
8675 U11_-2:10
4730 U11_-2:2
8640 U11_-2:3
4115 U11_-2:4
3720 U11_-2:5
5095 U11_-2:6
5175 U11_-2:7
6025 U11_-2:8
9350 U11_-2:9
1570 U11_-2:_B-1
355 U11_-2:_B-2
2605 U11_-3:0
4835 U11_-3:1
8680 U11_-3:10
4765 U11_-3:2
8645 U11_-3:3
4220 U11_-3:4
3760 U11_-3:5
5130 U11_-3:6
5220 U11_-3:7
6035 U11_-3:8
9355 U11_-3:9
2185 U11_-3:_B-1
1565 U11_-3:_B-2
350 U11_-3:_B-3
365 U11_0:0
4770 U11_0:1
8665 U11_0:10
4600 U11_0:2
8630 U11_0:3
3965 U11_0:4
3640 U11_0:5
5025 U11_0:6
5100 U11_0:7
6000 U11_0:8
9340 U11_0:9
370 U11_1:0
4735 U11_1:1
8660 U11_1:10
4525 U11_1:2
8615 U11_1:3
3895 U11_1:4
3600 U11_1:5
4990 U11_1:6
5065 U11_1:7
5985 U11_1:8
9335 U11_1:9
6905 U11_1:_B+1
375 U11_2:0
4680 U11_2:1
8655 U11_2:10
4445 U11_2:2
8960 U11_2:3
3840 U11_2:4
3565 U11_2:5
4960 U11_2:6
5030 U11_2:7
5970 U11_2:8
9330 U11_2:9
6450 U11_2:_B+1
6910 U11_2:_B+2
380 U11_3:0
4605 U11_3:1
8650 U11_3:10
4345 U11_3:2
8955 U11_3:3
3810 U11_3:4
3530 U11_3:5
4920 U11_3:6
4995 U11_3:7
5955 U11_3:8
9325 U11_3:9
6185 U11_3:_B+1
6455 U11_3:_B+2
6915 U11_3:_B+3
1590 U12_-1:0
5325 U12_-1:1
8740 U12_-1:10
8490 U12_-1:2
8195 U12_-1:3
9420 U12_-1:4
8775 U12_-1:5
9705 U12_-1:6
9610 U12_-1:8
9835 U12_-1:9
395 U12_-1:_B-1
2200 U12_-2:0
5395 U12_-2:1
8745 U12_-2:10
8495 U12_-2:2
8205 U12_-2:3
9425 U12_-2:4
8780 U12_-2:5
9710 U12_-2:6
9615 U12_-2:8
9840 U12_-2:9
1585 U12_-2:_B-1
390 U12_-2:_B-2
2610 U12_-3:0
5460 U12_-3:1
8750 U12_-3:10
8500 U12_-3:2
8215 U12_-3:3
9430 U12_-3:4
8785 U12_-3:5
9715 U12_-3:6
9620 U12_-3:8
9845 U12_-3:9
2195 U12_-3:_B-1
1580 U12_-3:_B-2
385 U12_-3:_B-3
400 U12_0:0
5275 U12_0:1
8735 U12_0:10
8485 U12_0:2
8185 U12_0:3
9415 U12_0:4
8770 U12_0:5
9700 U12_0:6
9605 U12_0:8
9830 U12_0:9
405 U12_1:0
5225 U12_1:1
8730 U12_1:10
8480 U12_1:2
8175 U12_1:3
9410 U12_1:4
8765 U12_1:5
9695 U12_1:6
9600 U12_1:8
9825 U12_1:9
6920 U12_1:_B+1
410 U12_2:0
5180 U12_2:1
8725 U12_2:10
8475 U12_2:2
8165 U12_2:3
9405 U12_2:4
8760 U12_2:5
9690 U12_2:6
9595 U12_2:8
9820 U12_2:9
6460 U12_2:_B+1
6925 U12_2:_B+2
415 U12_3:0
5140 U12_3:1
8720 U12_3:10
8470 U12_3:2
8155 U12_3:3
9400 U12_3:4
8755 U12_3:5
9685 U12_3:6
9590 U12_3:8
9815 U12_3:9
6190 U12_3:_B+1
6465 U12_3:_B+2
6930 U12_3:_B+3
2620 U13_-1:0
1605 U13_-1:1
9940 U13_-1:10
4610 U13_-1:2
4040 U13_-1:3
4870 U13_-1:4
4230 U13_-1:5
8585 U13_-1:6
8200 U13_-1:7
7865 U13_-1:8
9240 U13_-1:9
430 U13_-1:_B-1
2865 U13_-2:0
2210 U13_-2:1
9945 U13_-2:10
4685 U13_-2:2
4120 U13_-2:3
4890 U13_-2:4
4350 U13_-2:5
8595 U13_-2:6
8210 U13_-2:7
7870 U13_-2:8
9245 U13_-2:9
1600 U13_-2:_B-1
425 U13_-2:_B-2
3030 U13_-3:0
2615 U13_-3:1
9950 U13_-3:10
4740 U13_-3:2
4225 U13_-3:3
4925 U13_-3:4
4450 U13_-3:5
8605 U13_-3:6
8220 U13_-3:7
8505 U13_-3:8
9250 U13_-3:9
2205 U13_-3:_B-1
1595 U13_-3:_B-2
420 U13_-3:_B-3
2215 U13_0:0
435 U13_0:1
9935 U13_0:10
4530 U13_0:2
3970 U13_0:3
4855 U13_0:4
4125 U13_0:5
8575 U13_0:6
8190 U13_0:7
7860 U13_0:8
9235 U13_0:9
1610 U13_1:0
440 U13_1:1
9930 U13_1:10
4455 U13_1:2
3900 U13_1:3
4840 U13_1:4
4045 U13_1:5
8565 U13_1:6
8180 U13_1:7
7855 U13_1:8
9230 U13_1:9
6935 U13_1:_B+1
445 U13_2:0
1615 U13_2:1
9925 U13_2:10
4355 U13_2:2
3845 U13_2:3
4820 U13_2:4
3975 U13_2:5
8555 U13_2:6
8170 U13_2:7
7850 U13_2:8
9225 U13_2:9
6470 U13_2:_B+1
6940 U13_2:_B+2
1620 U13_3:0
450 U13_3:1
9920 U13_3:10
4235 U13_3:2
3815 U13_3:3
4795 U13_3:4
3905 U13_3:5
8545 U13_3:6
8160 U13_3:7
7845 U13_3:8
9220 U13_3:9
6195 U13_3:_B+1
6475 U13_3:_B+2
6945 U13_3:_B+3
1635 U14_-1:0
4845 U14_-1:1
7470 U14_-1:10
5785 U14_-1:2
3685 U14_-1:3
8590 U14_-1:4
7400 U14_-1:5
7830 U14_-1:6
7545 U14_-1:7
7435 U14_-1:8
3215 U14_-1:9
465 U14_-1:_B-1
2225 U14_-2:0
4860 U14_-2:1
7480 U14_-2:10
5810 U14_-2:2
3725 U14_-2:3
8600 U14_-2:4
7415 U14_-2:5
7835 U14_-2:6
7560 U14_-2:7
7440 U14_-2:8
3280 U14_-2:9
1630 U14_-2:_B-1
460 U14_-2:_B-2
2625 U14_-3:0
4875 U14_-3:1
7495 U14_-3:10
5820 U14_-3:2
3765 U14_-3:3
8610 U14_-3:4
7430 U14_-3:5
7840 U14_-3:6
7580 U14_-3:7
7445 U14_-3:8
3345 U14_-3:9
2220 U14_-3:_B-1
1625 U14_-3:_B-2
455 U14_-3:_B-3
470 U14_0:0
4825 U14_0:1
7465 U14_0:10
5755 U14_0:2
3645 U14_0:3
8580 U14_0:4
7385 U14_0:5
7825 U14_0:6
7530 U14_0:7
7420 U14_0:8
3140 U14_0:9
475 U14_1:0
4800 U14_1:1
7460 U14_1:10
5725 U14_1:2
3605 U14_1:3
8570 U14_1:4
7340 U14_1:5
7820 U14_1:6
7515 U14_1:7
7405 U14_1:8
3035 U14_1:9
6950 U14_1:_B+1
480 U14_2:0
4775 U14_2:1
7455 U14_2:10
5695 U14_2:2
3570 U14_2:3
8560 U14_2:4
7805 U14_2:5
7815 U14_2:6
7500 U14_2:7
7390 U14_2:8
2870 U14_2:9
6480 U14_2:_B+1
6955 U14_2:_B+2
485 U14_3:0
4745 U14_3:1
7450 U14_3:10
5665 U14_3:2
3535 U14_3:3
8550 U14_3:4
7800 U14_3:5
7810 U14_3:6
7485 U14_3:7
7345 U14_3:8
2630 U14_3:9
6200 U14_3:_B+1
6485 U14_3:_B+2
6960 U14_3:_B+3
3225 U15_-1:0
5910 U15_-1:1
3380 U15_-1:10
3770 U15_-1:2
1650 U15_-1:4
2240 U15_-1:6
3040 U15_-1:8
500 U15_-1:_B-1
3285 U15_-2:0
5925 U15_-2:1
3385 U15_-2:10
3785 U15_-2:2
2235 U15_-2:4
2640 U15_-2:6
3145 U15_-2:8
1645 U15_-2:_B-1
495 U15_-2:_B-2
3350 U15_-3:0
5930 U15_-3:1
3400 U15_-3:10
3790 U15_-3:2
2635 U15_-3:4
2875 U15_-3:6
3220 U15_-3:8
2230 U15_-3:_B-1
1640 U15_-3:_B-2
490 U15_-3:_B-3
3150 U15_0:0
5895 U15_0:1
3355 U15_0:10
3730 U15_0:2
505 U15_0:4
1655 U15_0:6
2880 U15_0:8
3045 U15_1:0
5880 U15_1:1
3290 U15_1:10
3690 U15_1:2
1660 U15_1:4
510 U15_1:6
2645 U15_1:8
6965 U15_1:_B+1
2885 U15_2:0
5860 U15_2:1
3230 U15_2:10
3650 U15_2:2
515 U15_2:4
1665 U15_2:6
2245 U15_2:8
6490 U15_2:_B+1
6970 U15_2:_B+2
2650 U15_3:0
5845 U15_3:1
3155 U15_3:10
3610 U15_3:2
2890 U15_3:4
520 U15_3:6
1670 U15_3:8
6205 U15_3:_B+1
6495 U15_3:_B+2
6975 U15_3:_B+3
3235 U16_-1:0
2665 U16_-1:1
7780 U16_-1:12
7735 U16_-1:16
2905 U16_-1:2
2260 U16_-1:3
9490 U16_-1:32
1685 U16_-1:4
4130 U16_-1:6
5035 U16_-1:8
535 U16_-1:_B-1
3295 U16_-2:0
2900 U16_-2:1
7790 U16_-2:12
7750 U16_-2:16
3055 U16_-2:2
2660 U16_-2:3
9495 U16_-2:32
2255 U16_-2:4
4240 U16_-2:6
5070 U16_-2:8
1680 U16_-2:_B-1
530 U16_-2:_B-2
3360 U16_-3:0
3050 U16_-3:1
7795 U16_-3:12
7765 U16_-3:16
3160 U16_-3:2
2895 U16_-3:3
9500 U16_-3:32
2655 U16_-3:4
4360 U16_-3:6
5105 U16_-3:8
2250 U16_-3:_B-1
1675 U16_-3:_B-2
525 U16_-3:_B-3
3165 U16_0:0
2265 U16_0:1
7770 U16_0:12
7720 U16_0:16
2670 U16_0:2
1690 U16_0:3
9485 U16_0:32
540 U16_0:4
4050 U16_0:6
5000 U16_0:8
3060 U16_1:0
1695 U16_1:1
7755 U16_1:12
7710 U16_1:16
2270 U16_1:2
545 U16_1:3
9480 U16_1:32
3170 U16_1:4
3980 U16_1:6
4965 U16_1:8
6980 U16_1:_B+1
2910 U16_2:0
550 U16_2:1
7740 U16_2:12
7700 U16_2:16
1700 U16_2:2
3490 U16_2:3
9475 U16_2:32
3065 U16_2:4
3910 U16_2:6
4930 U16_2:8
6500 U16_2:_B+1
6985 U16_2:_B+2
2675 U16_3:0
1705 U16_3:1
7725 U16_3:12
7695 U16_3:16
555 U16_3:2
3470 U16_3:3
9470 U16_3:32
2915 U16_3:4
3850 U16_3:6
4895 U16_3:8
6210 U16_3:_B+1
6505 U16_3:_B+2
6990 U16_3:_B+3
1720 U17_-1:0
7565 U17_-1:1
570 U17_-1:_B-1
2280 U17_-2:0
7585 U17_-2:1
1715 U17_-2:_B-1
565 U17_-2:_B-2
2680 U17_-3:0
7595 U17_-3:1
2275 U17_-3:_B-1
1710 U17_-3:_B-2
560 U17_-3:_B-3
575 U17_0:0
7550 U17_0:1
580 U17_1:0
7535 U17_1:1
6995 U17_1:_B+1
585 U17_2:0
7520 U17_2:1
6510 U17_2:_B+1
7000 U17_2:_B+2
590 U17_3:0
7505 U17_3:1
6215 U17_3:_B+1
6515 U17_3:_B+2
7005 U17_3:_B+3
1735 U18_-1:0
7650 U18_-1:1
605 U18_-1:_B-1
2290 U18_-2:0
7660 U18_-2:1
1730 U18_-2:_B-1
600 U18_-2:_B-2
2685 U18_-3:0
7670 U18_-3:1
2285 U18_-3:_B-1
1725 U18_-3:_B-2
595 U18_-3:_B-3
610 U18_0:0
7640 U18_0:1
615 U18_1:0
7635 U18_1:1
7010 U18_1:_B+1
620 U18_2:0
7620 U18_2:1
6520 U18_2:_B+1
7015 U18_2:_B+2
625 U18_3:0
7610 U18_3:1
6220 U18_3:_B+1
6525 U18_3:_B+2
7020 U18_3:_B+3
1750 U19_-1:0
4135 U19_-1:1
640 U19_-1:_B-1
2300 U19_-2:0
4245 U19_-2:1
1745 U19_-2:_B-1
635 U19_-2:_B-2
2690 U19_-3:0
4365 U19_-3:1
2295 U19_-3:_B-1
1740 U19_-3:_B-2
630 U19_-3:_B-3
645 U19_0:0
4055 U19_0:1
650 U19_1:0
3985 U19_1:1
7025 U19_1:_B+1
655 U19_2:0
3915 U19_2:1
6530 U19_2:_B+1
7030 U19_2:_B+2
660 U19_3:0
3855 U19_3:1
6225 U19_3:_B+1
6535 U19_3:_B+2
7035 U19_3:_B+3
2060 U1_-1:0
1355 U1_-1:1
9095 U1_-1:16
5340 U1_-1:2
5560 U1_-1:4
4550 U1_-1:8
10 U1_-1:_B-1
2505 U1_-2:0
2055 U1_-2:1
9100 U1_-2:16
5405 U1_-2:2
5590 U1_-2:4
4625 U1_-2:8
1350 U1_-2:_B-1
5 U1_-2:_B-2
2805 U1_-3:0
2500 U1_-3:1
9105 U1_-3:16
5470 U1_-3:2
5610 U1_-3:4
4695 U1_-3:8
2050 U1_-3:_B-1
1345 U1_-3:_B-2
0 U1_-3:_B-3
1360 U1_0:0
15 U1_0:1
9090 U1_0:16
5280 U1_0:2
5525 U1_0:4
4475 U1_0:8
20 U1_1:0
3500 U1_1:1
9085 U1_1:16
5230 U1_1:2
5475 U1_1:4
4395 U1_1:8
6750 U1_1:_B+1
25 U1_2:0
3485 U1_2:1
9080 U1_2:16
5185 U1_2:2
5410 U1_2:4
4285 U1_2:8
6345 U1_2:_B+1
6755 U1_2:_B+2
30 U1_3:0
3465 U1_3:1
9075 U1_3:16
5150 U1_3:2
5345 U1_3:4
4170 U1_3:8
6130 U1_3:_B+1
6350 U1_3:_B+2
6760 U1_3:_B+3
1765 U20_-1:0
8280 U20_-1:1
675 U20_-1:_B-1
2310 U20_-2:0
8285 U20_-2:1
1760 U20_-2:_B-1
670 U20_-2:_B-2
2695 U20_-3:0
8290 U20_-3:1
2305 U20_-3:_B-1
1755 U20_-3:_B-2
665 U20_-3:_B-3
680 U20_0:0
8275 U20_0:1
685 U20_1:0
8265 U20_1:1
7040 U20_1:_B+1
690 U20_2:0
8255 U20_2:1
6540 U20_2:_B+1
7045 U20_2:_B+2
695 U20_3:0
8245 U20_3:1
6230 U20_3:_B+1
6545 U20_3:_B+2
7050 U20_3:_B+3
1780 U21_-1:0
9020 U21_-1:1
710 U21_-1:_B-1
2320 U21_-2:0
9025 U21_-2:1
1775 U21_-2:_B-1
705 U21_-2:_B-2
2700 U21_-3:0
9030 U21_-3:1
2315 U21_-3:_B-1
1770 U21_-3:_B-2
700 U21_-3:_B-3
715 U21_0:0
9015 U21_0:1
720 U21_1:0
9005 U21_1:1
7055 U21_1:_B+1
725 U21_2:0
9680 U21_2:1
6550 U21_2:_B+1
7060 U21_2:_B+2
730 U21_3:0
9675 U21_3:1
6235 U21_3:_B+1
6555 U21_3:_B+2
7065 U21_3:_B+3
1795 U22_-1:0
4250 U22_-1:1
745 U22_-1:_B-1
2330 U22_-2:0
4370 U22_-2:1
1790 U22_-2:_B-1
740 U22_-2:_B-2
2705 U22_-3:0
4460 U22_-3:1
2325 U22_-3:_B-1
1785 U22_-3:_B-2
735 U22_-3:_B-3
750 U22_0:0
4140 U22_0:1
755 U22_1:0
4060 U22_1:1
7070 U22_1:_B+1
760 U22_2:0
3990 U22_2:1
6560 U22_2:_B+1
7075 U22_2:_B+2
765 U22_3:0
3920 U22_3:1
6240 U22_3:_B+1
6565 U22_3:_B+2
7080 U22_3:_B+3
1810 U23_-1:0
2345 U23_-1:1
780 U23_-1:_B-1
2340 U23_-2:0
2715 U23_-2:1
1805 U23_-2:_B-1
775 U23_-2:_B-2
2710 U23_-3:0
2920 U23_-3:1
2335 U23_-3:_B-1
1800 U23_-3:_B-2
770 U23_-3:_B-3
785 U23_0:0
1815 U23_0:1
3070 U23_1:0
790 U23_1:1
7085 U23_1:_B+1
2925 U23_2:0
795 U23_2:1
6570 U23_2:_B+1
7090 U23_2:_B+2
2720 U23_3:0
800 U23_3:1
6245 U23_3:_B+1
6575 U23_3:_B+2
7095 U23_3:_B+3
2360 U24_-1:0
1830 U24_-1:1
815 U24_-1:_B-1
2730 U24_-2:0
2355 U24_-2:1
1825 U24_-2:_B-1
810 U24_-2:_B-2
2930 U24_-3:0
2725 U24_-3:1
2350 U24_-3:_B-1
1820 U24_-3:_B-2
805 U24_-3:_B-3
1835 U24_0:0
820 U24_0:1
1850 U25_-1:0
8055 U25_-1:1
9795 U25_-1:2
8870 U25_-1:3
835 U25_-1:_B-1
2370 U25_-2:0
8060 U25_-2:1
9800 U25_-2:2
8875 U25_-2:3
1845 U25_-2:_B-1
830 U25_-2:_B-2
2735 U25_-3:0
8065 U25_-3:1
9805 U25_-3:2
8880 U25_-3:3
2365 U25_-3:_B-1
1840 U25_-3:_B-2
825 U25_-3:_B-3
840 U25_0:0
8050 U25_0:1
9790 U25_0:2
8865 U25_0:3
845 U25_1:0
8045 U25_1:1
9785 U25_1:2
8860 U25_1:3
7100 U25_1:_B+1
850 U25_2:0
8040 U25_2:1
9780 U25_2:2
8855 U25_2:3
6580 U25_2:_B+1
7105 U25_2:_B+2
855 U25_3:0
8035 U25_3:1
9775 U25_3:2
8850 U25_3:3
6250 U25_3:_B+1
6585 U25_3:_B+2
7110 U25_3:_B+3
1865 U26_-1:0
6255 U26_-1:2
5075 U26_-1:4
3695 U26_-1:6
870 U26_-1:_B-1
2380 U26_-2:0
6590 U26_-2:2
5110 U26_-2:4
3735 U26_-2:6
1860 U26_-2:_B-1
865 U26_-2:_B-2
2740 U26_-3:0
7115 U26_-3:2
5145 U26_-3:4
3775 U26_-3:6
2375 U26_-3:_B-1
1855 U26_-3:_B-2
860 U26_-3:_B-3
875 U26_0:0
6110 U26_0:2
5040 U26_0:4
3655 U26_0:6
880 U26_1:0
6085 U26_1:2
5005 U26_1:4
3615 U26_1:6
7120 U26_1:_B+1
885 U26_2:0
6070 U26_2:2
4970 U26_2:4
3575 U26_2:6
6595 U26_2:_B+1
7125 U26_2:_B+2
890 U26_3:0
6055 U26_3:2
4935 U26_3:4
3540 U26_3:6
6260 U26_3:_B+1
6600 U26_3:_B+2
7130 U26_3:_B+3
1880 U27_-1:0
8250 U27_-1:1
5555 U27_-1:2
905 U27_-1:_B-1
2390 U27_-2:0
8260 U27_-2:1
5585 U27_-2:2
1875 U27_-2:_B-1
900 U27_-2:_B-2
2745 U27_-3:0
8270 U27_-3:1
5605 U27_-3:2
2385 U27_-3:_B-1
1870 U27_-3:_B-2
895 U27_-3:_B-3
910 U27_0:0
8240 U27_0:1
5520 U27_0:2
915 U27_1:0
8235 U27_1:1
5465 U27_1:2
7135 U27_1:_B+1
920 U27_2:0
8230 U27_2:1
5400 U27_2:2
6605 U27_2:_B+1
7140 U27_2:_B+2
925 U27_3:0
8225 U27_3:1
5330 U27_3:2
6265 U27_3:_B+1
6610 U27_3:_B+2
7145 U27_3:_B+3
1895 U28_-1:0
8375 U28_-1:101
8315 U28_-1:102
9525 U28_-1:103
9205 U28_-1:104
8455 U28_-1:201
7760 U28_-1:202
9870 U28_-1:203
9060 U28_-1:204
8530 U28_-1:301
7680 U28_-1:303
9740 U28_-1:304
940 U28_-1:_B-1
2400 U28_-2:0
8385 U28_-2:101
8320 U28_-2:102
9530 U28_-2:103
9210 U28_-2:104
8460 U28_-2:201
7775 U28_-2:202
9875 U28_-2:203
9065 U28_-2:204
8535 U28_-2:301
7685 U28_-2:303
9745 U28_-2:304
1890 U28_-2:_B-1
935 U28_-2:_B-2
2750 U28_-3:0
8395 U28_-3:101
8325 U28_-3:102
9535 U28_-3:103
9215 U28_-3:104
8465 U28_-3:201
7785 U28_-3:202
9880 U28_-3:203
9070 U28_-3:204
8540 U28_-3:301
7690 U28_-3:303
9750 U28_-3:304
2395 U28_-3:_B-1
1885 U28_-3:_B-2
930 U28_-3:_B-3
945 U28_0:0
8365 U28_0:101
8310 U28_0:102
9520 U28_0:103
9200 U28_0:104
8450 U28_0:201
7745 U28_0:202
9865 U28_0:203
9055 U28_0:204
8525 U28_0:301
7675 U28_0:303
9735 U28_0:304
950 U28_1:0
8355 U28_1:101
8305 U28_1:102
9515 U28_1:103
9195 U28_1:104
8445 U28_1:201
7730 U28_1:202
9860 U28_1:203
9050 U28_1:204
8520 U28_1:301
7665 U28_1:303
9730 U28_1:304
7150 U28_1:_B+1
955 U28_2:0
8345 U28_2:101
8300 U28_2:102
9510 U28_2:103
9190 U28_2:104
8440 U28_2:201
7715 U28_2:202
9855 U28_2:203
9045 U28_2:204
8515 U28_2:301
7655 U28_2:303
9725 U28_2:304
6615 U28_2:_B+1
7155 U28_2:_B+2
960 U28_3:0
8335 U28_3:101
8295 U28_3:102
9505 U28_3:103
9185 U28_3:104
8435 U28_3:201
7705 U28_3:202
9850 U28_3:203
9040 U28_3:204
8510 U28_3:301
7645 U28_3:303
9720 U28_3:304
6270 U28_3:_B+1
6620 U28_3:_B+2
7160 U28_3:_B+3
1910 U29_-1:1
3700 U29_-1:2
3450 U29_-1:3
3240 U29_-1:4
975 U29_-1:_B-1
2410 U29_-2:1
3740 U29_-2:2
3460 U29_-2:3
3300 U29_-2:4
1905 U29_-2:_B-1
970 U29_-2:_B-2
2755 U29_-3:1
3780 U29_-3:2
3475 U29_-3:3
3365 U29_-3:4
2405 U29_-3:_B-1
1900 U29_-3:_B-2
965 U29_-3:_B-3
980 U29_0:1
3660 U29_0:2
3440 U29_0:3
3175 U29_0:4
985 U29_1:1
3620 U29_1:2
3430 U29_1:3
3075 U29_1:4
7165 U29_1:_B+1
990 U29_2:1
3580 U29_2:2
3420 U29_2:3
2935 U29_2:4
6625 U29_2:_B+1
7170 U29_2:_B+2
995 U29_3:1
3545 U29_3:2
3410 U29_3:3
2760 U29_3:4
6275 U29_3:_B+1
6630 U29_3:_B+2
7175 U29_3:_B+3
3195 U2_-1:0
2520 U2_-1:1
4555 U2_-1:128
5350 U2_-1:16
2075 U2_-1:2
5485 U2_-1:32
1375 U2_-1:4
5570 U2_-1:64
5010 U2_-1:8
45 U2_-1:_B-1
3260 U2_-2:0
2815 U2_-2:1
4630 U2_-2:128
5415 U2_-2:16
2515 U2_-2:2
5530 U2_-2:32
2070 U2_-2:4
5595 U2_-2:64
5045 U2_-2:8
1370 U2_-2:_B-1
40 U2_-2:_B-2
3325 U2_-3:0
2980 U2_-3:1
4700 U2_-3:128
5480 U2_-3:16
2810 U2_-3:2
5565 U2_-3:32
2510 U2_-3:4
5615 U2_-3:64
5080 U2_-3:8
2065 U2_-3:_B-1
1365 U2_-3:_B-2
35 U2_-3:_B-3
3100 U2_0:0
2080 U2_0:1
4480 U2_0:128
5285 U2_0:16
1380 U2_0:2
5420 U2_0:32
50 U2_0:4
5535 U2_0:64
4975 U2_0:8
2985 U2_1:0
1385 U2_1:1
4400 U2_1:128
5235 U2_1:16
55 U2_1:2
5355 U2_1:32
3105 U2_1:4
5490 U2_1:64
4945 U2_1:8
6765 U2_1:_B+1
2820 U2_2:0
60 U2_2:1
4290 U2_2:128
5190 U2_2:16
1390 U2_2:2
5290 U2_2:32
2990 U2_2:4
5425 U2_2:64
4900 U2_2:8
6355 U2_2:_B+1
6770 U2_2:_B+2
2525 U2_3:0
1395 U2_3:1
4175 U2_3:128
5155 U2_3:16
65 U2_3:2
5240 U2_3:32
2825 U2_3:4
5360 U2_3:64
4880 U2_3:8
6135 U2_3:_B+1
6360 U2_3:_B+2
6775 U2_3:_B+3
3305 U30:0
1000 U30:1
1925 U31_-1:0
9290 U31_-1:1
9170 U31_-1:2
7950 U31_-1:3
4145 U31_-1:4
1015 U31_-1:_B-1
2420 U31_-2:0
9300 U31_-2:1
9175 U31_-2:2
7955 U31_-2:3
4255 U31_-2:4
1920 U31_-2:_B-1
1010 U31_-2:_B-2
2765 U31_-3:0
9310 U31_-3:1
9180 U31_-3:2
7960 U31_-3:3
4375 U31_-3:4
2415 U31_-3:_B-1
1915 U31_-3:_B-2
1005 U31_-3:_B-3
1020 U31_0:0
9280 U31_0:1
9145 U31_0:2
7945 U31_0:3
4065 U31_0:4
1025 U31_1:0
9270 U31_1:1
9150 U31_1:2
7940 U31_1:3
3995 U31_1:4
7180 U31_1:_B+1
1030 U31_2:0
9260 U31_2:1
9155 U31_2:2
7935 U31_2:3
3925 U31_2:4
6635 U31_2:_B+1
7185 U31_2:_B+2
1035 U31_3:0
9255 U31_3:1
9160 U31_3:2
7925 U31_3:3
3860 U31_3:4
6280 U31_3:_B+1
6640 U31_3:_B+2
7190 U31_3:_B+3
2435 U32_-1:0
9305 U32_-1:1
7395 U32_-1:2
7915 U32_-1:3
1940 U32_-1:4
1050 U32_-1:_B-1
2775 U32_-2:0
9315 U32_-2:1
7410 U32_-2:2
7920 U32_-2:3
2430 U32_-2:4
1935 U32_-2:_B-1
1045 U32_-2:_B-2
2940 U32_-3:0
9320 U32_-3:1
7425 U32_-3:2
7930 U32_-3:3
2770 U32_-3:4
2425 U32_-3:_B-1
1930 U32_-3:_B-2
1040 U32_-3:_B-3
1945 U32_0:0
9295 U32_0:1
7350 U32_0:2
7875 U32_0:3
1055 U32_0:4
1060 U32_1:0
9285 U32_1:1
7355 U32_1:2
7880 U32_1:3
4000 U32_1:4
7195 U32_1:_B+1
1065 U32_2:0
9275 U32_2:1
7360 U32_2:2
7885 U32_2:3
3930 U32_2:4
6645 U32_2:_B+1
7200 U32_2:_B+2
1070 U32_3:0
9265 U32_3:1
7365 U32_3:2
7890 U32_3:3
3865 U32_3:4
6285 U32_3:_B+1
6650 U32_3:_B+2
7205 U32_3:_B+3
1100 U38:0
3390 U38:1
6045 U38:10
3510 U38:2
3795 U38:3
4535 U38:4
4940 U38:5
5335 U38:6
5760 U38:7
5865 U38:8
5935 U38:9
3200 U3_-1:0
8705 U3_-1:1
1410 U3_-1:10
6140 U3_-1:2
4640 U3_-1:3
5435 U3_-1:4
5295 U3_-1:5
4485 U3_-1:6
2830 U3_-1:7
5885 U3_-1:8
4085 U3_-1:9
80 U3_-1:_B-1
3265 U3_-2:0
8710 U3_-2:1
2090 U3_-2:10
6365 U3_-2:2
4705 U3_-2:3
5495 U3_-2:4
5365 U3_-2:5
4560 U3_-2:6
2995 U3_-2:7
5900 U3_-2:8
4180 U3_-2:9
1405 U3_-2:_B-1
75 U3_-2:_B-2
3330 U3_-3:0
8715 U3_-3:1
2530 U3_-3:10
6780 U3_-3:2
4750 U3_-3:3
5540 U3_-3:4
5430 U3_-3:5
4635 U3_-3:6
3110 U3_-3:7
5915 U3_-3:8
4295 U3_-3:9
2085 U3_-3:_B-1
1400 U3_-3:_B-2
70 U3_-3:_B-3
3115 U3_0:0
8700 U3_0:1
85 U3_0:10
6105 U3_0:2
4565 U3_0:3
5370 U3_0:4
5245 U3_0:5
4405 U3_0:6
2535 U3_0:7
5870 U3_0:8
4020 U3_0:9
3000 U3_1:0
8695 U3_1:1
90 U3_1:10
6080 U3_1:2
4490 U3_1:3
5300 U3_1:4
5195 U3_1:5
4300 U3_1:6
2095 U3_1:7
5850 U3_1:8
3950 U3_1:9
6785 U3_1:_B+1
2835 U3_2:0
8690 U3_2:1
95 U3_2:10
6065 U3_2:2
4410 U3_2:3
5250 U3_2:4
5160 U3_2:5
4185 U3_2:6
1415 U3_2:7
5835 U3_2:8
3880 U3_2:9
6370 U3_2:_B+1
6790 U3_2:_B+2
2540 U3_3:0
8685 U3_3:1
1420 U3_3:10
6050 U3_3:2
4305 U3_3:3
5200 U3_3:4
5115 U3_3:5
4090 U3_3:6
100 U3_3:7
5825 U3_3:8
3830 U3_3:9
6145 U3_3:_B+1
6375 U3_3:_B+2
6795 U3_3:_B+3
1435 U4_-1:0
3665 U4_-1:1
5730 U4_-1:16
5500 U4_-1:2
5050 U4_-1:4
4570 U4_-1:8
115 U4_-1:_B-1
2105 U4_-2:0
3705 U4_-2:1
5765 U4_-2:16
5545 U4_-2:2
5085 U4_-2:4
4645 U4_-2:8
1430 U4_-2:_B-1
110 U4_-2:_B-2
2545 U4_-3:0
3745 U4_-3:1
5790 U4_-3:16
5575 U4_-3:2
5120 U4_-3:4
4710 U4_-3:8
2100 U4_-3:_B-1
1425 U4_-3:_B-2
105 U4_-3:_B-3
120 U4_0:0
3625 U4_0:1
5700 U4_0:16
5440 U4_0:2
5015 U4_0:4
4495 U4_0:8
125 U4_1:0
3585 U4_1:1
5670 U4_1:16
5375 U4_1:2
4980 U4_1:4
4415 U4_1:8
6800 U4_1:_B+1
130 U4_2:0
3550 U4_2:1
5640 U4_2:16
5305 U4_2:2
4950 U4_2:4
4310 U4_2:8
6380 U4_2:_B+1
6805 U4_2:_B+2
135 U4_3:0
3515 U4_3:1
5620 U4_3:16
5255 U4_3:2
4905 U4_3:4
4190 U4_3:8
6150 U4_3:_B+1
6385 U4_3:_B+2
6810 U4_3:_B+3
1450 U5_-1:0
4095 U5_-1:1
5055 U5_-1:10
5380 U5_-1:2
4650 U5_-1:3
8105 U5_-1:4
3670 U5_-1:5
5770 U5_-1:6
6020 U5_-1:7
8370 U5_-1:8
150 U5_-1:_B-1
2115 U5_-2:0
4195 U5_-2:1
5090 U5_-2:10
5445 U5_-2:2
4715 U5_-2:3
8115 U5_-2:4
3710 U5_-2:5
5795 U5_-2:6
6030 U5_-2:7
8380 U5_-2:8
1445 U5_-2:_B-1
145 U5_-2:_B-2
2550 U5_-3:0
4315 U5_-3:1
5125 U5_-3:10
5505 U5_-3:2
4755 U5_-3:3
8125 U5_-3:4
3750 U5_-3:5
5815 U5_-3:6
6040 U5_-3:7
8390 U5_-3:8
2110 U5_-3:_B-1
1440 U5_-3:_B-2
140 U5_-3:_B-3
155 U5_0:0
4025 U5_0:1
5020 U5_0:10
5310 U5_0:2
4575 U5_0:3
8095 U5_0:4
3630 U5_0:5
5735 U5_0:6
6005 U5_0:7
8360 U5_0:8
160 U5_1:0
3955 U5_1:1
4985 U5_1:10
5260 U5_1:2
4500 U5_1:3
8085 U5_1:4
3590 U5_1:5
5705 U5_1:6
5990 U5_1:7
8350 U5_1:8
6815 U5_1:_B+1
165 U5_2:0
3885 U5_2:1
4955 U5_2:10
5205 U5_2:2
4420 U5_2:3
8075 U5_2:4
3555 U5_2:5
5675 U5_2:6
5975 U5_2:7
8340 U5_2:8
6390 U5_2:_B+1
6820 U5_2:_B+2
170 U5_3:0
3835 U5_3:1
4910 U5_3:10
5165 U5_3:2
4320 U5_3:3
8070 U5_3:4
3520 U5_3:5
5645 U5_3:6
5960 U5_3:7
8330 U5_3:8
6155 U5_3:_B+1
6395 U5_3:_B+2
6825 U5_3:_B+3
1465 U6_-1:0
5745 U6_-1:1
5680 U6_-1:2
9655 U6_-1:4
185 U6_-1:_B-1
2125 U6_-2:0
5775 U6_-2:1
5710 U6_-2:2
9660 U6_-2:4
1460 U6_-2:_B-1
180 U6_-2:_B-2
2555 U6_-3:0
5800 U6_-3:1
5740 U6_-3:2
9670 U6_-3:4
2120 U6_-3:_B-1
1455 U6_-3:_B-2
175 U6_-3:_B-3
190 U6_0:0
5715 U6_0:1
5650 U6_0:2
9650 U6_0:4
195 U6_1:0
5685 U6_1:1
5625 U6_1:2
9645 U6_1:4
6830 U6_1:_B+1
200 U6_2:0
5655 U6_2:1
5600 U6_2:2
9640 U6_2:4
6400 U6_2:_B+1
6835 U6_2:_B+2
205 U6_3:0
5630 U6_3:1
5580 U6_3:2
9665 U6_3:4
6160 U6_3:_B+1
6405 U6_3:_B+2
6840 U6_3:_B+3
1480 U7_-1:0
8120 U7_-1:1
8935 U7_-1:10
8990 U7_-1:2
9570 U7_-1:3
9380 U7_-1:5
8920 U7_-1:7
220 U7_-1:_B-1
2135 U7_-2:0
8130 U7_-2:1
8945 U7_-2:10
8995 U7_-2:2
9575 U7_-2:3
9385 U7_-2:5
8930 U7_-2:7
1475 U7_-2:_B-1
215 U7_-2:_B-2
2560 U7_-3:0
8135 U7_-3:1
8950 U7_-3:10
9000 U7_-3:2
9580 U7_-3:3
9390 U7_-3:5
8940 U7_-3:7
2130 U7_-3:_B-1
1470 U7_-3:_B-2
210 U7_-3:_B-3
225 U7_0:0
8110 U7_0:1
8925 U7_0:10
8985 U7_0:2
9565 U7_0:3
9375 U7_0:5
8910 U7_0:7
230 U7_1:0
8100 U7_1:1
8915 U7_1:10
8980 U7_1:2
9560 U7_1:3
9370 U7_1:5
8900 U7_1:7
6845 U7_1:_B+1
235 U7_2:0
8090 U7_2:1
8905 U7_2:10
8975 U7_2:2
9555 U7_2:3
9365 U7_2:5
8890 U7_2:7
6410 U7_2:_B+1
6850 U7_2:_B+2
240 U7_3:0
8080 U7_3:1
8895 U7_3:10
8970 U7_3:2
9550 U7_3:3
9360 U7_3:5
8885 U7_3:7
6165 U7_3:_B+1
6415 U7_3:_B+2
6855 U7_3:_B+3
1495 U8_-1:0
2840 U8_-1:1
5980 U8_-1:16
4505 U8_-1:2
4585 U8_-1:4
5450 U8_-1:8
255 U8_-1:_B-1
2145 U8_-2:0
3005 U8_-2:1
5995 U8_-2:16
4580 U8_-2:2
4660 U8_-2:4
5510 U8_-2:8
1490 U8_-2:_B-1
250 U8_-2:_B-2
2565 U8_-3:0
3120 U8_-3:1
6010 U8_-3:16
4655 U8_-3:2
4720 U8_-3:4
5550 U8_-3:8
2140 U8_-3:_B-1
1485 U8_-3:_B-2
245 U8_-3:_B-3
260 U8_0:0
2570 U8_0:1
5965 U8_0:16
4425 U8_0:2
4510 U8_0:4
5385 U8_0:8
265 U8_1:0
2150 U8_1:1
5950 U8_1:16
4325 U8_1:2
4430 U8_1:4
5315 U8_1:8
6860 U8_1:_B+1
270 U8_2:0
1500 U8_2:1
5945 U8_2:16
4200 U8_2:2
4330 U8_2:4
5265 U8_2:8
6420 U8_2:_B+1
6865 U8_2:_B+2
1505 U8_3:0
275 U8_3:1
5940 U8_3:16
4100 U8_3:2
4205 U8_3:4
5210 U8_3:8
6170 U8_3:_B+1
6425 U8_3:_B+2
6870 U8_3:_B+3
1520 U9_-1:0
5390 U9_-1:1
3205 U9_-1:10
5890 U9_-1:2
2845 U9_-1:3
4515 U9_-1:4
3675 U9_-1:5
8000 U9_-1:6
9130 U9_-1:7
9455 U9_-1:8
9905 U9_-1:9
290 U9_-1:_B-1
2160 U9_-2:0
5455 U9_-2:1
3270 U9_-2:10
5905 U9_-2:2
3010 U9_-2:3
4590 U9_-2:4
3715 U9_-2:5
8010 U9_-2:6
9135 U9_-2:7
9460 U9_-2:8
9910 U9_-2:9
1515 U9_-2:_B-1
285 U9_-2:_B-2
2575 U9_-3:0
5515 U9_-3:1
3335 U9_-3:10
5920 U9_-3:2
3125 U9_-3:3
4665 U9_-3:4
3755 U9_-3:5
8020 U9_-3:6
9140 U9_-3:7
9465 U9_-3:8
9915 U9_-3:9
2155 U9_-3:_B-1
1510 U9_-3:_B-2
280 U9_-3:_B-3
295 U9_0:0
5320 U9_0:1
3130 U9_0:10
5875 U9_0:2
2580 U9_0:3
4435 U9_0:4
3635 U9_0:5
7990 U9_0:6
9125 U9_0:7
9450 U9_0:8
9900 U9_0:9
300 U9_1:0
5270 U9_1:1
3015 U9_1:10
5855 U9_1:2
2165 U9_1:3
4335 U9_1:4
3595 U9_1:5
7980 U9_1:6
9120 U9_1:7
9445 U9_1:8
9895 U9_1:9
6875 U9_1:_B+1
305 U9_2:0
5215 U9_2:1
2850 U9_2:10
5840 U9_2:2
1525 U9_2:3
4210 U9_2:4
3560 U9_2:5
7970 U9_2:6
9115 U9_2:7
9440 U9_2:8
9890 U9_2:9
6430 U9_2:_B+1
6880 U9_2:_B+2
1530 U9_3:0
5170 U9_3:1
2585 U9_3:10
5830 U9_3:2
310 U9_3:3
4105 U9_3:4
3525 U9_3:5
7965 U9_3:6
9110 U9_3:7
9435 U9_3:8
9885 U9_3:9
6175 U9_3:_B+1
6435 U9_3:_B+2
6885 U9_3:_B+3
1955 Udist_39_-1:0
3245 Udist_39_-1:1
1110 Udist_39_-1:_B-1
2440 Udist_39_-2:0
3310 Udist_39_-2:1
1950 Udist_39_-2:_B-1
1105 Udist_39_-2:_B-2
1115 Udist_39_0:0
3180 Udist_39_0:1
1120 Udist_39_1:0
3080 Udist_39_1:1
7210 Udist_39_1:_B+1
1125 Udist_39_2:0
2945 Udist_39_2:1
6655 Udist_39_2:_B+1
7215 Udist_39_2:_B+2
1130 Udist_39_3:0
2780 Udist_39_3:1
6290 Udist_39_3:_B+1
6660 Udist_39_3:_B+2
7220 Udist_39_3:_B+3
1965 Udist_40_-1:0
2450 Udist_40_-1:1
1140 Udist_40_-1:_B-1
2445 Udist_40_-2:0
2785 Udist_40_-2:1
1960 Udist_40_-2:_B-1
1135 Udist_40_-2:_B-2
1145 Udist_40_0:0
1970 Udist_40_0:1
3505 Udist_40_1:0
1150 Udist_40_1:1
7225 Udist_40_1:_B+1
3495 Udist_40_2:0
1155 Udist_40_2:1
6665 Udist_40_2:_B+1
7230 Udist_40_2:_B+2
3480 Udist_40_3:0
1160 Udist_40_3:1
6295 Udist_40_3:_B+1
6670 Udist_40_3:_B+2
7235 Udist_40_3:_B+3
4150 Udist_41_-1:0
3315 Udist_41_-1:1
1980 Udist_41_-1:2
1170 Udist_41_-1:_B-1
4260 Udist_41_-2:0
3370 Udist_41_-2:1
2455 Udist_41_-2:2
1975 Udist_41_-2:_B-1
1165 Udist_41_-2:_B-2
4070 Udist_41_0:0
3250 Udist_41_0:1
1175 Udist_41_0:2
4005 Udist_41_1:0
3185 Udist_41_1:1
1180 Udist_41_1:2
7240 Udist_41_1:_B+1
3935 Udist_41_2:0
3085 Udist_41_2:1
1185 Udist_41_2:2
6675 Udist_41_2:_B+1
7245 Udist_41_2:_B+2
3870 Udist_41_3:0
2950 Udist_41_3:1
1190 Udist_41_3:2
6300 Udist_41_3:_B+1
6680 Udist_41_3:_B+2
7250 Udist_41_3:_B+3
2790 Udist_42_-1:0
7255 Udist_42_-1:1
1990 Udist_42_-1:2
1200 Udist_42_-1:_B-1
2955 Udist_42_-2:0
7625 Udist_42_-2:1
2460 Udist_42_-2:2
1985 Udist_42_-2:_B-1
1195 Udist_42_-2:_B-2
2465 Udist_42_0:0
6685 Udist_42_0:1
1205 Udist_42_0:2
1995 Udist_42_1:0
6305 Udist_42_1:1
1210 Udist_42_1:2
7260 Udist_42_1:_B+1
1215 Udist_42_2:0
6115 Udist_42_2:1
3820 Udist_42_2:2
6690 Udist_42_2:_B+1
7265 Udist_42_2:_B+2
1220 Udist_42_3:0
6090 Udist_42_3:1
3800 Udist_42_3:2
6310 Udist_42_3:_B+1
6695 Udist_42_3:_B+2
7270 Udist_42_3:_B+3
8810 Udist_43_-1:0/0
8840 Udist_43_-1:0/1
4155 Udist_43_-1:0/2
3320 Udist_43_-1:1/0
7275 Udist_43_-1:1/1
4540 Udist_43_-1:1/2
2795 Udist_43_-1:2/0
7615 Udist_43_-1:2/1
2005 Udist_43_-1:2/2
1230 Udist_43_-1:_B-1/_B-1
8815 Udist_43_-2:0/0
8845 Udist_43_-2:0/1
4265 Udist_43_-2:0/2
3375 Udist_43_-2:1/0
9395 Udist_43_-2:1/1
4615 Udist_43_-2:1/2
2960 Udist_43_-2:2/0
7630 Udist_43_-2:2/1
2470 Udist_43_-2:2/2
2000 Udist_43_-2:_B-1/_B-1
1225 Udist_43_-2:_B-2/_B-2
8805 Udist_43_0:0/0
8835 Udist_43_0:0/1
4075 Udist_43_0:0/2
3255 Udist_43_0:1/0
6700 Udist_43_0:1/1
4465 Udist_43_0:1/2
2475 Udist_43_0:2/0
7605 Udist_43_0:2/1
1235 Udist_43_0:2/2
8800 Udist_43_1:0/0
8830 Udist_43_1:0/1
4010 Udist_43_1:0/2
3190 Udist_43_1:1/0
6315 Udist_43_1:1/1
4380 Udist_43_1:1/2
2010 Udist_43_1:2/0
7600 Udist_43_1:2/1
1240 Udist_43_1:2/2
7280 Udist_43_1:_B+1/_B+1
8795 Udist_43_2:0/0
8825 Udist_43_2:0/1
3940 Udist_43_2:0/2
3090 Udist_43_2:1/0
6120 Udist_43_2:1/1
4270 Udist_43_2:1/2
1245 Udist_43_2:2/0
7590 Udist_43_2:2/1
3825 Udist_43_2:2/2
6705 Udist_43_2:_B+1/_B+1
7285 Udist_43_2:_B+2/_B+2
8790 Udist_43_3:0/0
8820 Udist_43_3:0/1
3875 Udist_43_3:0/2
2965 Udist_43_3:1/0
6095 Udist_43_3:1/1
4160 Udist_43_3:1/2
1250 Udist_43_3:2/0
7570 Udist_43_3:2/1
3805 Udist_43_3:2/2
6320 Udist_43_3:_B+1/_B+1
6710 Udist_43_3:_B+2/_B+2
7290 Udist_43_3:_B+3/_B+3
2020 Udist_44_-1:0
4275 Udist_44_-1:1
4620 Udist_44_-1:2
1260 Udist_44_-1:_B-1
2480 Udist_44_-2:0
4385 Udist_44_-2:1
4690 Udist_44_-2:2
2015 Udist_44_-2:_B-1
1255 Udist_44_-2:_B-2
1265 Udist_44_0:0
4165 Udist_44_0:1
4545 Udist_44_0:2
1270 Udist_44_1:0
4080 Udist_44_1:1
4470 Udist_44_1:2
7295 Udist_44_1:_B+1
1275 Udist_44_2:0
4015 Udist_44_2:1
4390 Udist_44_2:2
6715 Udist_44_2:_B+1
7300 Udist_44_2:_B+2
1280 Udist_44_3:0
3945 Udist_44_3:1
4280 Udist_44_3:2
6325 Udist_44_3:_B+1
6720 Udist_44_3:_B+2
7305 Udist_44_3:_B+3
2030 Udist_45_-1:0
2800 Udist_45_-1:2
1290 Udist_45_-1:_B-1
2485 Udist_45_-2:0
2970 Udist_45_-2:2
2025 Udist_45_-2:_B-1
1285 Udist_45_-2:_B-2
1295 Udist_45_0:0
2490 Udist_45_0:2
1300 Udist_45_1:0
2035 Udist_45_1:2
7310 Udist_45_1:_B+1
3095 Udist_45_2:0
1305 Udist_45_2:2
6725 Udist_45_2:_B+1
7315 Udist_45_2:_B+2
2975 Udist_45_3:0
1310 Udist_45_3:2
6330 Udist_45_3:_B+1
6730 Udist_45_3:_B+2
7320 Udist_45_3:_B+3
2045 Udist_46_-1:0
6335 Udist_46_-1:2
1320 Udist_46_-1:_B-1
2495 Udist_46_-2:0
6735 Udist_46_-2:2
2040 Udist_46_-2:_B-1
1315 Udist_46_-2:_B-2
1325 Udist_46_0:0
6125 Udist_46_0:2
1330 Udist_46_1:0
6100 Udist_46_1:2
7325 Udist_46_1:_B+1
1335 Udist_46_2:0
6075 Udist_46_2:2
6740 Udist_46_2:_B+1
7330 Udist_46_2:_B+2
1340 Udist_46_3:0
6060 Udist_46_3:2
6340 Udist_46_3:_B+1
6745 Udist_46_3:_B+2
7335 Udist_46_3:_B+3
8140 Uglobal_33:1024
9630 Uglobal_33:128
1075 Uglobal_33:2048
7895 Uglobal_33:256
9755 Uglobal_33:32
7370 Uglobal_33:512
9810 Uglobal_33:64
9760 Uglobal_34:1
1080 Uglobal_34:128
9625 Uglobal_34:16
8620 Uglobal_34:256
7900 Uglobal_34:32
9545 Uglobal_34:512
9010 Uglobal_34:64
7375 Uglobal_34:8
8145 Uglobal_35:128
9765 Uglobal_35:16
8625 Uglobal_35:256
9585 Uglobal_35:32
9035 Uglobal_35:512
1085 Uglobal_35:64
9540 Uglobal_35:8
8965 Uglobal_36:0
9770 Uglobal_36:1
9165 Uglobal_36:2
7905 Uglobal_36:3
1090 Uglobal_36:4
8150 Uglobal_37:0
9635 Uglobal_37:1
7380 Uglobal_37:2
7910 Uglobal_37:3
1095 Uglobal_37:4

-0.0032500981418656
0.0179169764433441
-0.0074722762878925
0.0470845765814507
-0.0542791785948044
-0.0032500981418656
0.0179169764433441
-0.0074722762878925
0.0470845765814507
-0.0542791785948044
-0.0032500981418656
0.0179169764433441
-0.0074722762878925
0.0470845765814507
-0.0542791785948044
0.1466504763473680
0.3291267447247634
-0.2287493823165138
-0.1144099639612150
-0.1326178748710418
-0.2472648015484387
-0.1932164743058971
0.8177200983950264
-0.1937000113330681
-0.1835388128974271
-0.3190527527636730
0.4139056229202548
0.3196204301576878
-0.0216974493845092
-0.3927758526162900
-0.0357252358496458
-0.2859441609364554
0.1958535732621888
0.2946305068816401
-0.1688146850414282
-0.0032500981418656
0.0179169764433441
-0.0074722762878925
0.0470845765814507
-0.0542791785948044
-0.0032500981418656
0.0179169764433441
-0.0074722762878925
0.0470845765814507
-0.0542791785948044
-0.0032500981418656
0.0179169764433441
-0.0074722762878925
0.0470845765814507
-0.0542791785948044
-0.7145928641732002
1.5863623108227880
-0.1032821764874136
0.6361746027921631
-1.4046618731738576
-0.2972224664824448
-0.3066254936307810
-0.1173287051019102
0.5140178423796533
0.2071588223998833
-0.1342293506604300
-0.2271067565236857
-0.1578174069319350
0.3567036065185014
0.1624499071413485
0.1882763688631992
-0.6053082877824942
0.1296180455943406
0.3499080919264002
-0.0624942190380844
-0.0032500981418656
0.0179169764433441
-0.0074722762878925
0.0470845765814507
-0.0542791785948044
-0.0032500981418656
0.0179169764433441
-0.0074722762878925
0.0470845765814507
-0.0542791785948044
-0.0032500981418656
0.0179169764433441
-0.0074722762878925
0.0470845765814507
-0.0542791785948044
-0.3582425006019271
0.2707731024730701
-0.5279999490972416
-0.1196600747996901
0.7351294209885975
0.2118810637326842
0.2460454669238768
-0.0292131220522645
-0.5930389964038192
0.1643255867630625
-0.1898458169893864
-0.0340572011457417
0.0655689010358853
-0.1719166389747197
0.3302507550431755
0.2105717095700761
0.0329818921492652
-0.1375480717216885
0.2558351283310656
-0.3618406584088776
-0.0032500981418656
0.0179169764433441
-0.0074722762878925
0.0470845765814507
-0.0542791785948044
-0.0032500981418656
0.0179169764433441
-0.0074722762878925
0.0470845765814507
-0.0542791785948044
-0.0032500981418656
0.0179169764433441
-0.0074722762878925
0.0470845765814507
-0.0542791785948044
0.5808449799525452
-0.2519430008170884
-0.4475495141330786
0.1034664961740388
0.0151810375121076
-0.2074980569665534
-0.1383021926681202
-0.0540505005365879
0.0343490214151229
0.3655017274486780
0.2659989278224656
-0.2864888926412277
-0.0296135862278120
0.0559854185735542
-0.0058818688299116
-0.2677280259870327
0.2595974495635985
-0.2578194296980925
-0.1976877460492630
0.4636377508735560
-0.0032500981418656
0.0179169764433441
-0.0074722762878925
0.0470845765814507
-0.0542791785948044
-0.0032500981418656
0.0179169764433441
-0.0074722762878925
0.0470845765814507
-0.0542791785948044
-0.0032500981418656
0.0179169764433441
-0.0074722762878925
0.0470845765814507
-0.0542791785948044
0.4869849480081451
-0.7389863178890027
-0.5528495759576754
0.5932735717614913
0.2115773727168752
0.3566049634506646
-0.0291711736593829
-0.4717463863486926
0.1948545180282241
-0.0505419228268592
-0.0273376077297822
-0.0604361697661083
-0.2237301860472747
-0.1456308992638981
0.4571348614547110
0.0704503584277589
0.0411081810947639
-0.4274825687229474
0.1319437903524352
0.1839802375016560
-0.0032500981418656
0.0179169764433441
-0.0074722762878925
0.0470845765814507
-0.0542791785948044
-0.0032500981418656
0.0179169764433441
-0.0074722762878925
0.0470845765814507
-0.0542791785948044
-0.0032500981418656
0.0179169764433441
-0.0074722762878925
0.0470845765814507
-0.0542791785948044
0.2131118411413208
-0.1609528939582410
0.4743268877775593
-0.3367608562289720
-0.1897249803844148
0.1107465191282750
-0.1238120249248027
-0.0006270717529870
-0.2677441835939371
0.2814367594947498
-0.1819505779215792
0.2770022315015180
0.1394729018674715
0.2714848269067093
-0.5060093839977194
-0.1829754900582632
0.0399927048081396
0.4027073228010906
-0.1681569312486885
-0.0915676079404453
-0.0032500981418656
0.0179169764433441
-0.0074722762878925
0.0470845765814507
-0.0542791785948044
-0.0032500981418656
0.0179169764433441
-0.0074722762878925
0.0470845765814507
-0.0542791785948044
-0.0032500981418656
0.0179169764433441
-0.0074722762878925
0.0470845765814507
-0.0542791785948044
-0.4799955886913997
-0.7420118475479390
-0.5829961021380734
1.4309412355710596
0.3740623011515806
0.0143823639924177
-0.8800398955592890
0.3911871873816349
0.5076310012741442
-0.0331606587396224
0.1094909852579774
-0.5198174908354042
0.2762231296306495
0.4065478557381172
-0.2724444814367773
0.2691359994790399
-0.2419548679301074
-0.0679101205153076
0.0202810448217614
0.0204479425049082
-0.0032500981418656
0.0179169764433441
-0.0074722762878925
0.0470845765814507
-0.0542791785948044
-0.0032500981418656
0.0179169764433441
-0.0074722762878925
0.0470845765814507
-0.0542791785948044
-0.0032500981418656
0.0179169764433441
-0.0074722762878925
0.0470845765814507
-0.0542791785948044
0.4103092724528863
0.7988456087974125
-0.0338629092569861
-0.6307298483706394
-0.5445621249634282
0.3853775030210758
-0.4256833833428988
-0.2912671511404052
0.0351794077455894
0.2963936223790193
0.3318391214895935
-0.2293386511217092
-0.1910727354733172
-0.2466270948866321
0.3351993586578017
-0.0782362902619300
0.1646573469669560
0.0180344294925775
0.1236271298298310
-0.2280826166255825
-0.0032500981418656
0.0179169764433441
-0.0074722762878925
0.0470845765814507
-0.0542791785948044
-0.0032500981418656
0.0179169764433441
-0.0074722762878925
0.0470845765814507
-0.0542791785948044
-0.0032500981418656
0.0179169764433441
-0.0074722762878925
0.0470845765814507
-0.0542791785948044
0.0658858278695400
-0.1289775292728355
0.3961118495643287
0.0578995661127229
-0.3909197155951969
-0.0321628606060034
-0.0768615619865476
0.1358749440698512
0.2169447530076707
-0.2437952758045935
0.2381544953288736
-0.0259266658802829
-0.0766794563111860
0.0829266724609179
-0.2184750469114702
-0.2460758227717282
-0.1771314037863021
0.3588429013898095
-0.4930066798408989
0.5573710049309955
-0.0032500981418656
0.0179169764433441
-0.0074722762878925
0.0470845765814507
-0.0542791785948044
-0.0032500981418656
0.0179169764433441
-0.0074722762878925
0.0470845765814507
-0.0542791785948044
-0.0032500981418656
0.0179169764433441
-0.0074722762878925
0.0470845765814507
-0.0542791785948044
-0.2018365238281783
-0.1790471342719039
0.3390958065503958
-0.2405783696266286
0.2823662207273409
-0.0175292348391464
0.2404157661647703
-0.1910130327402265
-0.0138731013926296
-0.0180003976394868
-0.1203774999071311
-0.1066785994587507
0.2567359851253200
0.2533294198663668
-0.2830093060010250
-0.1635823325065848
-0.2502947421394912
0.2224566766277969
0.1986281804727968
-0.0072077828971237
-0.0032500981418656
0.0179169764433441
-0.0074722762878925
0.0470845765814507
-0.0542791785948044
-0.0032500981418656
0.0179169764433441
-0.0074722762878925
0.0470845765814507
-0.0542791785948044
-0.0032500981418656
0.0179169764433441
-0.0074722762878925
0.0470845765814507
-0.0542791785948044
-0.3863262081749833
0.1963818170900315
0.4556096770403174
-0.2101234085560618
-0.0555418787750810
0.1109901082594143
-0.7737351644026177
0.6495076940860980
-0.0172470967345408
0.0304844574199994
0.2126009131422895
0.2972468803778781
-0.1250546403433586
-0.1272297664219825
-0.2575633881222329
0.1473348265707974
0.1390486321777985
0.1152341464687160
0.0222339674232550
-0.4238515740017914
-0.0032500981418656
0.0179169764433441
-0.0074722762878925
0.0470845765814507
-0.0542791785948044
-0.0032500981418656
0.0179169764433441
-0.0074722762878925
0.0470845765814507
-0.0542791785948044
-0.0032500981418656
0.0179169764433441
-0.0074722762878925
0.0470845765814507
-0.0542791785948044
-1.0484486649480398
0.5676350732528974
0.4109291814918953
0.1197626880441994
-0.0498782795183671
0.0795418823158419
-0.0920456282910202
0.3900963004743036
0.0103163467901527
-0.3879089029631007
-0.0585122959220145
0.1349516818363619
-0.4039981917311791
0.1649198854452987
0.1626389187026547
-0.3239417345455013
0.1668336227674519
-0.2251193210054581
0.2682725676796716
0.1139548634402805
-0.0032500981418656
0.0179169764433441
-0.0074722762878925
0.0470845765814507
-0.0542791785948044
-0.0032500981418656
0.0179169764433441
-0.0074722762878925
0.0470845765814507
-0.0542791785948044
-0.0032500981418656
0.0179169764433441
-0.0074722762878925
0.0470845765814507
-0.0542791785948044
0.1303368333896630
0.0994116441157933
-0.1966675584535376
-0.1359669935048090
0.1028860736667415
-0.0470918850447786
0.2614450603327438
0.2303117006525764
-0.6364634603287291
0.1917985836045892
0.2577908988013304
-0.1587025882098796
0.0555655071238755
-0.2872068720511459
0.1325530537069996
-0.2083611169446170
0.6132224101431807
0.1717663271270872
-0.2684136824168527
-0.3082139386876091
-0.0032500981418656
0.0179169764433441
-0.0074722762878925
0.0470845765814507
-0.0542791785948044
-0.0032500981418656
0.0179169764433441
-0.0074722762878925
0.0470845765814507
-0.0542791785948044
-0.0032500981418656
0.0179169764433441
-0.0074722762878925
0.0470845765814507
-0.0542791785948044
-0.5941100763274568
-0.0910585616446084
0.3090475494930695
0.4115012313415809
-0.0353801442717646
0.1644354174818262
-0.2334279344752192
-0.2336758856301671
0.4073906856397713
-0.1047222844208833
0.0537133373598490
0.2636981171127785
-0.4826365992770119
0.2434452744008233
-0.0782201309947479
-0.0066824849561830
-0.0520460913287185
-0.3699139229716926
0.1370623347539371
0.2915801631123269
-0.0032500981418656
0.0179169764433441
-0.0074722762878925
0.0470845765814507
-0.0542791785948044
-0.0032500981418656
0.0179169764433441
-0.0074722762878925
0.0470845765814507
-0.0542791785948044
-0.0032500981418656
0.0179169764433441
-0.0074722762878925
0.0470845765814507
-0.0542791785948044
0.1588349969715764
-0.0438926570015937
-0.2903894386908651
-0.0978708493838655
0.2733179476761315
-0.2882063360539749
-0.1451330417203752
0.2161958082026617
0.0673216064342188
0.1498219628086674
0.1638255095754790
-0.0000895568895274
-0.0744317307892544
-0.0281231828738971
-0.0611810394405819
-0.1151532608963304
0.5119064682492989
-0.2058987858368642
-0.1243801180900190
-0.0664743037564056
-0.0032500981418656
0.0179169764433441
-0.0074722762878925
0.0470845765814507
-0.0542791785948044
-0.0032500981418656
0.0179169764433441
-0.0074722762878925
0.0470845765814507
-0.0542791785948044
-0.0032500981418656
0.0179169764433441
-0.0074722762878925
0.0470845765814507
-0.0542791785948044
0.1896424347709982
-0.1303051268169095
-0.1130302407296540
0.2168591109562188
-0.1631661783453429
0.3846931985981736
0.1856930180369735
-0.2799111399364574
0.0033386505930500
-0.2938137275290183
0.0402314840661716
-0.0991360608252544
0.3507231039610958
-0.0546924279971004
-0.2371260996581068
-0.0784934279484060
0.0473701436393679
-0.1393579208027779
-0.0284067394746138
0.1988879442988525
-0.0032500981418656
0.0179169764433441
-0.0074722762878925
0.0470845765814507
-0.0542791785948044
-0.0032500981418656
0.0179169764433441
-0.0074722762878925
0.0470845765814507
-0.0542791785948044
-0.0032500981418656
0.0179169764433441
-0.0074722762878925
0.0470845765814507
-0.0542791785948044
-0.2025281363293687
-1.0279929654886513
0.6926795164787726
0.2053333138293315
0.3325082697113559
-0.1536302051676010
-0.1056151089036858
0.3862360101148719
-0.1724906369334037
0.0454999390966706
-0.1761278350221505
0.0071694520152500
-0.0716017863793737
0.0581324661719154
0.1824277014260823
-0.2575447860791982
0.2362954286026688
0.2538777896727052
0.0957322141699114
-0.3283606481491524
-0.0032500981418656
0.0179169764433441
-0.0074722762878925
0.0470845765814507
-0.0542791785948044
-0.0032500981418656
0.0179169764433441
-0.0074722762878925
0.0470845765814507
-0.0542791785948044
-0.0032500981418656
0.0179169764433441
-0.0074722762878925
0.0470845765814507
-0.0542791785948044
-0.3343267126954740
-0.0762017692104102
0.1342657573248073
-0.2022031379534147
0.4784658607621607
-0.2898621545749642
0.0825979894738432
0.4096252856930172
-0.1867233512679793
-0.0156377710919056
0.1807696049182315
0.0827034594710064
-0.0412732641019763
-0.0935713244973792
-0.1286284775542364
-0.2470841203238773
-0.0630639050095174
0.4492255870818840
-0.2500894217435768
0.1110118582348201
-0.0032500981418656
0.0179169764433441
-0.0074722762878925
0.0470845765814507
-0.0542791785948044
-0.0032500981418656
0.0179169764433441
-0.0074722762878925
0.0470845765814507
-0.0542791785948044
-0.0032500981418656
0.0179169764433441
-0.0074722762878925
0.0470845765814507
-0.0542791785948044
-0.2797379554702334
-2.0048758516377347
0.9622597831823396
-0.0930053887205560
1.4153594109633703
0.5769573740416422
0.1169818941386798
-0.1552484281960014
-0.1583521552999976
-0.3803386863625182
0.2504392521657983
0.0325645837490234
0.1097104791969557
-0.1770594490216945
-0.2156548677629308
0.2434922869289709
0.4017053271183652
-0.1187364805330742
-0.2473209982661574
-0.2791401369155761
-0.0032500981418656
0.0179169764433441
-0.0074722762878925
0.0470845765814507
-0.0542791785948044
-0.0032500981418656
0.0179169764433441
-0.0074722762878925
0.0470845765814507
-0.0542791785948044
-0.0032500981418656
0.0179169764433441
-0.0074722762878925
0.0470845765814507
-0.0542791785948044
-0.1969544778600385
1.0513621567373461
-3.1525181880521949
0.8257331797370380
1.4723773275195748
0.1126699593261044
0.1292266210265256
-0.1807759915826382
0.0361744856345319
-0.0972950763174914
-0.1209914406988927
0.0524113350225400
0.0965301322658367
0.0396077737200856
-0.0675578022172868
0.1574600439925301
-0.2110222137028439
0.2719909727222947
-0.0593936282262839
-0.1590351766881644
-0.0032500981418656
0.0179169764433441
-0.0074722762878925
0.0470845765814507
-0.0542791785948044
-0.0032500981418656
0.0179169764433441
-0.0074722762878925
0.0470845765814507
-0.0542791785948044
-0.0032500981418656
0.0179169764433441
-0.0074722762878925
0.0470845765814507
-0.0542791785948044
-0.0447394847715803
0.2644805517501463
-0.0823790497931529
-0.2211738551983213
0.0838118362416293
-0.0469904478639313
0.3072325540262225
-0.0762795075824647
-0.3130155838898304
0.1290529835435529
0.0545409095163925
0.3970040102911330
-0.0782826727486004
-0.4564545197725793
0.0831922709518653
0.0725231241660499
0.4336365812140642
-0.0390346722778707
-0.5701657678358362
0.1030407329768665
-0.0032500981418656
0.0179169764433441
-0.0074722762878925
0.0470845765814507
-0.0542791785948044
-0.0032500981418656
0.0179169764433441
-0.0074722762878925
0.0470845765814507
-0.0542791785948044
-0.0032500981418656
0.0179169764433441
-0.0074722762878925
0.0470845765814507
-0.0542791785948044
-0.4948775897277186
0.1448410113376898
0.3150886394667835
0.5311320210499078
-0.4961840834233344
0.2161125812880327
-0.0147011121365935
-0.2307356730819320
0.1096924612552036
-0.0803682586178924
0.0126540171583692
0.0147905819388000
0.0206425354320149
0.0229975974164766
-0.0710847332368186
0.0696362521142988
0.0824225222832119
-0.0775301478926712
-0.2270207791226926
0.1524921513282928
-0.0032500981418656
0.0179169764433441
-0.0074722762878925
0.0470845765814507
-0.0542791785948044
-0.0032500981418656
0.0179169764433441
-0.0074722762878925
0.0470845765814507
-0.0542791785948044
-0.0032500981418656
0.0179169764433441
-0.0074722762878925
0.0470845765814507
-0.0542791785948044
0.0062143819828398
0.2998464991127774
0.2685710519950359
-1.0622264373410018
0.4875945035115573
-0.5316289269254080
0.1524730052961850
-0.3752969303634804
0.6347710419035780
0.1196818090548154
-0.2110408799018352
0.1351788503421398
-0.2692769702791938
0.3744270503903998
-0.0292880515816359
0.1692570021135525
-0.0714852368369664
-0.0381773748515943
0.0289199621753211
-0.0885143536298408
-0.0032500981418656
0.0179169764433441
-0.0074722762878925
0.0470845765814507
-0.0542791785948044
-0.0032500981418656
0.0179169764433441
-0.0074722762878925
0.0470845765814507
-0.0542791785948044
-0.0032500981418656
0.0179169764433441
-0.0074722762878925
0.0470845765814507
-0.0542791785948044
-0.4028277289798641
-0.4814374715042547
0.0948080214139653
1.7647533946479033
-0.9752962156228849
-0.0032500981418656
0.0179169764433441
-0.0074722762878925
0.0470845765814507
-0.0542791785948044
-0.0032500981418656
0.0179169764433441
-0.0074722762878925
0.0470845765814507
-0.0542791785948044
-0.0032500981418656
0.0179169764433441
-0.0074722762878925
0.0470845765814507
-0.0542791785948044
0.2203629720165742
0.2699080335197860
0.3305178321913564
-0.9250398365947358
0.1042509971055224
-0.0092111880540743
0.6932809847413315
-1.0895136794259632
0.4884448770468648
-0.0830009960653508
0.1512309770242111
-0.0136550382139799
-0.0165037528662412
-0.1770614650057088
0.0559892773090154
-0.9646243198059590
0.4867002498413212
-0.3343510437530296
0.2268718135974286
0.5854032983724057
-0.0032500981418656
0.0179169764433441
-0.0074722762878925
0.0470845765814507
-0.0542791785948044
-0.0032500981418656
0.0179169764433441
-0.0074722762878925
0.0470845765814507
-0.0542791785948044
-0.0032500981418656
0.0179169764433441
-0.0074722762878925
0.0470845765814507
-0.0542791785948044
-0.2486498909746122
-0.2044751860452623
0.6552222429813050
-0.2254082805260904
0.0233111129963805
0.0763785944630398
-0.4275664461399127
0.0429708983412584
0.3647209654556850
-0.0565040136845479
0.0833098372476934
-0.1991279641998818
0.1662295424933090
0.0535931969829988
-0.1040046140823210
0.1349191661228453
-0.3961827553609565
0.3942616948555333
-0.0678543250892373
-0.0651437820812209
-0.0032500981418656
0.0179169764433441
-0.0074722762878925
0.0470845765814507
-0.0542791785948044
-0.0032500981418656
0.0179169764433441
-0.0074722762878925
0.0470845765814507
-0.0542791785948044
-0.0032500981418656
0.0179169764433441
-0.0074722762878925
0.0470845765814507
-0.0542791785948044
-0.1762636677957861
-0.7664974467809748
-0.1328675830130757
-0.2369876033033356
1.3126162991621413
0.2715733607365300
0.0204177625171221
-0.0465860985927633
0.0370259761249715
-0.2824310025128149
-0.1093854244472440
-0.0137610802814412
0.2763049641445576
0.2606157921636049
-0.4137742533013304
0.4956057048382807
-0.5780341898143122
0.1839174805975622
0.1665945354450338
-0.2680835327823796
-0.0032500981418656
0.0179169764433441
-0.0074722762878925
0.0470845765814507
-0.0542791785948044
-0.0032500981418656
0.0179169764433441
-0.0074722762878925
0.0470845765814507
-0.0542791785948044
-0.0032500981418656
0.0179169764433441
-0.0074722762878925
0.0470845765814507
-0.0542791785948044
-0.1500901473068253
0.4575457395211527
-1.6836742237149702
1.0197872549121991
0.3564313748444701
-0.1451185850079824
0.0237625022188687
-0.4649575723012058
0.3923539788354146
0.1939596745157892
-0.0512559819333062
-0.0973294927746381
-0.3209757643192460
0.5180441829137803
-0.0484829456213329
0.2855912008102195
0.0077666091820163
-0.2013248494209722
0.2072950383501489
-0.2993280006518859
-0.0032500981418656
0.0179169764433441
-0.0074722762878925
0.0470845765814507
-0.0542791785948044
-0.0032500981418656
0.0179169764433441
-0.0074722762878925
0.0470845765814507
-0.0542791785948044
-0.0032500981418656
0.0179169764433441
-0.0074722762878925
0.0470845765814507
-0.0542791785948044
-0.0525038141462624
-0.0999955568512517
-0.3106891146753102
-0.0610380066655531
0.5242264915946896
0.4291794589058890
-0.2129166075343839
-0.1297138808222299
-0.1604881960573885
0.0739392247672788
-0.2035584649090638
0.0616521654848680
0.1250576612633906
-0.0843351738972516
0.1011838113191923
0.1600242013696776
0.0297240913154996
-0.1769327380480501
0.1448729063004267
-0.1576884616741900
0.0626669019102525
-0.2342952865475457
0.3522175530838560
-0.4664471215316270
0.2858579521959258
-0.0032500981418656
0.0179169764433441
-0.0074722762878925
0.0470845765814507
-0.0542791785948044
-0.0032500981418656
0.0179169764433441
-0.0074722762878925
0.0470845765814507
-0.0542791785948044
-0.0032500981418656
0.0179169764433441
-0.0074722762878925
0.0470845765814507
-0.0542791785948044
0.3805465718775799
-0.7867085426023528
0.5296811719802412
0.8983970298553128
-1.0219162323035464
-0.0769888059946269
-0.2001925950742518
0.2077217921548278
0.2931054930516290
-0.2236458853293525
0.1655445977601197
0.3430004162376642
-0.3717833218160520
-0.4573364367304539
0.3205747433580562
-0.8919234126130359
0.3114078874768237
-0.1796948749219609
0.8060482669889626
-0.0458378681201780
-0.0032500981418656
0.0179169764433441
-0.0074722762878925
0.0470845765814507
-0.0542791785948044
-0.0032500981418656
0.0179169764433441
-0.0074722762878925
0.0470845765814507
-0.0542791785948044
-0.0032500981418656
0.0179169764433441
-0.0074722762878925
0.0470845765814507
-0.0542791785948044
-0.0113872591892930
-0.2506952315331124
-0.7747430372724861
0.7698313272559315
0.2669942015044379
-0.2242695207068459
-0.0415138908257229
0.0587811905385302
0.4461659593100182
-0.2391637401715516
0.1522013508321514
0.3211527814673611
-0.0049783872042395
0.0753531945983405
-0.5437289415452357
0.5893746647978044
-0.5325643693098767
-0.4573452033314414
0.2254214710822696
0.1751134349144464
-0.3919923883325672
0.7859456862093636
0.3190334811480326
-0.7764191553224604
0.0634323747759010
0.3618308300170942
-0.1679534286242381
0.1148061320349653
-0.4239580442393046
0.1152745080607451
0.4502171180082614
0.5851476184756830
-0.3046285655860599
-0.5583162628805017
-0.1724199080436222
0.0611603238892663
-0.7166177461900792
1.5630527225851745
-0.0625528338315088
-0.8450424672620032
0.5041274475593271
0.2099325351267710
0.8856640828793874
-1.2320249238542877
-0.3676991407289538
0.1662035027635748
0.3555361931904185
-0.9948532528353007
0.9360993133060239
-0.4629857564472007
-0.0032500981418656
0.0179169764433441
-0.0074722762878925
0.0470845765814507
-0.0542791785948044
-0.0032500981418656
0.0179169764433441
-0.0074722762878925
0.0470845765814507
-0.0542791785948044
-0.7602334020651540
0.3360710009168211
0.1438570880021826
-0.3849985815236821
0.6653038932381276
-0.3430547819492052
0.9463437948121047
-0.6307961919797614
0.2384115869519036
-0.2109044092654554
-0.0837302642902476
-0.0212223942863539
0.0681672694050964
0.1197867693866820
-0.0830013816421814
-0.1234730441355527
0.1124366759610585
-0.2859509299928440
0.1765978602278053
0.1203894365162366
-0.0032500981418656
0.0179169764433441
-0.0074722762878925
0.0470845765814507
-0.0542791785948044
-0.0032500981418656
0.0179169764433441
-0.0074722762878925
0.0470845765814507
-0.0542791785948044
0.0404179935110187
-0.4083536316971114
0.4613835937892536
-0.3060227139621399
0.2125747581832836
-0.1637418419251545
0.4595181267212389
-0.4749865751648085
0.0980493772675455
0.0811609115086859
0.0279878997088885
-0.1434753042155119
-0.1188280021407700
0.0540354338941842
0.1802799711639472
-0.1279267768085171
0.1560777205963566
0.0175406488763134
-0.1167952420155457
0.0711036477639751
-0.0032500981418656
0.0179169764433441
-0.0074722762878925
0.0470845765814507
-0.0542791785948044
-0.0032500981418656
0.0179169764433441
-0.0074722762878925
0.0470845765814507
-0.0542791785948044
-0.3996168364971920
-0.1677046695351362
0.6847996512762199
-0.0636037812347283
-0.0538743644516893
-0.1166075169649540
0.3332823167839651
-0.0804300152536210
-0.0452144348879240
-0.0910303501188006
-0.0786245147696711
0.0426929398312216
0.0205645649883523
-0.1045864059473097
0.1199534154575287
0.0189530649852691
0.0924831670756005
-0.0687139287854943
0.1161736421069750
-0.1588959458203433
-0.0032500981418656
0.0179169764433441
-0.0074722762878925
0.0470845765814507
-0.0542791785948044
-0.0032500981418656
0.0179169764433441
-0.0074722762878925
0.0470845765814507
-0.0542791785948044
-1.9501663079839027
0.5185752114531060
0.8083618620450601
0.1257174611861350
0.4975117721967339
0.0528753259996809
0.2760561151631495
-0.4086094721260710
0.3397076727763766
-0.2600296429137308
0.1518877699968920
0.0572453495168713
-0.3462192321283598
-0.0075002866888869
0.1445863986415095
-0.0795977372484772
0.1145960104647023
-0.1608744034773541
-0.0691949717279625
0.1950711013304993
-0.0032500981418656
0.0179169764433441
-0.0074722762878925
0.0470845765814507
-0.0542791785948044
-0.0032500981418656
0.0179169764433441
-0.0074722762878925
0.0470845765814507
-0.0542791785948044
-0.5313400895943737
0.6595766834961109
-0.1566096170315177
0.0988546566847804
-0.0704816341874053
0.0713196876892024
-0.1160557063135785
0.3391225766617675
0.3231283406782526
-0.6175148993480571
0.0725686051029899
0.2670039605428797
-0.0512714514809408
0.0064093095779884
-0.2947104235440389
0.1581706903286375
-0.1842338021336875
0.4312044369166594
-0.1054316141610919
-0.2997097107524354
-0.0032500981418656
0.0179169764433441
-0.0074722762878925
0.0470845765814507
-0.0542791785948044
-0.0032500981418656
0.0179169764433441
-0.0074722762878925
0.0470845765814507
-0.0542791785948044
1.1193740554476113
-0.5260704043696793
0.1388922436733783
-0.1450116993272330
-0.5871841970977230
-0.0981932269516309
0.1472754407362950
0.0132745019070944
0.0071040667039904
-0.0694607840634850
-0.1391561841089852
-0.0495582133967349
-0.2468812571519969
0.0186569475200781
0.4169387054735900
-0.0693816023886604
0.0257594779674667
-0.1489257145852279
0.2364371659966396
-0.0438893286486248
-0.0032500981418656
0.0179169764433441
-0.0074722762878925
0.0470845765814507
-0.0542791785948044
-0.0032500981418656
0.0179169764433441
-0.0074722762878925
0.0470845765814507
-0.0542791785948044
1.0415891871612564
-0.4800013744099210
0.2929559760749504
-0.2685761391764629
-0.5859676516207462
-0.0482227762522282
0.0587042141968741
0.0929700355896369
-0.3913368751369244
0.2878853996357086
-0.0867554790308381
0.1483615853859176
-0.1170590123504467
0.1917528085096226
-0.1362999023150678
0.1136089550199440
-0.1188936635712849
-0.0623109588782542
-0.0002084639547282
0.0678041315838237
-0.0032500981418656
0.0179169764433441
-0.0074722762878925
0.0470845765814507
-0.0542791785948044
-0.0032500981418656
0.0179169764433441
-0.0074722762878925
0.0470845765814507
-0.0542791785948044
-0.0228258479981047
-0.0010024222528948
0.6245202104280965
-0.2421195897367305
-0.3585723522422690
-0.2668481105734989
-0.0469834901381227
0.4857925791246809
0.1541095181574614
-0.3260704983668429
-0.0996017378107131
0.0679805492349247
0.1906298147753276
0.0097043897842609
-0.1687130177751105
0.4813901755366156
-0.2105453868139290
0.0388295594677674
-0.1654432818550394
-0.1442310681216262
-0.0227708525876626
0.0418060984370415
-0.0218379709222662
0.0332527672626010
-0.0304500421892210
-0.0227708525876626
0.0418060984370415
-0.0218379709222662
0.0332527672626010
-0.0304500421892210
0.1689108733036455
-0.0681074079408992
0.1476256860727075
-0.2646204073730047
0.0161912558629615
-0.3125471067879086
0.0222619469582641
0.9571582877254708
-0.3666673570811912
-0.3002057725063894
-0.0227708525876626
0.0418060984370415
-0.0218379709222662
0.0332527672626010
-0.0304500421892210
-0.0227708525876626
0.0418060984370415
-0.0218379709222662
0.0332527672626010
-0.0304500421892210
-0.2869190160699076
0.0615067749795180
0.0937941560526487
0.0640157481797917
0.0676023366410826
-0.8224662485645736
0.9965439668790174
0.2026277274932772
0.8534050396194109
-1.2301104858658869
0.0910791640926234
-0.6567176430322749
-0.3536033380669056
0.6978473745315787
0.2213944420148478
-0.1089609449570073
0.0542576381352129
0.0662592461669888
0.1292769048009486
-0.1408328445842886
0.3048574019784775
-0.4475513396691281
-0.2112716824437154
0.4905099335517589
-0.1365443138725841
-0.0227708525876626
0.0418060984370415
-0.0218379709222662
0.0332527672626010
-0.0304500421892210
-0.0227708525876626
0.0418060984370415
-0.0218379709222662
0.0332527672626010
-0.0304500421892210
-0.3368584046709667
-0.2561856496821428
0.1316054422483439
0.1774411962694978
0.2839974147992795
-0.0357090138193393
0.0957350543296524
-0.2342675477566372
0.1112254774427478
0.0630160297222407
-0.2644699622596551
-0.1747764792825240
0.2610017241862780
-0.0117248608130706
0.1899695771447782
-0.0227708525876626
0.0418060984370415
-0.0218379709222662
0.0332527672626010
-0.0304500421892210
-0.0227708525876626
0.0418060984370415
-0.0218379709222662
0.0332527672626010
-0.0304500421892210
0.0900834773814241
0.1109745692848516
-0.0316695652754801
-0.1095524004156268
-0.0598360822853562
-0.0227708525876626
0.0418060984370415
-0.0218379709222662
0.0332527672626010
-0.0304500421892210
-0.0227708525876626
0.0418060984370415
-0.0218379709222662
0.0332527672626010
-0.0304500421892210
-0.3730700831664936
-0.2538571248879422
-0.1611997961284951
0.3535805745241105
0.4345464282989143
-0.0227708525876626
0.0418060984370415
-0.0218379709222662
0.0332527672626010
-0.0304500421892210
-0.0227708525876626
0.0418060984370415
-0.0218379709222662
0.0332527672626010
-0.0304500421892210
-0.0553585200518827
-0.3656835793409701
0.2700419822492631
0.2628991114721129
-0.1118989959817662
-0.0227708525876626
0.0418060984370415
-0.0218379709222662
0.0332527672626010
-0.0304500421892210
-0.0227708525876626
0.0418060984370415
-0.0218379709222662
0.0332527672626010
-0.0304500421892210
-0.5179182992044423
-0.6764255147008066
-0.0095817234052805
0.7140738257148694
0.4898517099411123
-0.0227708525876626
0.0418060984370415
-0.0218379709222662
0.0332527672626010
-0.0304500421892210
-0.0227708525876626
0.0418060984370415
-0.0218379709222662
0.0332527672626010
-0.0304500421892210
0.3130519739825495
0.0868426619847971
-0.0152218686964952
-0.4083830748111685
0.0237103062005417
0.2005814454656356
-0.1924112332603616
0.0336794265377331
-0.1417788551280415
0.0999292157858231
0.0146178283759797
0.3862628342714038
-0.3759791267067413
-0.0625664529483944
0.0376649156778730
-0.0227708525876626
0.0418060984370415
-0.0218379709222662
0.0332527672626010
-0.0304500421892210
-0.0227708525876626
0.0418060984370415
-0.0218379709222662
0.0332527672626010
-0.0304500421892210
0.0695418120016442
0.2192930127952369
-0.0214442897882247
0.1451002468456886
-0.4124907831744221
0.0288194337180160
0.3348061841469693
-0.3042823975920756
-0.1678326505171295
0.1084894301652596
0.2348204419462621
0.1267942040634870
-0.0290231489415316
-0.0432644015619022
-0.2893270968151954
-0.0227708525876626
0.0418060984370415
-0.0218379709222662
0.0332527672626010
-0.0304500421892210
-0.0227708525876626
0.0418060984370415
-0.0218379709222662
0.0332527672626010
-0.0304500421892210
0.4978123612542277
-0.1998238903821621
-0.2618984330123413
-0.2133031857214680
0.1772131474185762
-0.3632405340791390
0.6301915748869850
0.4543173101776600
-0.2657535735658433
-0.4555147777969559
-0.1319779264009465
-0.0481707211499725
0.2540413578676015
-0.1486682111740299
0.0747755004121918
0.3231068818555863
-0.1766501094849777
-0.2097906635985494
0.1133911609671481
-0.0500572701132939
-0.0227708525876626
0.0418060984370415
-0.0218379709222662
0.0332527672626010
-0.0304500421892210
-0.0227708525876626
0.0418060984370415
-0.0218379709222662
0.0332527672626010
-0.0304500421892210
-0.0986786514358197
-0.2881331989285586
0.4804410638068626
0.1330810720273572
-0.2267102868443245
-0.0227708525876626
0.0418060984370415
-0.0218379709222662
0.0332527672626010
-0.0304500421892210
-0.0227708525876626
0.0418060984370415
-0.0218379709222662
0.0332527672626010
-0.0304500421892210
-0.6523308704391844
0.2215455975542184
0.1625218429212479
0.1815460924777854
0.0867173358100234
-0.0227708525876626
0.0418060984370415
-0.0218379709222662
0.0332527672626010
-0.0304500421892210
-0.0227708525876626
0.0418060984370415
-0.0218379709222662
0.0332527672626010
-0.0304500421892210
0.0818165300971483
0.3185142459588889
-0.1479735788112890
-0.2321501994498362
-0.0202069985750413
0.5900083601125814
0.1091650653903154
-0.5501086085629078
-0.4115946463503918
0.2625298287784602
-0.0562845918990641
-0.0547945975611203
0.0762946560554750
-0.1415152412676275
0.1762997738907308
-0.0750775011027974
0.0342222472347049
0.2596216611779088
-0.1368354466632050
-0.0819309612752258
-0.0227708525876626
0.0418060984370415
-0.0218379709222662
0.0332527672626010
-0.0304500421892210
-0.0227708525876626
0.0418060984370415
-0.0218379709222662
0.0332527672626010
-0.0304500421892210
0.1445209142478640
-0.5185744218241392
-0.4266772601788023
0.5731595490918014
0.2275712172542874
-0.0227708525876626
0.0418060984370415
-0.0218379709222662
0.0332527672626010
-0.0304500421892210
-0.0227708525876626
0.0418060984370415
-0.0218379709222662
0.0332527672626010
-0.0304500421892210
0.0159782232475348
0.0438275301789714
-0.5648242308273486
-0.1614568677109191
0.6664753446841826
-0.2385756315828447
0.1673379575104942
0.0347085855523730
-0.1549814086844234
0.1915104968771240
-0.1996010524957693
0.1568177842371639
-0.3053259259430222
0.2949406463492780
0.0531685474274130
-0.0706299117722479
0.1131792872436481
0.1617933227274549
-0.0441382020254024
-0.1602044965045534
-0.3600611154193810
0.5636061854741148
0.0834492176464100
-0.2739935014172867
-0.0130007865190785
-0.0227708525876626
0.0418060984370415
-0.0218379709222662
0.0332527672626010
-0.0304500421892210
-0.0227708525876626
0.0418060984370415
-0.0218379709222662
0.0332527672626010
-0.0304500421892210
-0.0611890488769072
0.1837625724057266
0.0664210543422984
-0.0744698139625640
-0.1145247640726899
0.0540397846397948
0.9413621338919824
-0.6074562629746710
-0.0895820925036449
-0.2983635632931526
-0.3969369359117030
0.0894713193890704
0.4667674313026315
0.1782214781620807
-0.3375232933996703
-0.0375028139708887
-0.0546811316619313
-0.0468214218867498
0.1683967522896745
-0.0293913850589552
-0.3867881382396987
0.2248384023340089
0.3645568965752138
-0.3535020349465195
0.1508948738264337
-0.0227708525876626
0.0418060984370415
-0.0218379709222662
0.0332527672626010
-0.0304500421892210
-0.0227708525876626
0.0418060984370415
-0.0218379709222662
0.0332527672626010
-0.0304500421892210
0.0400727045272121
0.1195120719432234
0.4669216700864757
0.1063797426631512
-0.7328861910192149
-0.0227708525876626
0.0418060984370415
-0.0218379709222662
0.0332527672626010
-0.0304500421892210
-0.0227708525876626
0.0418060984370415
-0.0218379709222662
0.0332527672626010
-0.0304500421892210
-0.4234606486609971
0.1213910577916253
0.3948431786407931
-0.0844623429754587
-0.0083112465687897
-0.0227708525876626
0.0418060984370415
-0.0218379709222662
0.0332527672626010
-0.0304500421892210
-0.0227708525876626
0.0418060984370415
-0.0218379709222662
0.0332527672626010
-0.0304500421892210
0.2634370305873795
-0.0048452441960841
0.1624517287848493
0.0355365049344941
-0.4565800217947103
-0.0227708525876626
0.0418060984370415
-0.0218379709222662
0.0332527672626010
-0.0304500421892210
-0.0227708525876626
0.0418060984370415
-0.0218379709222662
0.0332527672626010
-0.0304500421892210
-0.2221028357025102
0.1908770931710300
0.2146765705159663
0.2369005586649111
-0.4203513885709509
-0.0227708525876626
0.0418060984370415
-0.0218379709222662
0.0332527672626010
-0.0304500421892210
-0.0227708525876626
0.0418060984370415
-0.0218379709222662
0.0332527672626010
-0.0304500421892210
-0.0570373649119373
0.2024793125440967
-0.0532795098145243
-0.2245729013586773
0.1324104617695833
-0.0227708525876626
0.0418060984370415
-0.0218379709222662
0.0332527672626010
-0.0304500421892210
-0.0227708525876626
0.0418060984370415
-0.0218379709222662
0.0332527672626010
-0.0304500421892210
-0.0782295873197123
-0.0896742408544313
0.0150944652027334
0.0226075870409232
0.1302017746345684
-0.0227708525876626
0.0418060984370415
-0.0218379709222662
0.0332527672626010
-0.0304500421892210
-0.0227708525876626
0.0418060984370415
-0.0218379709222662
0.0332527672626010
-0.0304500421892210
0.0741391825177938
-0.1989511624502698
0.5494745298695278
-0.5187852599456587
0.0941227092700507
-0.0850740370369063
-0.1185777542805178
-0.4538070517953955
1.1654383631747942
-0.5079795210947974
-0.0227708525876626
0.0418060984370415
-0.0218379709222662
0.0332527672626010
-0.0304500421892210
-0.0227708525876626
0.0418060984370415
-0.0218379709222662
0.0332527672626010
-0.0304500421892210
-1.1040954262104130
0.4009702337581618
0.4590014903820803
-0.1013533816590610
0.3454770836842754
0.3239680739258441
0.6627062163365088
-0.2800440212143404
-1.6615414688139201
0.9549111980396159
-0.0227708525876626
0.0418060984370415
-0.0218379709222662
0.0332527672626010
-0.0304500421892210
-0.0227708525876626
0.0418060984370415
-0.0218379709222662
0.0332527672626010
-0.0304500421892210
0.2615411889671171
-0.0211243647086552
-0.4321541650347289
-0.0778722411933114
0.2696095802077812
-0.0227708525876626
0.0418060984370415
-0.0218379709222662
0.0332527672626010
-0.0304500421892210
-0.0227708525876626
0.0418060984370415
-0.0218379709222662
0.0332527672626010
-0.0304500421892210
0.2577954946308391
0.0234474959179680
0.2742566464419959
-0.3134966198043138
-0.2420030187548988
-0.0227708525876626
0.0418060984370415
-0.0218379709222662
0.0332527672626010
-0.0304500421892210
-0.0227708525876626
0.0418060984370415
-0.0218379709222662
0.0332527672626010
-0.0304500421892210
0.7939098145603019
-0.3283893220361958
0.3236490518012903
-0.2862931362829596
-0.5028764097736281
-0.0227708525876626
0.0418060984370415
-0.0218379709222662
0.0332527672626010
-0.0304500421892210
-0.0227708525876626
0.0418060984370415
-0.0218379709222662
0.0332527672626010
-0.0304500421892210
-0.1836637675668460
-0.2473272652920211
-0.3914994902005483
0.6819310754153233
0.1405594459004973
-0.0227708525876626
0.0418060984370415
-0.0218379709222662
0.0332527672626010
-0.0304500421892210
-0.0227708525876626
0.0418060984370415
-0.0218379709222662
0.0332527672626010
-0.0304500421892210
0.2705274407384988
-0.1769800749065810
0.0240082727658057
-0.0655099297813548
-0.0520457095597086
-0.0227708525876626
0.0418060984370415
-0.0218379709222662
0.0332527672626010
-0.0304500421892210
-0.0227708525876626
0.0418060984370415
-0.0218379709222662
0.0332527672626010
-0.0304500421892210
0.4558750609501363
-0.1980383358850941
0.1539644210189897
0.2706323921271089
-0.6824335394037107
-0.0227708525876626
0.0418060984370415
-0.0218379709222662
0.0332527672626010
-0.0304500421892210
-0.0227708525876626
0.0418060984370415
-0.0218379709222662
0.0332527672626010
-0.0304500421892210
-0.0399074909739081
-0.2850986881715851
-0.0059890021481088
0.2985239902008883
0.0324711918591356
-0.7033372765504069
-0.2872091778622572
0.2336327195040235
1.1442538092810737
-0.3873400762322429
-0.0227708525876626
0.0418060984370415
-0.0218379709222662
0.0332527672626010
-0.0304500421892210
-0.1322365320079862
0.1680169918396305
-0.0365681199773572
0.1260637216608683
-0.1252760629506473
-0.0227708525876626
0.0418060984370415
-0.0218379709222662
0.0332527672626010
-0.0304500421892210
-0.4703510605076219
0.3303231110318142
-0.1820701245799067
0.1437396546166445
0.1783584192648917
-0.1192776485650698
0.5896223765293648
-0.6466195935896412
0.4092346397960363
-0.2329597757665954
-0.0227708525876626
0.0418060984370415
-0.0218379709222662
0.0332527672626010
-0.0304500421892210
-0.0362960106464740
0.2232036932444220
-0.0065306801231399
-0.0765534305349166
-0.1038235723778770
-0.0227708525876626
0.0418060984370415
-0.0218379709222662
0.0332527672626010
-0.0304500421892210
0.3609621097911072
0.4000627858415293
-0.5987690415530017
-0.0712664451569559
-0.0909894100246193
-0.0692710773215177
-0.3576184801054720
0.1107667344011013
0.1046607430533649
0.2114620793096304
-0.0227708525876626
0.0418060984370415
-0.0218379709222662
0.0332527672626010
-0.0304500421892210
-0.1542097998952850
-0.1108177944840590
-0.1490383917659754
0.1780577218276212
0.2360082636869139
-0.1885815244299950
-0.1903487359306969
0.1121342341004376
-0.1518790982722142
0.4186751247316495
-0.0227708525876626
0.0418060984370415
-0.0218379709222662
0.0332527672626010
-0.0304500421892210
0.5597536231371086
0.3317550430052287
-0.4861601620721202
0.0303520102687418
-0.4357005160117864
-0.0227708525876626
0.0418060984370415
-0.0218379709222662
0.0332527672626010
-0.0304500421892210
0.3380233130054499
-0.2054830163235882
0.1128823203029814
-0.0995059288850517
-0.1459166900755874
-0.0337914064581579
0.1269913205518843
-0.2514726019264585
0.4454279618688300
-0.2871552738359175
-0.0227708525876626
0.0418060984370415
-0.0218379709222662
0.0332527672626010
-0.0304500421892210
-0.1390381719361052
-0.4692142130889914
0.3657478047711625
-0.3093706396794610
0.5518752181302995
-0.0722737654909786
0.0746108666616188
-0.0406429345884275
0.0193170170299756
0.0189888163879229
0.0380885388352909
0.0207487099873996
0.1756611854435436
-0.1718952615108651
-0.0626031728290600
0.4201791723299108
-0.1286614277570815
-0.0157812303768763
-0.1746565503374284
-0.1010799655540154
-0.0722737654909786
0.0746108666616188
-0.0406429345884275
0.0193170170299756
0.0189888163879229
0.1345777609697207
-0.1725839634270099
0.0093517135381744
0.1729354588652819
-0.1442809701649207
-0.4138833547087300
-0.0814248151504640
0.3366151868916837
0.2527095401255173
-0.0940165575935766
-0.1771805765780556
0.4241314814874440
-0.4277631683271291
0.8352771849920756
-0.6544649220323731
-0.0722737654909786
0.0746108666616188
-0.0406429345884275
0.0193170170299756
0.0189888163879229
-0.1403804564846088
-0.0697631542379483
-0.3767831796644625
0.0178264172467191
0.5691003721101043
-0.0302103187560765
0.1388191125939083
-0.2455692657559734
0.0311749812317538
0.1057854906039136
-0.0722737654909786
0.0746108666616188
-0.0406429345884275
0.0193170170299756
0.0189888163879229
-0.0059663425253719
-0.0305927208988727
0.0066025129416183
-0.0818382255061431
0.1117947746787963
-0.0722737654909786
0.0746108666616188
-0.0406429345884275
0.0193170170299756
0.0189888163879229
-0.3393255408649263
0.0183284914084180
-0.0578741876163213
0.2642686212899470
0.1146026144232597
-0.0722737654909786
0.0746108666616188
-0.0406429345884275
0.0193170170299756
0.0189888163879229
-0.0206314710174091
-0.4445355607923320
0.2566186066446384
0.2743201277221922
-0.0657717042107548
-0.0722737654909786
0.0746108666616188
-0.0406429345884275
0.0193170170299756
0.0189888163879229
-0.3455075642251991
-0.3309134613925081
-0.1592480346635059
0.5661466634885168
0.2695223951377499
-0.0722737654909786
0.0746108666616188
-0.0406429345884275
0.0193170170299756
0.0189888163879229
0.0921454286336458
-0.2639343935906766
0.4247545021567557
-0.1903947563365638
-0.0625707821960085
-0.0621316180751937
-0.1872254468329412
0.0899930669478537
0.3065075385391778
-0.1471435411771032
-0.0722737654909786
0.0746108666616188
-0.0406429345884275
0.0193170170299756
0.0189888163879229
-0.3195465370080300
-0.1739464841382517
0.5373072930009436
0.0517503036482586
-0.0955645768170359
-0.2805721084379454
-0.4004184704442907
0.1053253596358247
0.2769751963997664
0.2986900227660370
-0.0722737654909786
0.0746108666616188
-0.0406429345884275
0.0193170170299756
0.0189888163879229
0.1350609617362719
-0.1205455880411825
-0.1947288970740456
0.1968263941855773
-0.0166128712417128
-0.0666349703492972
0.4952232168612964
0.1255039118366685
-0.0887870735625103
-0.4653050851620917
-0.0722737654909786
0.0746108666616188
-0.0406429345884275
0.0193170170299756
0.0189888163879229
0.4500713864343707
-0.3929575971223654
0.0939789613190317
-0.1860469548252607
0.0349542028194536
-0.0722737654909786
0.0746108666616188
-0.0406429345884275
0.0193170170299756
0.0189888163879229
-0.7491973090760955
-0.1208807086927243
0.5176052594636126
0.4503778475849228
-0.0979050909537751
-0.0722737654909786
0.0746108666616188
-0.0406429345884275
0.0193170170299756
0.0189888163879229
-0.0447678364424560
0.3782647516381181
0.0392882462561943
-0.4860503770840485
0.1132652148522565
0.6900961467989223
-0.6210117771556961
-0.4384391242452522
-0.1201237138837916
0.4894784678547572
-0.0722737654909786
0.0746108666616188
-0.0406429345884275
0.0193170170299756
0.0189888163879229
-0.3734966163588126
0.7980562828283887
-0.3239343370404213
0.2025734418139589
-0.3031987726474966
-0.0722737654909786
0.0746108666616188
-0.0406429345884275
0.0193170170299756
0.0189888163879229
0.0017951765546970
0.2322452802736852
-0.3404822340628285
-0.0026970483501057
0.1091388251583229
-0.1147308675228336
-0.1499570540169499
0.0555625718732784
0.0018704326033842
0.2072549167363598
-0.2035705231504853
0.5723277409591842
0.1422947514659497
-0.1130649918036079
-0.3979869777064055
-0.0722737654909786
0.0746108666616188
-0.0406429345884275
0.0193170170299756
0.0189888163879229
0.1204157268904079
-0.0386893851307420
-0.1117869507222869
0.1031063320134836
-0.0730457232149508
0.0376466373916676
-0.1309297619257918
-0.2654343947268912
-0.0246795689161965
0.3833970879398710
-0.8110632994591106
1.0514758791090444
0.5107832761692552
-0.0650672429603630
-0.6861286133144490
0.2956134354728602
-0.1931297518322951
0.0978581392940808
-0.0012686000552558
-0.1990732231645775
-0.0722737654909786
0.0746108666616188
-0.0406429345884275
0.0193170170299756
0.0189888163879229
-0.1312970170386110
0.1754412702727523
0.2092587483750104
-0.1396655111477807
-0.1137374922616620
-0.0722737654909786
0.0746108666616188
-0.0406429345884275
0.0193170170299756
0.0189888163879229
0.1456766176162888
-0.0646772348904641
-0.1405900460585584
0.0734293439701926
-0.0138386824112673
-0.0722737654909786
0.0746108666616188
-0.0406429345884275
0.0193170170299756
0.0189888163879229
-0.0976718012308278
-0.5665087430045433
0.5930815491414199
0.0958542454077238
-0.0247552519976166
-0.0722737654909786
0.0746108666616188
-0.0406429345884275
0.0193170170299756
0.0189888163879229
0.0342841598535879
0.1049161333115775
-0.2686511219413875
0.1407192982710100
-0.0112684714190576
-0.0722737654909786
0.0746108666616188
-0.0406429345884275
0.0193170170299756
0.0189888163879229
-0.0380889281359857
0.1148031553832004
-0.0317569248354917
-0.1910572669694961
0.1460999627857581
-0.0722737654909786
0.0746108666616188
-0.0406429345884275
0.0193170170299756
0.0189888163879229
-0.0939818307085584
-0.0582499945169328
-0.1049174155222745
0.1009058383471645
0.1562434011066915
-0.0722737654909786
0.0746108666616188
-0.0406429345884275
0.0193170170299756
0.0189888163879229
0.1923561029584616
-0.1906486505667190
0.4686084543117178
-0.4772455566491708
0.0069296492021309
-0.1497487394299579
0.3623029308391613
-0.7272382533820054
0.5749126091980280
-0.0602285482584989
-0.0722737654909786
0.0746108666616188
-0.0406429345884275
0.0193170170299756
0.0189888163879229
-0.2023667537958884
0.6296226440844627
-0.4765581187668109
-0.2675177732274732
0.3168200016610208
1.0284858692982601
-0.2376184653692646
-0.6367652138945635
0.1574807309115470
-0.3115829226727125
-0.0722737654909786
0.0746108666616188
-0.0406429345884275
0.0193170170299756
0.0189888163879229
0.7891397799494865
-0.5365462289600839
-0.2759401577985404
0.0177287059894364
0.0056178990584273
-0.0722737654909786
0.0746108666616188
-0.0406429345884275
0.0193170170299756
0.0189888163879229
0.1924003993406223
0.2032120687441865
0.4828896291093257
-0.2746469097754589
-0.6038551889869483
-0.0722737654909786
0.0746108666616188
-0.0406429345884275
0.0193170170299756
0.0189888163879229
1.0480581950602914
-0.3288542040019689
-0.0715866017464413
-0.0167633050000060
-0.6308540860431233
-0.0722737654909786
0.0746108666616188
-0.0406429345884275
0.0193170170299756
0.0189888163879229
0.0438344684584596
-0.0642050765488984
0.1218328923790732
0.2441788085707397
-0.3456410946025444
-0.0722737654909786
0.0746108666616188
-0.0406429345884275
0.0193170170299756
0.0189888163879229
-0.0005423287579998
0.1745047030151794
-0.0304519333908077
0.0998947634494302
-0.2434052050562571
-0.0722737654909786
0.0746108666616188
-0.0406429345884275
0.0193170170299756
0.0189888163879229
0.1322481639079249
-0.0666894290784639
-0.3838851297794173
-0.2628686053421012
0.5811949991000198
-0.0722737654909786
0.0746108666616188
-0.0406429345884275
0.0193170170299756
0.0189888163879229
0.0945215775081311
0.5979713826538363
0.0762327475064429
-0.2787394884375730
-0.4899862184633870
-0.5246550172247373
0.5611871725800374
-0.4542457769714813
0.3608465262144362
0.0568670935418729
-0.0356403961387170
0.0280423096548466
-0.0626084926347826
0.0577933101866039
0.0124132675007310
-0.1412561443322619
0.4400803428864497
-0.1499167685243893
-0.0505741924425285
-0.0983332377632228
0.3947415035954479
-0.1669713426429515
0.0043064010674311
-0.0876123053640694
-0.1444642582534004
-0.0831343928208972
-0.0495424265692682
0.2461175611510623
-0.1987124588252720
0.0852717166234926
-0.1831427726933662
0.1623173095447704
-0.0609677501291528
-0.0323450119283020
0.1141382241050622
2.4031105888756543
-0.8089115470601382
-0.6407108576439055
0.1645319917296838
-1.1180201765666733
0.0077193987491082
-0.0383937322454810
0.1024069153691171
-0.0841883625739411
0.0124557800701407
0.4058833754050152
-0.7173435741657775
0.6265220189663208
-0.7506232753884411
0.4355614553807107
0.0879659724130830
-0.1597241071109000
-0.4835627289248383
0.2166467729270365
0.3386740890232182
0.1649565912541055
-0.0494558340838718
0.1424995421808654
-0.1354870396327146
-0.1225132616953693
-1.1204488422152421
0.6612701192422034
-0.4781919758753250
0.3717880650101176
0.5655826340374284
0.3586231568085484
-0.0783958870772625
0.6885852307647237
-0.4361980196920784
-0.5326144826068788
0.0500939063178440
-0.0435791936270550
0.2521136622822777
-0.1151858216997694
-0.1434425533461638
-0.0923672563623734
0.4010607767038700
0.2535674252886025
-0.2937821814436661
-0.2684787658795353
-0.0187135627713023
-0.3272025998910382
0.3143749243873595
0.2043727332049882
-0.1728314951499097
-0.1726963175338350
-0.2176593751629554
0.0879340692105674
0.5855145341071212
-0.2830929110527127
0.1663315607349743
-0.1947694860693642
-0.4623627572661885
0.4099717096860690
0.0808289724538952
-0.1469398319685311
-0.0227726673479326
0.0032432628945181
0.1477767458985891
0.0186924899045465
-0.4746590514069366
0.1853375992077433
-0.0759603972881791
0.0036040434820093
0.3616778049802495
0.2461384692922920
-0.1095043792690838
-0.2527806929043859
0.0284742308992985
0.0876723718990635
-0.1249995811734435
-0.0230170950784650
0.0031575968150644
0.1264634771337382
0.0183956016842876
0.1758079103556063
0.2394434734271601
-0.0760361088240619
-0.1498540264914022
-0.1893612497760274
-0.2514670815576594
0.1776063829992108
-0.0096578811536003
-0.1158822414106276
0.1994008197639651
0.1357977919923289
-0.3962332355264067
0.1684016805415973
0.1984055095277624
-0.1063717481889805
-0.0664490600576231
0.4211055304624451
-0.4143042936212592
-0.1812901870345071
0.2409380085957804
-0.0117988428925854
0.1311059246254266
0.0050876373641545
-0.1752978799499058
0.0509031595243412
-0.0379444575860678
0.4419347864269049
0.0885695163662900
-0.1171664927506120
-0.3753933530551442
0.1724308256039979
-0.1850492217550378
0.3553453640156543
0.1979129735236973
-0.5406399426973516
-0.7194569456175883
0.2891869374018052
0.3547939431486782
-0.0669382935786385
0.1424143585644898
-0.1880480014765349
-0.0333006148357278
-0.1901903080046349
0.2846766171938772
0.1268623067050618
0.1171664896960946
-0.0275200143713068
-0.0626279556720335
0.0859820933941672
-0.1130006134734607
-0.4481733541392249
0.1604831475184114
-0.1282889194016479
-0.1821937768128874
0.5981729024538391
0.5077134780476800
0.0893710202261815
-0.7109827246550869
-0.1072219891508783
0.2211202149575120
0.1154394906750616
-0.2764063287852122
-0.1806446825319750
0.3982536505619065
-0.0566421312945594
-0.5891787468675597
0.0356757136936496
0.3074369347355437
0.3836072856481802
-0.1375411888817226
-0.1256040052173812
0.1565494149217740
0.0256176178144967
-0.2018470585937814
0.1452840303010433
0.8175950296799890
-0.1612885304192961
-0.2237675996045974
-0.3721740380304829
-0.0603648622662389
-0.2318442110613588
-0.0560651830064095
-0.0769372672735615
-0.0546452819999172
0.4194919419396992
-0.0004144806992184
0.0542546535638560
-0.0013866312088337
-0.0319713483669931
-0.0204821932881035
-0.3601500197316938
0.2424598598276645
-0.1205629116731390
-0.1341809427522254
0.3724340139034218
0.1371377561143236
0.2854265017934040
-0.2713393059857275
-0.1048618895663116
-0.0463630626794341
-0.0202721343402697
-0.6084347763366545
0.2771526332733300
0.0887209662338968
0.2628333109333493
-0.1469398319685311
-0.0227726673479326
0.0032432628945181
0.1477767458985891
0.0186924899045465
-0.0728918349074649
0.1813846125816251
0.1198730137066408
0.0003598548521502
-0.2287256463956718
0.0020408020501133
0.0960010322461418
-0.1504276073777556
-0.1192961761963887
0.1716819490404252
-0.0004271532704621
-0.0686511695189107
0.2823127070627675
-0.2901341899408019
0.0768998052079602
0.1682024309359745
0.4750616087141400
-0.5180028634386549
0.0700046055015079
-0.1952657819999306
-0.1469398319685311
-0.0227726673479326
0.0032432628945181
0.1477767458985891
0.0186924899045465
0.0313492807285483
-0.0083426952260015
0.3053076368020945
-0.0356520514456708
-0.2926621726598065
-0.0601891548053522
0.1560224792463990
0.2116635658427768
-0.4128382010802045
0.1053413090226874
-0.3118907042378264
0.4514987888967615
0.4344622317994775
0.0835745674092804
-0.6576448855521171
-0.1043330319402790
-0.0126337009280982
0.5435260643618428
-0.3263409723435483
-0.1002183610759469
0.0295559900931895
-0.1382299113664746
0.0673957101969322
-0.0963958901121019
0.1376740994164377
-0.0730908214668915
0.5008059650433282
-0.3124002869597853
-0.0910135124746087
-0.0243013454350512
0.2470174623449250
-0.0125941827080570
0.1947880868330406
-0.2480351759655006
-0.1811761912493379
-0.2451948072829752
0.3121943205185552
-0.6245342069019272
0.5001201386389659
0.0574145539986462
-0.2404282432073162
0.2294983408508760
-0.0236120639593799
-0.0882666743632166
0.1228086399515497
-0.4386450135779927
0.2814357836881232
0.0227140562956978
0.0544386863126096
0.0800564872339908
0.1495280494713936
-0.5080769741325969
0.3206323661765934
0.2903923552173914
-0.2524757984602642
-0.1093652023661545
0.0582310802614715
-0.8777090158846197
0.5004602396078421
0.4283828966198266
0.2405297939684886
-0.2099057625047268
0.2778959465318198
0.0279161049576815
-0.3364360845217459
0.3995253568353804
-0.1277536649253215
0.0160919151018121
-0.1812988798984121
-0.1065647288452088
0.1686833500135180
0.1611837967227986
0.1832740143529799
-0.2954001991658318
-0.2177409636661997
0.2552298445684026
-0.1085905980706825
-0.3264411496633678
0.3370967865745845
-0.1572948841462989
0.1767387874502572
0.0886573512159199
-0.3695886879943934
-0.0668276357567834
0.1710201844206874
-0.7583795969578583
0.0906724534334418
0.2564559850941764
0.1627889910207760
0.2484621662172426
-0.4468723323918120
0.1304247127062597
-0.0815367341716862
0.6391357365585865
-0.2411513819325978
-0.4822122937672212
0.1347363865809993
0.0815219632211352
0.2180936588688461
0.0478602832364142
0.0523018030418286
0.0455764280528433
0.2241614911818711
-0.2359445724156977
-0.0860951501946250
0.0884174400077609
-0.3185346729346286
-0.0060089840658261
0.0734487744324673
0.1626774409639274
-0.1544085954747820
-0.0437077265818205
-0.0717793192674255
0.0278890767910792
0.2420065638666655
0.0763802361870589
-0.2004146795233763
0.3598221782685300
-0.2858562361586269
0.0500685014273173
-0.4136328699175673
0.3688347847124293
-0.2906460438154728
0.1556332781373425
0.1798108510870687
0.2413416575445163
-0.4640799212916206
0.2504451829911344
0.0417396132581459
-0.0694465341955853
-0.2137234708260291
-0.3653127197011714
0.1571770121734059
0.3812712941597790
0.0405878837637848
-0.6601353060309127
0.2162032013930101
-0.1026217594065759
0.4065363034571937
0.1400175601292434
0.0235010714032974
-0.0325503936249923
0.1480705045955467
0.0403375578391632
-0.1793587408307004
-0.0833132510318747
-0.0467596001853520
-0.0959193972996432
0.1692420327937190
0.0567502155036344
0.2720281101399135
0.3092567967353660
-0.1691381685566895
-0.0466741392529488
-0.3654725991467698
0.0484485811764830
-0.0332422280198291
0.1478015256257217
0.0268380240862465
-0.1898459034863001
0.1932514594438709
0.2151612051498666
0.0744635129534772
-0.1808157240221435
-0.3020604541244664
-0.3010480846413357
-0.1539587574402835
0.1171645337652087
0.3283574628935226
0.0094848453428466
-0.6208340202728568
0.3489819436910458
-0.2821064102669627
0.9830030809428685
-0.4290445945113296
0.1562481641532548
0.3682949346025975
-0.4676142574436293
0.1305764731941872
-0.1875053148879889
-0.3563064719341398
0.2132991960598236
-0.1741230294680643
0.0151644886623483
0.3019658161056492
0.7791005112845122
-0.6080815210537616
0.0295337990205843
-0.2262948459685408
0.0257420560803577
-0.0526961750374012
-0.0430662849223400
-0.0037669944079110
-0.1915248075512832
0.2910542619196168
-0.2228108889329443
0.1896489763439386
-0.0282384198766781
-0.1988737313261217
0.2602740634748135
0.3522732938484029
0.2569982894218273
-0.1173653365080434
-0.1410522318081902
-0.3508540151904811
0.0235010714032974
-0.0325503936249923
0.1480705045955467
0.0403375578391632
-0.1793587408307004
-0.1727517412100211
0.3699901655535747
-0.1974268324753167
0.0063003357236413
-0.0061119280071645
-0.0720699168730382
0.3224963203193495
-0.1337182119087917
0.0326293092237122
-0.1493375009977299
-0.0823466352471790
0.0318628064101135
0.0580304200863812
-0.2145431308305684
0.2069965391235151
0.3658419746918269
-0.1284256632515230
-0.3779207550986707
0.0323668322935861
0.1081376110780160
0.0235010714032974
-0.0325503936249923
0.1480705045955467
0.0403375578391632
-0.1793587408307004
0.3777809029870886
-0.2541120967588078
0.0017942971715411
0.0214937107548779
-0.1469568143144687
-0.2275824011784758
0.0595289859982918
-0.3100709048348296
0.2515927409253614
0.2265315780621396
0.1396919508664603
0.0556603065200377
0.1278960230613909
-0.3606272689028744
0.0373789877229950
0.4580800747444761
-0.2345009803978899
-0.1379968742974897
-0.0508811213526761
-0.0347011004211448
0.3130478199654294
-0.3084704566124832
-0.2383994128686615
-0.1829366237101228
0.4167586725601780
0.0505919769809493
-0.0119858508311584
-0.4771797894545053
0.1504779116138806
0.2880957498311892
0.0123813352549484
0.2120615511485341
-0.2095482166229100
-0.1059869878992150
0.0910923177835369
0.0022841866610119
0.2841387797864319
0.0114426683806951
-0.1571109948211226
-0.1407546411138293
-0.0720648653200331
0.3220729421677214
-0.1662352764697815
-0.2173544847548657
0.1335816837087667
0.1470667339456871
0.1658228671246916
0.2839872283923609
-0.0854410288680704
-0.5114358003972861
-0.0109368013883822
0.3043798769989049
-0.2349085375971287
-0.1966481778548044
0.1381136389868851
-0.2177952955785646
0.1710015040356963
-0.2984252947710878
0.1583616216224367
0.1868574648960730
-0.1847801961136464
0.2769067675851765
0.0005215200672824
-0.0591382482333021
-0.0335098452621622
-0.2282224924477752
0.0221263199820415
-0.0939641422989996
0.4690653498131327
-0.1690050355038090
-0.1164089660293125
0.1153814240300017
-0.0681841383757959
0.0817800122543278
-0.0125683324960935
0.2099230633564847
-0.1604907765519500
-0.0992926436942167
0.1834813587182356
-0.1336210020481051
-0.5186887840365642
0.2594252023905586
-0.2712815767177107
0.4410338171795267
0.0895113411040724
-0.1164460415938142
0.1456756698311042
-0.0682196212499819
0.0537937324628607
-0.0148037400670062
-0.0942653358201804
0.0260965957514681
0.0943937618844236
-0.0599455468699924
0.0337205244507749
0.0429159913189017
0.1408418643717257
-0.0645281978570924
-0.1866089042414638
0.0673792463286901
-0.4080556491378098
0.4354589843233689
-0.3533937732201050
0.7647927673219556
-0.4388023297030180
-0.3407802327142044
-0.1492794362588451
0.2797210356083711
0.0070589500838066
0.2032796828975654
0.2758913178560239
0.0877169982130057
-0.9255033150599898
0.4102143721255878
0.1516806262914960
0.2450968859677333
0.1426196347057505
-0.3814146159730370
-0.0221693149917610
0.0158674096493550
-0.0014670904633738
-0.0320977313251755
-0.0052969228687963
0.1603218404676434
-0.1214600958095032
-0.3032909102032326
0.5177465833590306
0.0426510496171510
-0.2618011534647017
0.0046944304551893
-0.1164089660293125
0.1153814240300017
-0.0681841383757959
0.0817800122543278
-0.0125683324960935
-0.0494939600542365
-0.1224439251537237
0.2899557211101393
-0.2906229660021539
0.1726051296413192
-0.4271993980098455
0.4865288913776378
-0.1231338275422863
-0.1599573505152015
0.2237616844041651
-0.1164089660293125
0.1153814240300017
-0.0681841383757959
0.0817800122543278
-0.0125683324960935
-0.0330837950198193
-0.0214847388475442
0.0376648347389259
0.1196777984586067
-0.1027740994903161
0.4496147442149166
0.0332225294525643
0.2167943640266727
-0.5806799551715880
-0.1189516832550285
0.1310105910500470
0.1388029270909403
-0.2527030978001176
-0.1586969876351862
0.1415865666284843
0.2610405992387366
-0.7606482600633894
0.4722936256429607
-0.1843205002199435
0.2116345350652602
-0.1364905282362821
0.1642079008120063
0.0624533887982479
-0.0570870884966264
-0.0330836739882667
-0.0659407769099229
-0.0810403391109747
-0.0237972011124193
0.0539487971124789
0.1168295191620395
0.0154065499955065
0.0424775714762539
-0.0243219348673555
-0.1779530270221927
0.1443908384563764
-0.5546709551646919
-0.0391868119629420
0.3630544011239090
0.4257978469505821
-0.1949944815651172
0.1871853371733193
-0.3762683333438206
-0.0902881724873746
0.3790276244227387
-0.0996564559837403
-0.0591008661466069
-0.3674060499279262
0.2400114357983720
0.3235489887036805
-0.1370535085095121
-0.5688263838732810
-0.0398005097704064
0.3628694389288473
0.4204940794184057
-0.1747366253218027
-0.0767861366083885
0.1985094141239581
0.0635279587751657
0.0480351464712844
-0.2332863833672605
-0.7916370071769780
0.3634567192232854
-0.4791452093490484
0.2175578000604813
0.6897676971614576
-0.0148508174200596
-0.6395812539973951
-0.7439627906362153
1.8901577256829456
-0.4917628640465172
-0.3588678925111143
0.1022347314031830
-0.7190747651317928
0.0842261219923110
0.8914818036722744
-0.1347178730050181
-0.0004906491521835
-0.0016171345526607
0.1382188972306462
-0.0013932405198969
-0.1910152656818902
0.1601141335264347
0.0941482039118985
-0.1724259164583009
0.1091788444640909
-0.5546709551646919
-0.0391868119629420
0.3630544011239090
0.4257978469505821
-0.1949944815651172
-0.1553346134855393
-0.2051696523869675
0.6381121444796524
0.0492530581324198
-0.3268609367631579
0.0959609801668276
0.0434689133404523
-0.2887865058254334
-0.0348338537782756
0.1841904658133741
-0.5546709551646919
-0.0391868119629420
0.3630544011239090
0.4257978469505821
-0.1949944815651172
0.3226638104804865
0.0306254570200256
-0.4537208320474597
0.0492159880021024
0.0512155763823503
0.0984668687171490
-0.1022034340801522
0.1062652670051944
0.3433696215432854
-0.4458983238528137
0.6813737470111159
-0.1548022560845945
-0.3290930878025460
0.4882105073574887
-0.6856889108214345
0.0874866799169168
-0.3870867238171674
-0.1444181486696323
0.1466825360770452
0.2973356553798793
0.4288637964970920
-0.5058947266060079
-0.1585047476675346
-0.0245914269810077
0.2601271038975098
-0.3107393466832858
-0.0501165479787750
0.1117939942906990
0.2084602870475697
0.0406016127037589
-0.1049822950188858
-0.0636829932527523
0.1114872586525068
0.0249152378226208
0.0322627911765096
-1.3733899157525495
-0.0575751892249524
0.5439616333430972
0.4287392135512414
0.4582642576651224
-0.2965324632882709
0.3206282422688355
-0.9314669161295178
0.4568125292148427
0.4505586073580985
-0.1410928702460859
-0.0123717713725977
-0.0081201953325162
0.1665760727174149
-0.0049912357652416
0.0319173903504417
0.2405625574297667
-0.1087057997155657
-0.1823375647583640
0.0185634164544648
-0.3107393466832858
-0.0501165479787750
0.1117939942906990
0.2084602870475697
0.0406016127037589
-0.1001042182630478
-0.3012155762483303
-0.0254474547499930
0.2201934406929572
0.2065738085436463
-0.3107393466832858
-0.0501165479787750
0.1117939942906990
0.2084602870475697
0.0406016127037589
-0.4387770669870086
0.1254196634804542
-0.1925805804810402
0.0915938925814160
0.4143440907377138
0.0566269750958397
-0.0046652234507249
-0.1411956035351288
-0.0699363724084491
0.1591702239621876
0.6893336045965932
0.0751853518656245
-0.7629095598277573
0.2732508345328344
-0.2748602322819240
1.3804613357758624
-0.0564112065079011
-0.9122700904699208
0.8888670218370969
-1.3006470614963346
-0.4113557217304207
0.2254293089897164
0.1685565775846306
-0.0097199102986962
0.0270897448318293
-0.3947538659909061
0.2252822110484325
0.1684262962741855
-0.0129271862871792
0.0139725443325482
-0.5214434499952471
0.0277898057112019
-0.3132327637487531
0.4126612805154010
0.3942251270955476
0.0340508823142645
0.4563684469877874
-1.1594365937981821
0.6969817970546942
-0.0279645331376301
-0.0299334832204158
-0.0204008033940211
-0.0036641475581944
0.0586754778928360
-0.0046770437192022
-0.4113557217304207
0.2254293089897164
0.1685565775846306
-0.0097199102986962
0.0270897448318293
0.0649704110662151
0.0908448627598025
0.1549733415573596
0.0036084447714010
-0.3143970601798126
-0.4113557217304207
0.2254293089897164
0.1685565775846306
-0.0097199102986962
0.0270897448318293
0.0692418074033856
0.1675099076684494
-0.1354101530190103
-0.1150464114644942
0.0137048487366180
-0.1415265569642886
0.4155640313797116
-0.5374535528842224
0.5696590473654393
-0.3062429697792250
-0.0171983081857666
0.0935033602970190
-0.0933172599554243
-0.0349187281968861
0.0519309356999774
-0.0469509423153704
0.1237038068565629
0.0828115798160999
-0.1980306160801014
0.0384661706033523
0.1696472413327450
0.0758090269743191
-0.1206476475841905
-0.1003293779887646
-0.0244792435994266
-0.1186610456880662
-0.1882602656819174
0.0689037319671605
0.2780699112472938
-0.0400523324721293
-0.1187281814983177
0.0377330540096739
0.0688395639563695
0.0689440284964510
-0.0567884655918174
0.1066744961417501
0.0740514846433790
-0.6611990988031835
-0.1276894618515433
0.6081625794453607
-0.7431664467676261
0.4858488413245762
-0.0294970248636319
0.0680730228142577
0.2187416069090774
-0.0016475963624460
-0.0818177778500183
-0.0019471448604886
0.1916113539300575
-0.1061988348561092
-0.1186610456880662
-0.1882602656819174
0.0689037319671605
0.2780699112472938
-0.0400523324721293
0.1919923179879035
0.8502713895710194
-0.2928190561591708
-0.4289488149329481
-0.3204958364916671
-0.1186610456880662
-0.1882602656819174
0.0689037319671605
0.2780699112472938
-0.0400523324721293
0.2895768687527769
-0.1294173416850963
-0.2320654213593753
-0.3086346563012980
0.3805405499131213
0.2494108950427497
0.1961662596148666
-0.2504658039421763
-0.2022412720349518
0.0071299202017570
-0.2684322722944515
0.1423418063743142
-0.1704811505229542
-0.0233502136239484
0.3199218292032016
-0.1398715205936278
0.2881865955504263
0.0466518508194229
-0.2012702401995498
0.0063033143980798
0.3047261738071089
-0.1520919343843988
-0.2605160325672587
-0.3214921403379371
0.4293739334572078
0.2730344600845746
0.2484936731492794
0.2485728153213054
-0.2711027670713436
-0.4989981815828357
-0.3298602805653163
0.0337659866866613
0.2285269442655383
0.0721333795575469
-0.0045660301185458
0.5635168182722883
-0.2602000746313783
0.0682274799459802
